repo,0,1,2,3,4,5,6,7,8,9,10,11,12,13,14,15,16,17,18,19,20,21,22,23,24,25,26,27,28,29,30,31,32,33,34,35,36,37,38,39,40,41,42,43,44,45,46,47,48,49,50,51,52,53,54,55,56,57,58,59,60,61,62,63,64,65,66,67,68,69,70,71,72,73,74,75,76,77,78,79,80,81,82,83,84,85,86,87,88,89,90,91,92,93,94,95,96,97,98,99,100,101,102,103,104,105,106,107,108,109,110,111,112,113,114,115,116,117,118,119,120,121,122,123,124,125,126,127,128,129,130,131,132,133,134,135,136,137,138,139,140,141,142,143,144,145,146,147,148,149,150,151,152,153,154,155,156,157,158,159,160,161,162,163,164,165,166,167,168,169,170,171,172,173,174,175,176,177,178,179,180,181,182,183,184,185,186,187,188,189,190,191,192,193,194,195,196,197,198,199,200,201,202,203,204,205,206,207,208,209,210,211,212,213,214,215,216,217,218,219,220,221,222,223,224,225,226,227,228,229,230,231,232,233,234,235,236,237,238,239,240,241,242,243,244,245,246,247,248,249,250,251,252,253,254,255,256,257,258,259,260,261,262,263,264,265,266,267,268,269,270,271,272,273,274,275,276,277,278,279,280,281,282,283,284,285,286,287,288,289,290,291,292,293,294,295,296,297,298,299,300,301,302,303,304,305,306,307,308,309,310,311,312,313,314,315,316,317,318,319,320,321,322,323,324,325,326,327,328,329,330,331,332,333,334,335,336,337,338,339,340,341,342,343,344,345,346,347,348,349,350,351,352,353,354,355,356,357,358,359,360,361,362,363,364,365,366,367,368,369,370,371,372,373,374,375,376,377,378,379,380,381,382,383
aumetra/asynk-strim,-0.028115540742874146,0.03452770411968231,-0.01772299036383629,-0.07496585696935654,0.04730413854122162,0.030994553118944168,0.025437671691179276,0.07426879554986954,0.004025491885840893,0.01088879443705082,0.008447282016277313,0.008687731809914112,0.0027564691845327616,-0.005846142303198576,-0.04684467613697052,-0.01567074842751026,0.06466392427682877,0.039584286510944366,-0.10969888418912888,-0.08491460233926773,-0.03984891250729561,0.03367010876536369,0.032552145421504974,0.05718640610575676,-0.03579539433121681,-0.018638886511325836,-0.034753136336803436,0.05749526619911194,0.09085799008607864,-0.10212628543376923,-0.06643794476985931,0.051620643585920334,0.17242346704006195,0.005873664747923613,-0.030898351222276688,0.057337161153554916,0.0522436797618866,-0.012817822396755219,0.03148050978779793,-0.057292211800813675,-0.061272140592336655,-0.08844789862632751,-0.00024444240261800587,0.05402909591794014,0.02979840338230133,-0.06033638119697571,0.0075681875459849834,0.006637648679316044,-0.018198592588305473,-0.01816016063094139,-0.10030099004507065,-0.04910331964492798,-0.10120972990989685,-0.03455362841486931,-0.01985090784728527,-0.02163584716618061,0.006171597167849541,0.004684257321059704,-0.06574216485023499,-0.08445308357477188,-0.023509714752435684,0.004632838536053896,-0.08143170177936554,0.07716967910528183,0.01996219903230667,-0.013480167835950851,0.01112896203994751,-0.01064969040453434,-0.03578006848692894,0.011907069943845272,-0.039839185774326324,-0.0425356887280941,0.05993617698550224,0.06931692361831665,-0.03696297109127045,-0.04743446409702301,0.021343737840652466,0.061093851923942566,0.0051202597096562386,-0.055241744965314865,-0.10151270031929016,0.017777377739548683,0.007766527123749256,0.03814789652824402,-0.011504282243549824,-0.0007140702218748629,0.047333721071481705,0.008343521505594254,0.0060505978763103485,-0.01586303301155567,0.03172051161527634,-0.032035648822784424,0.08244289457798004,-0.06801242381334305,0.05536515638232231,0.04927975684404373,-0.022837486118078232,-0.1390617936849594,0.019980255514383316,0.05833127722144127,0.00549686886370182,0.024863900616765022,-0.005021628458052874,-0.06473944336175919,0.005452458281069994,-0.031222205609083176,-0.01338200643658638,-0.06210470572113991,0.08775925636291504,0.009760790504515171,-0.04349800944328308,0.00700604822486639,-0.012912347912788391,-0.08250684291124344,0.04847569763660431,0.0006749102030880749,-0.06139889732003212,-0.003846149193122983,0.08906201273202896,-0.08430995792150497,-0.03509789705276489,-0.010957899503409863,0.00623492244631052,-0.06044413894414902,-0.0419134721159935,-0.03760305419564247,0.052225261926651,-5.1508509414101795e-33,-0.052980560809373856,0.038075610995292664,0.010785895399749279,0.1120917797088623,0.027500202879309654,-0.015196915715932846,-0.0687853991985321,-0.023920398205518723,-0.10826271027326584,0.04433426633477211,0.08158813416957855,0.18468764424324036,0.04788953810930252,0.05955034866929054,-0.04275408387184143,0.024160031229257584,-0.07895737141370773,0.08987841010093689,-0.005176059436053038,-0.010762029327452183,0.03160238638520241,-0.039719562977552414,0.07596497982740402,0.04814475029706955,0.050474487245082855,-0.05738793686032295,0.03794282302260399,0.022728485986590385,0.05630618706345558,0.006798114627599716,0.06014156714081764,-0.0768330842256546,-0.011540286242961884,-0.03358662128448486,0.05789761617779732,0.04934442415833473,-0.08732627332210541,-0.11100608855485916,0.06658073514699936,-0.02158561535179615,-0.013661254197359085,-0.03806905075907707,-0.08451898396015167,0.04422783479094505,0.05653979629278183,0.007626082748174667,-0.01828605681657791,0.01628372259438038,0.11294950544834137,-0.05665964633226395,0.017689215019345284,0.010571090504527092,-0.07047508656978607,-0.02992846816778183,-0.00860917940735817,0.053742628544569016,-0.009621155448257923,0.03559723496437073,-0.03633049875497818,-0.024754900485277176,-0.03816325590014458,0.03480825573205948,-0.0172125231474638,0.02390921860933304,0.06142203137278557,0.010685792192816734,-0.07767939567565918,-0.061793483793735504,0.054184529930353165,-0.0016517163021489978,-0.0011868919245898724,-0.012202342972159386,-0.050672225654125214,-0.018511243164539337,-0.004968718625605106,0.0030877997633069754,-0.05994979292154312,-0.0380958616733551,0.0695929229259491,0.053483087569475174,-0.09493663161993027,-0.02966431714594364,0.0006512014078907669,-0.024332320317626,-0.04244038462638855,-0.031270116567611694,0.09368057548999786,0.023943234235048294,-0.020418545231223106,0.019093479961156845,-0.03303881734609604,0.04673478752374649,-0.010854830034077168,0.015789596363902092,-0.022046122699975967,1.9463223836511024e-33,-0.05137959122657776,-0.006075289566069841,0.025548197329044342,0.11328469216823578,-0.033735305070877075,0.052611418068408966,-0.02277221344411373,-0.07603480666875839,0.04106345400214195,0.003198435064405203,0.011292736977338791,-0.0024019780103117228,0.016396841034293175,-0.06087830662727356,-0.04058101773262024,-0.026778187602758408,-0.002063254825770855,-0.02918347902595997,-0.06068321317434311,0.0703110545873642,0.05347200110554695,0.09743241965770721,-0.06186884269118309,-0.00046680448576807976,-0.004548883065581322,0.016190234571695328,-0.10911525785923004,-0.0629710778594017,-0.0029967816080898046,-0.07094401121139526,0.02811492420732975,0.05716518312692642,-0.09352459758520126,-0.016821248456835747,-0.07967937737703323,-0.02143905498087406,0.13750700652599335,-0.008420244790613651,-0.04759606346487999,0.07852810621261597,0.05820806324481964,0.03639936447143555,0.01929057016968727,-0.039097752422094345,-0.0410260409116745,-0.06736129522323608,-0.06453808397054672,-0.03734353184700012,-0.011653580702841282,-0.01260640099644661,0.027346394956111908,-0.019808653742074966,-0.014224878512322903,-0.025322547182440758,-0.008711913600564003,0.07116978615522385,0.010931015945971012,0.02639070339500904,0.02018841542303562,0.04207034781575203,0.025568433105945587,0.03546684980392456,-0.05568252131342888,0.0865059494972229,0.002472192281857133,-0.05420428141951561,-0.006238213740289211,0.04163205996155739,-0.016980711370706558,-0.021580690518021584,0.029720932245254517,-0.006616059225052595,-0.023132015019655228,-0.07269719988107681,-0.019488496705889702,0.009489597752690315,0.10369666665792465,0.033037759363651276,-0.06290511041879654,-0.04158322513103485,0.03793550655245781,0.03525911644101143,0.012051311321556568,0.04672705754637718,-0.02472122758626938,0.029379574581980705,0.03300917148590088,-0.12473411113023758,0.024485984817147255,0.012101450935006142,-0.07123396545648575,0.03184200078248978,-0.07133488357067108,0.019825832918286324,0.005341886542737484,-1.984462727477876e-08,-0.056401535868644714,-0.017476510256528854,-0.03336869925260544,0.010803676210343838,0.0034954578150063753,-0.04811173677444458,-0.07883109897375107,0.053809814155101776,-0.09925675392150879,-0.0007511537987738848,0.0009292062604799867,-0.008259175345301628,-0.09453227370977402,0.050852883607149124,0.05902443453669548,0.0057219574227929115,0.03092191182076931,-0.006445419043302536,-0.03366309776902199,-0.03428350389003754,-0.02024037018418312,0.057490136474370956,0.009457242675125599,0.01952388323843479,-0.0340333953499794,0.041694480925798416,0.04844054952263832,0.09277201443910599,-0.0038383963983505964,0.013308444060385227,0.058450084179639816,0.03631123527884483,0.03770130127668381,-0.07479196041822433,0.07157672196626663,0.019366884604096413,0.020031319931149483,0.016858702525496483,0.04336269199848175,0.052166592329740524,-0.0011927441228181124,0.08059001713991165,-0.027227910235524178,0.06607651710510254,0.07689445465803146,0.02396431751549244,-0.07340694963932037,-0.02529563568532467,-0.0527055449783802,-0.01126916240900755,0.03387777879834175,-0.043503280729055405,0.02477816864848137,0.005956618115305901,-0.04133790358901024,0.08272460848093033,0.07231632620096207,0.008898050524294376,0.008309861645102501,0.014629997313022614,0.13911743462085724,0.05732763558626175,0.0768713504076004,-0.004171350039541721
qi4L/sRDI-rs,-0.012739679776132107,0.0485430508852005,0.01501680538058281,0.03164752572774887,0.057242102921009064,0.058810558170080185,0.10821139812469482,0.07007479667663574,-0.12221556901931763,-0.04365275427699089,0.045413993299007416,-0.02730853296816349,0.009177145548164845,-0.02402886375784874,0.0577421635389328,0.019388442859053612,0.11600472033023834,0.010819748975336552,-0.055265046656131744,-0.01567080430686474,0.004089793656021357,-0.028218558058142662,-0.01578613929450512,0.04929003119468689,-0.010502411983907223,0.059279914945364,-0.010306388139724731,0.03331549093127251,0.07131019979715347,-0.00027070636861026287,-0.044872645288705826,0.14130720496177673,0.02483426034450531,-0.039881858974695206,-0.051596637815237045,0.0024937300477176905,-0.016543429344892502,-0.015319202095270157,-0.04078913852572441,-0.09840699285268784,-0.03517744690179825,-0.12580277025699615,-0.04280140623450279,0.02276035025715828,0.04114063084125519,0.03291502222418785,-0.009614027105271816,0.028173191472887993,-0.029200419783592224,0.028803899884223938,-0.027343209832906723,0.043032702058553696,-0.05212359130382538,0.02667287364602089,0.08676978945732117,0.012498621828854084,-0.00996304675936699,-0.02463485486805439,-0.026676494628190994,-0.01867169700562954,0.06486747413873672,-0.017531422898173332,-0.0497412234544754,0.1281234323978424,0.07450830191373825,-0.09096229076385498,-0.01052014995366335,-0.09084504842758179,0.008041993714869022,-0.05258740484714508,-0.02417682856321335,0.04185561090707779,-0.042463596910238266,0.039658982306718826,0.026431206613779068,-0.03715215250849724,-0.01307662669569254,-0.013122521340847015,0.07069369405508041,-0.01683572307229042,-0.026990897953510284,-0.04201351851224899,0.008918779902160168,-0.039063841104507446,0.06284008175134659,0.0654357448220253,0.05176679044961929,-0.08475334942340851,-0.10046237707138062,0.022858085110783577,0.06086975708603859,-0.06039367616176605,0.03087887167930603,-0.09746356308460236,-0.025428440421819687,-0.035692304372787476,-0.020996475592255592,-0.0446876622736454,-0.03139573708176613,0.12233871966600418,-0.03058842569589615,-0.015792228281497955,0.021252017468214035,-0.03881393373012543,0.0038939490914344788,-0.06837323307991028,-0.004019496962428093,-0.0428696908056736,0.029658276587724686,0.008471931330859661,-0.03484593331813812,-0.06221480667591095,-0.042589619755744934,-0.11379343271255493,0.032795682549476624,-0.033521734178066254,-0.06940189003944397,0.002045935019850731,0.039878107607364655,0.03191528469324112,0.00017634408141020685,-0.02383635938167572,0.008344810456037521,0.011142563074827194,-0.0316658616065979,-0.000581820379011333,0.00015942701429594308,-6.716454398387952e-33,-0.002015024423599243,-0.02455413155257702,-0.07788972556591034,0.06903854757547379,-0.0006001374567858875,-0.007804305758327246,-0.07549785822629929,0.03647009655833244,0.014586661010980606,-0.03835953399538994,-0.017345929518342018,0.01802876405417919,0.010750961489975452,0.060560520738363266,0.06598465144634247,-0.022693121805787086,0.016520775854587555,0.05111674219369888,0.034649647772312164,-0.031049607321619987,0.034719742834568024,-0.012156239710748196,0.050672754645347595,0.011191261000931263,0.00037803809391334653,-0.029081087559461594,-0.013634749688208103,-0.04042026400566101,-0.05698534473776817,0.0510968342423439,0.02421366237103939,0.03138861060142517,-0.06919872760772705,0.03662845492362976,-0.02626829966902733,-0.01630251854658127,-0.021371569484472275,-0.13897161185741425,0.03218480572104454,0.04269946366548538,-0.033833835273981094,-0.03462298586964607,-0.06252407282590866,-0.01530664972960949,0.011138946749269962,0.06621846556663513,0.06459549814462662,-0.006104003172367811,-0.014763213694095612,0.0425228625535965,0.041496407240629196,0.055374499410390854,-0.031144622713327408,-0.05117998272180557,0.051918383687734604,0.026782914996147156,-0.05731254070997238,-0.05165436863899231,-0.02024572156369686,0.023541567847132683,-0.045996081084012985,0.04884907975792885,0.018285054713487625,-0.05294377729296684,-0.03414725512266159,0.022432487457990646,0.06780241429805756,0.010703537613153458,0.008292810060083866,-0.015626372769474983,-0.05015921592712402,-0.048821821808815,-0.0781879648566246,-0.05923448130488396,-0.0199884120374918,0.0029862059745937586,0.0787021741271019,-0.009278987534344196,0.010449906811118126,-0.04842096567153931,-0.03245313838124275,-0.009978657588362694,0.004685994703322649,0.043617285788059235,0.04222952574491501,0.004743011202663183,0.055855996906757355,-0.09938838332891464,0.0042483024299144745,-0.0022331271320581436,-0.03553261607885361,0.07816334068775177,-0.007336825598031282,0.017056994140148163,0.01243916992098093,2.3366259973874498e-33,-0.05697420984506607,0.03367379307746887,-0.013334511779248714,-0.016312312334775925,-0.00534565094858408,-0.020426049828529358,-0.04952113702893257,-0.07426683604717255,-0.047420207411050797,0.019020039588212967,-0.05456443876028061,-0.054718017578125,-0.051024165004491806,-0.10740378499031067,0.008815186098217964,0.055183615535497665,-0.05054691806435585,-0.10960696637630463,-0.048425447195768356,0.1258690059185028,-0.07119011878967285,-0.03389214351773262,-0.02158266492187977,-0.011698002927005291,-0.06874129921197891,-0.07832954823970795,-0.04763247072696686,-0.10226542502641678,0.03384723886847496,-0.07277682423591614,0.010233676061034203,-0.05082874372601509,-0.11530150473117828,-0.030257893726229668,-0.010756446979939938,0.005191268399357796,0.01976342871785164,-0.061805982142686844,0.028318092226982117,0.04562037065625191,0.1353742629289627,0.016314908862113953,-0.0011003651889041066,0.06546439230442047,0.0014649670338258147,-0.006098038051277399,0.022514374926686287,0.04131427779793739,0.06680799275636673,0.014246022328734398,0.016125865280628204,-0.015882400795817375,0.01672273874282837,-0.007560721132904291,-0.0822480171918869,0.07839716970920563,0.03587079793214798,-0.044141266494989395,0.04004862904548645,0.06381996721029282,-0.02011922188103199,0.050525836646556854,-0.016839563846588135,0.030567241832613945,0.07238691300153732,-0.01660747081041336,0.01737714186310768,0.024213029071688652,-0.043008171021938324,-0.0179564468562603,-0.06861894577741623,-0.06346888840198517,-0.044104523956775665,-0.029420511797070503,-0.07583950459957123,-0.009112878702580929,-0.014136073179543018,-0.09144517034292221,-0.0388408899307251,0.013520012609660625,-0.017244383692741394,-0.01972813904285431,0.019950896501541138,-0.0007051912252791226,0.04796212166547775,-0.0027543148025870323,0.006528462283313274,0.021964669227600098,0.0456354096531868,-0.02427017316222191,-0.005677395965903997,0.10546291619539261,-0.13591383397579193,0.10207925736904144,0.006959100253880024,-1.6116187495640588e-08,-0.08443254232406616,-0.0028897246811538935,0.06252003461122513,-0.00027962648891843855,0.048932548612356186,-0.006995691452175379,0.05496838316321373,0.04279087111353874,-0.03786659985780716,0.025969574227929115,0.0012933703837916255,0.05355057492852211,-0.07234951853752136,0.1004326194524765,0.1617836207151413,-0.011413687840104103,-0.019556187093257904,0.021814651787281036,-0.06898454576730728,-0.01744452491402626,0.06917869299650192,-0.034373875707387924,0.034853413701057434,0.024227136746048927,0.003313307883217931,-0.046903036534786224,0.04376903921365738,0.11958595365285873,0.04507773742079735,-0.010837986133992672,0.029962893575429916,0.11127879470586777,0.0250738263130188,0.044298384338617325,0.1069408431649208,0.023677529767155647,0.06554052233695984,-0.038928087800741196,0.04240033030509949,-0.03563442453742027,0.04689818248152733,0.021470947191119194,-0.010077754966914654,0.043467313051223755,-0.012648199684917927,0.048489656299352646,0.0393519401550293,-0.14609624445438385,-0.054132990539073944,0.03102288953959942,-0.008029738441109657,0.03989451006054878,0.05363316461443901,0.12493330985307693,0.0949295163154602,0.07836263626813889,0.03179921954870224,-0.039715006947517395,0.01702985167503357,-0.028429808095097542,-0.006619132589548826,0.05007833614945412,0.0365828201174736,-0.04164598137140274
nyxpsi/nyxpsi,-0.02796163037419319,-0.013868513517081738,-0.004585964605212212,0.001290156040340662,-0.03085324726998806,-0.054069776087999344,-0.07424025237560272,0.09126219153404236,-0.12678463757038116,0.03845641016960144,-0.01494806632399559,-0.02298588678240776,0.01587945781648159,-0.02757973037660122,-0.07680141925811768,-0.02473444491624832,0.10997888445854187,-0.07959821075201035,0.020689254626631737,-0.13517215847969055,0.01412253174930811,0.005055926274508238,0.05253228917717934,-0.0522424541413784,0.08316265046596527,-0.04431690275669098,-0.03142651543021202,0.05877453461289406,0.015944484621286392,-0.04519280046224594,0.00781938899308443,0.0006460074218921363,0.07936378568410873,0.026947157457470894,-0.04271256923675537,0.002537941327318549,0.01818268932402134,-0.08393694460391998,0.044375836849212646,0.07942716032266617,-0.018606409430503845,-0.013861240819096565,0.07324820756912231,0.05231223255395889,0.10009264945983887,-0.018522651866078377,-0.08809834718704224,-0.05495842546224594,0.0019253678619861603,-0.017191525548696518,-0.14235684275627136,0.036591481417417526,-0.05128714442253113,-0.025593632832169533,-0.005720813293009996,0.060533855110406876,0.015773413702845573,-0.04030511900782585,-0.05314704403281212,-0.017681140452623367,0.013760119676589966,-0.08908232301473618,-0.12477230280637741,0.008338074199855328,0.1562984436750412,-0.017584767192602158,0.020790375769138336,-0.05698121339082718,0.12914182245731354,-0.004420262761414051,-0.08021864295005798,0.027236338704824448,0.013435030356049538,0.06900382786989212,-0.027783934026956558,0.0048798443749547005,-0.03562767803668976,0.051912009716033936,0.008894859813153744,-0.10929369926452637,-0.0390000119805336,-0.012709077447652817,-0.08280676603317261,0.025720898061990738,0.09707660973072052,-0.02027188614010811,0.06278983503580093,0.03238091617822647,-0.005221452564001083,-0.032703496515750885,0.10325974225997925,-0.0455433614552021,-0.06437570601701736,0.043573375791311264,-0.01662846840918064,0.09368055313825607,0.05545397475361824,-0.09519845992326736,0.06776672601699829,0.05888044834136963,-0.023694807663559914,-0.0370393842458725,-0.019811926409602165,-0.02268928289413452,-0.09653235971927643,-0.028550388291478157,0.06200583279132843,0.06591366231441498,0.04085630923509598,-0.01434972882270813,0.0021999541204422712,-0.011835725978016853,-0.010548592545092106,-0.06420572847127914,0.012157213874161243,-0.007575049065053463,0.030708199366927147,-0.03781282529234886,0.059319380670785904,0.014108381234109402,0.0005602758610621095,-0.00489765452221036,0.04148266464471817,-0.0212600938975811,-0.00704975426197052,-0.0016267485916614532,-0.07070861756801605,-1.0658566355695659e-33,-0.006320643238723278,-0.0001349692902294919,0.026474421843886375,0.024339962750673294,-0.0419912151992321,-0.04467366635799408,-0.06735095381736755,-0.008118879050016403,-0.06973131000995636,0.038212165236473083,-0.01604173704981804,0.060845617204904556,-0.05810932442545891,0.0553787536919117,0.00836086180061102,-0.043354857712984085,0.002501917304471135,0.0889836996793747,-0.025160588324069977,0.05664905160665512,0.039935220032930374,-0.036713529378175735,0.04395661503076553,-0.12360098958015442,0.07124858349561691,0.06901219487190247,0.044344570487737656,-0.022793835029006004,-0.03218359127640724,0.01471162959933281,0.04678227752447128,-0.03972822055220604,-0.10226794332265854,-0.03353424742817879,0.03513442724943161,-0.004297261592000723,-0.07529648393392563,-0.014947840012609959,0.03188619390130043,-0.019716575741767883,-0.06025228276848793,0.04167276620864868,0.016115358099341393,-0.04053932800889015,0.029557710513472557,-0.030474325641989708,-0.047646235674619675,0.0023967064917087555,0.11858467012643814,-0.03527016192674637,-0.04668516293168068,-0.03524555265903473,-0.013283888809382915,-0.006292913109064102,0.04619814455509186,0.046472422778606415,0.04357986897230148,-0.002942948369309306,0.004948419518768787,0.14005586504936218,-0.015650631859898567,0.03206082060933113,-0.05559912323951721,-0.014516137540340424,-0.059671588242053986,0.028333451598882675,-0.11117365956306458,-0.008937250822782516,0.09289808571338654,-0.0030776599887758493,-0.05043167248368263,-0.002536227460950613,0.008097209967672825,-0.04807018116116524,0.0513361357152462,0.047439370304346085,-0.031108783558011055,-0.05251813679933548,-0.021196862682700157,-0.018639585003256798,-0.048843879252672195,0.04316876828670502,-0.016187716275453568,-0.0573139488697052,-0.03399178758263588,-0.01887202449142933,0.03258935734629631,-0.019181910902261734,-0.02418362908065319,-0.04151442274451256,-0.04832907393574715,0.01689915359020233,-0.04549405723810196,0.04498320817947388,-0.016463520005345345,1.9638984119187957e-34,0.021146699786186218,0.029946908354759216,0.020125506445765495,0.034768689423799515,0.06783735007047653,0.04610484093427658,-0.07021449506282806,-0.030586618930101395,0.009553258307278156,0.05016369745135307,-0.003518452402204275,0.004595853853970766,0.05690848082304001,0.026111653074622154,-0.014462096616625786,0.04204611852765083,-0.017876435071229935,-0.08514026552438736,-0.0343264676630497,0.026816213503479958,-0.0007523088133893907,0.1208537146449089,-0.016084160655736923,-0.03760568052530289,-0.024600550532341003,0.01622939109802246,-0.011361807584762573,0.0049179014749825,-0.0463327020406723,-0.09152566641569138,0.05110899731516838,-0.03349342569708824,-0.10242041200399399,-0.03848548233509064,-0.03425072506070137,0.02601953223347664,0.11478089541196823,0.0004312092496547848,-0.016692519187927246,0.0442596860229969,0.10981717705726624,0.007269439287483692,-0.016202516853809357,-0.0863494724035263,0.01571829430758953,0.011314816772937775,0.025863392278552055,0.04375334829092026,0.045111630111932755,0.027790412306785583,0.05710193142294884,-0.0025507763493806124,0.005888468120247126,0.005986086558550596,0.026360992342233658,-0.04796835035085678,-0.05871783196926117,-0.014596403576433659,0.0029788415413349867,0.03146987035870552,-0.010959027335047722,0.0539039745926857,-0.03834360092878342,0.11583666503429413,0.003795522265136242,-0.03344309702515602,-0.061675891280174255,-0.004425305873155594,0.00048500302364118397,0.04419690743088722,-0.11844957619905472,0.01477270107716322,0.04799649864435196,0.018485702574253082,0.05103831738233566,0.022263426333665848,-0.010291430167853832,0.09802976995706558,-0.00537371588870883,0.04716264456510544,0.002894248114898801,-0.0034610037691891193,-0.006826023105531931,0.07165001332759857,0.004149817395955324,0.029490111395716667,0.09650088101625443,-0.09914975613355637,0.05480359122157097,-0.0034249958116561174,-0.006534926127642393,0.041987452656030655,-0.010944578796625137,0.008442430756986141,0.013361520133912563,-2.060225945399452e-08,-0.0011598417768254876,-0.07470234483480453,0.0039454260841012,0.025703923776745796,-0.030459387227892876,0.09884806722402573,-0.07600311189889908,0.03001539222896099,-0.04867446795105934,0.014426837675273418,0.07449911534786224,-0.023564768955111504,-0.05944802239537239,0.033972807228565216,-0.027658600360155106,0.0282876156270504,0.008479692041873932,0.0779477208852768,-0.034744955599308014,-0.08511504530906677,0.02405853569507599,0.029710914939641953,0.03621819615364075,-0.029619721695780754,-0.025766223669052124,-0.01869523711502552,0.015398710034787655,0.069819875061512,0.00011881873797392473,0.007898988202214241,-0.031118761748075485,0.04191051796078682,0.036468133330345154,-0.09043008089065552,0.05359659716486931,0.017587777227163315,0.01764417439699173,0.06859045475721359,0.06129201874136925,0.05269980803132057,-0.032311100512742996,0.06617812812328339,-0.0205544326454401,0.041606418788433075,0.12756763398647308,0.0013350375229492784,-0.10059951990842819,-0.008841846138238907,-0.017626067623496056,-0.02000572718679905,0.023913856595754623,-0.05969654396176338,-0.06459273397922516,-0.012940037995576859,0.006731895729899406,0.06887438893318176,0.010495929978787899,-0.0714680626988411,-0.06464317440986633,-0.011560363695025444,0.09421086311340332,0.01931971311569214,0.008447572588920593,0.059730201959609985
Juanperias/motion,-0.11865411698818207,0.010762624442577362,0.018133141100406647,0.08809822052717209,0.09802650660276413,0.03311999514698982,0.07918895781040192,0.047241996973752975,-0.016532907262444496,-0.08539297431707382,-0.050288859754800797,-0.02806941419839859,0.006111533381044865,-0.026395734399557114,-0.04128303751349449,0.03309858217835426,0.028887733817100525,-0.02807571180164814,-0.01631114073097706,-0.008818257600069046,-0.12382306903600693,0.0375787727534771,0.00025898203602992,-0.0370059534907341,-0.022356754168868065,0.10180992633104324,-0.06712139397859573,0.04253023490309715,0.004558847285807133,-0.08723004907369614,0.0007805710774846375,0.00030660885386168957,-0.001957573229447007,-0.059007659554481506,0.056695420295000076,0.0493290014564991,-0.011958439834415913,-0.01195375993847847,-0.021272553130984306,0.027640515938401222,-0.057257696986198425,-0.009837441146373749,0.0026636719703674316,0.05349293723702431,0.007742683403193951,-0.035422079265117645,0.048154912889003754,-0.0038037339691072702,0.07114387303590775,-0.0664302185177803,-0.06008953973650932,0.025925971567630768,0.017492685467004776,-0.06609949469566345,0.06323502957820892,0.007617768831551075,0.023157674819231033,0.04799861088395119,0.020488794893026352,0.018962323665618896,-0.010208701714873314,-0.05360620096325874,-0.05299163982272148,0.01664675585925579,0.10861461609601974,-0.0179289560765028,0.017718108370900154,0.06254077702760696,-0.048325005918741226,-0.037660568952560425,-0.018116889521479607,0.018454305827617645,-0.0884052962064743,0.056466180831193924,-0.0535179004073143,0.10516120493412018,0.033035919070243835,-0.07875797152519226,0.014949819073081017,-0.046151868999004364,-0.13832299411296844,0.004947618581354618,-0.029261106625199318,-0.028398944064974785,0.012157812714576721,0.09616504609584808,0.028902223333716393,-0.021373340860009193,0.02837291546165943,0.08382413536310196,-0.018604038283228874,-0.004752572625875473,-0.07241736352443695,0.048200249671936035,0.025278622284531593,0.10443665087223053,0.0470830500125885,-0.053141284734010696,-0.056284673511981964,0.0817393809556961,0.0002706536033656448,0.034301746636629105,0.04726449027657509,-0.0915166512131691,0.06153980270028114,-0.055275533348321915,-0.05178036540746689,0.03856790438294411,-0.04242292046546936,-0.009442674927413464,-0.014884300529956818,-0.042202383279800415,-0.03170737251639366,-0.019213343039155006,0.040048643946647644,-0.06305544823408127,-0.03290392830967903,-0.04925321042537689,0.016752412542700768,0.07837586849927902,0.09794429689645767,-0.010557582601904869,-0.07423124462366104,0.07229585945606232,-0.07310044765472412,-0.04587210714817047,0.05492677167057991,-5.77953397290474e-33,0.04939941689372063,-0.049995843321084976,0.004796284716576338,0.15678226947784424,0.0003157971950713545,-0.01869269832968712,-0.03253372386097908,-0.032990962266922,-0.040071915835142136,0.022399961948394775,0.0035149671602994204,0.03745078667998314,-0.032895468175411224,-0.09405717998743057,0.06647290289402008,-0.04936474189162254,-0.002185252495110035,-0.09557771682739258,-0.046521030366420746,-0.025548402220010757,0.03514067456126213,0.03615265339612961,0.010662313550710678,0.011044446378946304,-0.018422985449433327,-0.05445029214024544,-0.0370417945086956,-0.0013089028652757406,-0.046910688281059265,0.0073523372411727905,0.0354766920208931,-0.05868266895413399,-0.03138064593076706,0.008536824025213718,0.05887928605079651,-0.06384387612342834,0.04130220413208008,-0.01323716714978218,-0.09786548465490341,-0.10045832395553589,-0.06311298906803131,0.0703580230474472,-0.0654507651925087,0.04003395885229111,0.1286754012107849,-0.05592260882258415,0.032028310000896454,0.02200876735150814,-0.08855370432138443,0.0010814829729497433,-0.023376651108264923,0.0951063483953476,0.07213565707206726,0.0687323808670044,-0.029458722099661827,-0.015438784845173359,0.05132780224084854,0.02251846343278885,-0.025111060589551926,0.06662263721227646,-0.0010840437607839704,0.12440408021211624,0.0412767231464386,0.013304409570991993,-0.02853592485189438,-0.036005500704050064,-0.028763221576809883,0.031239071860909462,-0.05005478486418724,0.06481558084487915,0.01288357749581337,-0.05003189295530319,0.050211865454912186,0.014775971882045269,-0.018445439636707306,0.010199115611612797,-0.04462664574384689,-0.03804299980401993,-0.0004843232163693756,-0.11522851884365082,-0.0016521138604730368,0.009480323642492294,-0.0337655209004879,0.04787619784474373,-0.041400246322155,0.07482036203145981,-0.007982645183801651,-0.08917389810085297,-0.009819664992392063,0.03531836345791817,0.0034293553326278925,-0.006808784324675798,0.058211155235767365,-0.06074874848127365,-0.049805160611867905,3.6056746375138215e-33,0.0880795568227768,-0.003537467448040843,0.007926388643682003,-0.05620734766125679,-0.004488406237214804,-0.03460131585597992,-0.044560015201568604,-0.03365868330001831,-0.0065499055199325085,0.08438980579376221,-0.019525321200489998,-0.044147469103336334,0.04323207587003708,0.011116990819573402,0.04674993455410004,0.017219573259353638,0.07470909506082535,0.0462479293346405,0.038342639803886414,0.01782872900366783,-0.034592773765325546,0.05058011785149574,-0.11925750225782394,-0.0004122800601180643,-0.03376692160964012,0.06421917676925659,-0.05881640315055847,0.0015692770248278975,-0.0486830435693264,0.06196117028594017,0.020854424685239792,-0.015415703877806664,-0.02536417916417122,0.02051343210041523,-0.04682868346571922,0.06701863557100296,-0.03803766891360283,0.007916967384517193,0.023149924352765083,0.047258663922548294,0.06767471134662628,-0.0689062550663948,0.022946655750274658,0.09615274518728256,-0.03814872354269028,0.045414675027132034,-0.04688350111246109,0.023870335891842842,0.014876341447234154,0.022126024588942528,0.12711253762245178,0.056416045874357224,-0.001936466433107853,-0.033359501510858536,-0.03217071294784546,-0.10783123970031738,0.015416543930768967,-0.013316843658685684,-0.032213471829891205,0.10097239911556244,0.03756698593497276,0.03601665794849396,-0.026419108733534813,0.028342310339212418,-0.018984701484441757,-0.08090236783027649,-0.002444419777020812,0.04671058803796768,-0.03478650748729706,-0.05842310190200806,0.06674651056528091,0.02009187638759613,0.007965540513396263,-0.012799391523003578,-0.04665057733654976,0.04313776269555092,0.018786048516631126,-0.025580652058124542,-0.01764804683625698,0.025460658594965935,-0.0847063660621643,-0.010035751387476921,-0.00018060793809127063,0.12372776120901108,0.0407390221953392,-0.028672004118561745,0.017479676753282547,0.004730762913823128,0.03812005743384361,-0.06806328892707825,-0.0184680987149477,-0.048234883695840836,0.022407760843634605,0.0899234339594841,-0.047388818114995956,-1.676757577229182e-08,-0.0281588863581419,-0.042085401713848114,0.02052859589457512,0.07432929426431656,0.05457877740263939,0.060776837170124054,-0.0461144857108593,0.017153114080429077,0.01492280699312687,0.013169449754059315,0.020522011443972588,0.06011710688471794,-0.04441814497113228,0.0434369258582592,0.04347819834947586,0.06706249713897705,-0.004720121622085571,-0.03106522560119629,-0.01830979809165001,-0.05030936747789383,-0.004152280744165182,-0.008258586749434471,-0.018524739891290665,-0.03628550097346306,-0.02655867114663124,-0.05573369190096855,0.010192498564720154,0.06330064684152603,0.07260721921920776,0.018515052273869514,0.0402681902050972,0.013830059207975864,-0.00811495166271925,0.044836800545454025,-0.04178902879357338,0.06114823743700981,-0.06210426613688469,0.03892097994685173,-0.05701402574777603,-0.09652627259492874,-0.06288357079029083,0.06663352251052856,0.009966610930860043,-0.015094180591404438,-0.13374175131320953,0.03479159623384476,-0.08654091507196426,0.009900769218802452,-0.04296119883656502,-0.06099521741271019,0.007327869534492493,-0.05851747468113899,0.059882137924432755,0.08602079749107361,0.06931864470243454,0.06406093388795853,0.023338686674833298,-0.015333340503275394,-0.04744323715567589,0.023981744423508644,-0.05764269828796387,0.017439700663089752,-0.010313400998711586,0.036673981696367264
rick-de-water/nonany,-0.04147854819893837,0.03343864902853966,-0.012888935394585133,0.02252332866191864,-0.07216346263885498,0.01867697201669216,0.020117290318012238,-0.0258979182690382,-0.028595667332410812,-0.04838016629219055,0.06831786036491394,-0.1106947585940361,0.005006234161555767,-0.006857865955680609,0.030920034274458885,0.04442085325717926,0.0309999268501997,-0.02170836739242077,-0.03788209706544876,-0.053485941141843796,0.0718407854437828,0.014579620212316513,-0.013442524708807468,0.0681702271103859,-0.04324536398053169,-0.08648281544446945,-0.029541950672864914,0.010348808020353317,0.13701201975345612,-0.040632348507642746,-0.07947670668363571,0.08024346083402634,-0.007138887885957956,0.045115068554878235,-0.005654135253280401,0.0681183785200119,-0.05506047233939171,0.06540330499410629,-0.004954501520842314,0.013602987863123417,-0.07736479490995407,0.024203479290008545,-0.037533897906541824,0.011707421392202377,0.052585672587156296,-0.08785813301801682,-0.009218484163284302,-0.03571471944451332,-0.028449609875679016,-0.11589618027210236,-0.10244559496641159,0.06391534209251404,-0.1275923103094101,0.051320794969797134,-0.006012528669089079,0.017382290214300156,-0.04273933172225952,-0.02221856452524662,-0.04808754101395607,-0.08680178225040436,-0.0008090455085039139,0.02594982460141182,-0.03914831951260567,-0.03595860302448273,0.06384240090847015,0.03247124329209328,-0.009776697494089603,0.0800480768084526,0.023197313770651817,0.03839365020394325,-0.0209334809333086,-0.006347782909870148,-0.0041908808052539825,0.05505112558603287,-0.04058840125799179,-0.017235487699508667,0.05860890820622444,0.030360082164406776,0.016440264880657196,-0.006220999173820019,-0.04897812753915787,0.09012937545776367,0.020636115223169327,0.044348184019327164,0.06342103332281113,0.028619177639484406,0.030539620667696,-0.015536642633378506,0.004578540101647377,0.01790640875697136,-0.058980077505111694,-0.011659939773380756,0.004677315708249807,-0.06652023643255234,0.038167767226696014,-0.026004783809185028,0.08924146741628647,-0.1118505597114563,-0.008586019277572632,0.08749599754810333,0.021375004202127457,0.06256528943777084,0.06255394965410233,-0.07237556576728821,-0.04691719636321068,-0.04068513959646225,-0.0032923768740147352,-0.060977134853601456,-0.006340446881949902,0.07314178347587585,-0.020862655714154243,0.0033725504763424397,-0.1441933512687683,-0.09383406490087509,-0.0804997906088829,-0.01689733751118183,-0.049860257655382156,0.0038455124013125896,0.030745161697268486,0.02013295702636242,0.06580546498298645,-0.0018235648749396205,0.0536651611328125,0.006426672451198101,-0.046825967729091644,0.023732030764222145,0.00892051961272955,-3.9865910105038913e-33,0.017399461939930916,-0.046604372560977936,0.03991073742508888,0.03903188928961754,-0.0402148962020874,0.05750393494963646,-0.03862457349896431,0.03753267601132393,-0.041533466428518295,-0.036292362958192825,-0.004306030925363302,-0.0031451801769435406,0.025871774181723595,0.0752597525715828,-0.022247837856411934,-0.020311757922172546,0.0020330853294581175,0.03076270967721939,0.021794700995087624,0.016000671312212944,0.039503321051597595,0.13189038634300232,-0.05444962903857231,0.01372219156473875,0.08562011271715164,-0.015553299337625504,0.02617609314620495,-0.029244383797049522,-0.01045096106827259,0.0011745691299438477,0.057068586349487305,-0.058240484446287155,-0.017267221584916115,-0.007496148347854614,0.05736124515533447,0.035162776708602905,-0.048514317721128464,-0.03106197901070118,0.06684954464435577,-0.10257024317979813,0.06792551279067993,-0.018086321651935577,0.02685464173555374,0.03601687029004097,0.11328338831663132,-0.06325328350067139,0.04782357066869736,-0.03334909677505493,-0.04321160912513733,-0.005262675695121288,-0.022436004132032394,0.013596070930361748,-0.024824630469083786,0.027600029483437538,0.032719794660806656,-0.03571110963821411,-0.01175787951797247,0.1296588033437729,-0.0027741952799260616,0.06367550790309906,-0.020130248740315437,-0.02272084355354309,0.0029363520443439484,0.0025047704111784697,-0.08620236814022064,0.004628591239452362,-0.1300508975982666,-0.03922417387366295,0.0743078961968422,-0.057899732142686844,-0.04789452999830246,0.04783017933368683,-0.048366934061050415,0.07833703607320786,-0.027026787400245667,-0.04746480658650398,-0.042127322405576706,-0.051722653210163116,0.02179790288209915,-0.017290139570832253,-0.04150944575667381,-0.06342358887195587,0.009193656034767628,0.1269756555557251,-0.022200748324394226,0.04211908578872681,0.05535860359668732,0.05859291926026344,0.1023675799369812,-0.08351228386163712,-0.004224409349262714,0.020133862271904945,-0.06494680047035217,-0.05386890843510628,0.047450821846723557,7.4552886892297495e-34,0.024259140715003014,0.04782027378678322,-0.05916261672973633,-0.052639394998550415,-0.01715197041630745,0.011140321381390095,0.005578754935413599,-0.11533357948064804,0.06311807036399841,0.014722665771842003,-0.024210061877965927,-0.03777457773685455,0.06375271826982498,-0.09017288684844971,-0.04075732082128525,0.03575587645173073,-0.05566701292991638,-0.03398553654551506,-0.04185880720615387,0.09687831252813339,-0.03049474209547043,0.04355175048112869,-0.018319720402359962,-0.020384784787893295,0.006564750336110592,0.05154120922088623,-0.09322521090507507,0.05200163275003433,-0.005256002303212881,0.0523347482085228,0.003484445856884122,-0.019423983991146088,-0.05004486069083214,-0.05763498693704605,-0.06360744684934616,-0.01463053934276104,0.018331246450543404,0.053592339158058167,-0.004151670727878809,0.030024228617548943,0.03576651215553284,0.0178252961486578,0.07543159276247025,0.06709850579500198,-0.01295913103967905,-0.020484643056988716,-0.02498253993690014,-0.09368963539600372,0.08556456118822098,0.0048736948519945145,-0.02187289483845234,-0.05005228891968727,-0.11969268321990967,-0.03238559141755104,-0.016912128776311874,0.00176622171420604,-0.009273713454604149,-0.04934531822800636,0.011365721002221107,0.02429477870464325,-0.02327728644013405,-0.08114637434482574,0.03451225906610489,0.029040683060884476,0.024486958980560303,-0.10986953973770142,-0.03728911653161049,-0.006036433391273022,0.003325751982629299,-0.05381137877702713,0.0030937879346311092,0.03392072394490242,-0.02865070104598999,-0.08490060269832611,-0.03478022292256355,0.0047376747243106365,0.04148238152265549,0.00902612041682005,-0.005321308970451355,-0.0519183911383152,0.05034555494785309,0.009622875601053238,0.05868663638830185,0.0692170113325119,-0.05889885872602463,-0.048581454902887344,0.12590129673480988,-0.0924469381570816,-0.061375055462121964,0.07060904800891876,0.027211414650082588,0.0578087754547596,-0.028327036648988724,0.09503389149904251,0.06260532885789871,-1.9372768278458352e-08,0.01580018736422062,-0.11026474088430405,0.05828811228275299,-0.04517081752419472,0.0344657376408577,-0.03951084986329079,-0.04710865020751953,-0.05295104160904884,0.036634594202041626,0.005024212412536144,-0.018433071672916412,0.0010528304846957326,-0.042441874742507935,-0.029322093352675438,0.11146078258752823,0.012549377046525478,0.053035952150821686,0.008914440870285034,-0.08736266195774078,-0.059210553765296936,-0.04228586331009865,-0.017827661707997322,-0.05385933071374893,-0.018751613795757294,-0.012036011554300785,0.018862271681427956,0.036853838711977005,0.0022582081146538258,0.000909172638785094,-0.02667367458343506,0.038206905126571655,0.04955209419131279,0.028681932017207146,-0.0503273643553257,-0.004642216954380274,0.09140531718730927,0.057230252772569656,0.04307924583554268,-0.0053808665834367275,-0.01910150796175003,0.014033344574272633,0.04366006702184677,-0.06783837825059891,0.023451272398233414,0.1256771981716156,-0.014150737784802914,-0.02002963051199913,-0.04074045643210411,-0.03348562866449356,0.008021729998290539,-0.005109358578920364,0.037646036595106125,0.04001549258828163,0.07078862935304642,-0.03388301283121109,0.08271681517362595,-0.007514104712754488,0.013486193493008614,0.07565242797136307,0.001550113083794713,-0.0007558497600257397,0.028544459491968155,0.06972037255764008,0.015860585495829582
NovaLogics/skills-training-cli-java,0.010119888000190258,0.10298585146665573,-0.031392596662044525,0.0007726282346993685,0.01683737151324749,0.03300825133919716,0.07106808573007584,0.01681494154036045,0.03403545543551445,0.005292762536555529,-0.042875025421381,-0.054053895175457,-0.012537960894405842,-0.0029021427035331726,0.015500318259000778,-0.02088295854628086,-0.13058136403560638,0.04787876456975937,-0.12221009284257889,-0.013719068840146065,-0.011413926258683205,0.026344263926148415,0.01978371851146221,0.0059430766850709915,-0.022914448752999306,0.11722370237112045,0.027505457401275635,-0.02994806505739689,0.012065526098012924,-0.049657173454761505,0.061943262815475464,-0.014316349290311337,0.0037692708428949118,0.0036779188085347414,0.05381453037261963,0.042944978922605515,0.011646445840597153,-0.015668077394366264,0.05516120046377182,-0.023633433505892754,0.04579554498195648,-0.057252392172813416,-0.07241751998662949,-0.01432934682816267,0.03896298632025719,0.03890891745686531,0.0004566756833810359,-0.008754812180995941,0.007010023575276136,-0.027010787278413773,-0.03740250691771507,-0.02291608415544033,-0.05463717505335808,-0.019752541556954384,0.02742002345621586,0.1441739946603775,-0.07087404280900955,0.038787323981523514,0.012348181568086147,-0.0545087531208992,0.028166184201836586,-0.08422507345676422,-0.07324309647083282,0.05182841047644615,0.019834423437714577,-0.012631164863705635,-0.05599905550479889,0.05811908468604088,-0.03827858343720436,0.04445666819810867,0.02118917554616928,0.02013578824698925,-0.022321797907352448,-0.01544789969921112,0.057581089437007904,0.01183321326971054,-0.06187267228960991,-0.035805124789476395,0.0008523750584572554,0.02365811914205551,0.028710654005408287,-0.038441479206085205,-0.051082804799079895,0.10543859004974365,0.0781426876783371,-0.03202981874346733,0.031153135001659393,-0.032013583928346634,0.03696592524647713,-0.00820168387144804,-0.037337031215429306,-0.010829850099980831,0.002237198641523719,0.08372187614440918,-0.016728557646274567,-0.07854689657688141,-0.04448862373828888,-0.07553888857364655,-0.043823082000017166,0.18737050890922546,-0.011065727099776268,0.025000253692269325,-0.008679741993546486,0.030307406559586525,-0.04289376735687256,-0.0069186813198029995,-0.03614623844623566,0.14033076167106628,0.0260342787951231,-0.06749212741851807,-0.020884741097688675,-0.007744485512375832,-0.041103627532720566,0.04655545949935913,0.05073963850736618,0.01786009594798088,-0.13755390048027039,0.014792649075388908,0.03289126232266426,-0.0004676513490267098,-0.06812714785337448,0.03267156332731247,0.01007224339991808,0.08680124580860138,-0.0618436336517334,-0.10381363332271576,-0.01652522198855877,-3.440021402202052e-33,0.058513328433036804,0.025878721848130226,0.05205167084932327,0.08210273832082748,-0.08622502535581589,0.05716155841946602,0.03423973172903061,0.036145929247140884,-0.0036576988641172647,0.012075674720108509,0.04516277089715004,0.0050107925198972225,-0.08024200797080994,0.02793680690228939,0.08620493859052658,-0.0571187362074852,-0.11492779105901718,0.06751970201730728,0.04582837596535683,0.09659634530544281,0.03605598583817482,-0.0012952901888638735,-0.018185606226325035,-0.07955139130353928,0.08748981356620789,0.030341049656271935,0.026907319203019142,-0.06690434366464615,-0.0574970617890358,0.019849039614200592,-0.0261501707136631,0.018722718581557274,-0.04161102697253227,-0.009263340383768082,-0.008510269224643707,-0.037470437586307526,-0.014918469823896885,-0.02433953993022442,-0.041105642914772034,-0.05671147257089615,0.028072139248251915,0.06733015179634094,0.021230753511190414,-0.0007475762977264822,-0.0009136045700870454,0.0563230961561203,0.07051869481801987,-0.05986560508608818,-0.061598487198352814,-0.012405970133841038,-0.0016804627375677228,-0.04300333559513092,-0.008710313588380814,-0.056661587208509445,0.04332718253135681,-0.013388346880674362,-0.030301585793495178,-0.03222563490271568,-0.03588825464248657,-0.04265441745519638,0.10467582195997238,-0.058374423533678055,-0.036880116909742355,0.05459466949105263,-0.017260760068893433,0.0916241928935051,0.04201069101691246,0.01571367308497429,0.10352854430675507,-0.013035324402153492,-0.047120049595832825,0.014694392681121826,0.05503688380122185,-0.0344485305249691,0.0069224173203110695,-0.044721394777297974,0.033560335636138916,0.016605259850621223,0.03923008590936661,0.009477158077061176,0.06099538877606392,0.03085579350590706,0.02507033757865429,-0.057254791259765625,0.10342774540185928,-0.016793780028820038,0.05444304272532463,-0.09667747467756271,-0.004671270027756691,0.08759753406047821,-0.046257637441158295,0.017373470589518547,-0.015633219853043556,0.06098998710513115,-0.07338932901620865,3.2194215201710185e-33,0.014362968504428864,0.060607776045799255,0.004592152778059244,-0.0040885284543037415,0.02956123650074005,0.028524933382868767,0.0033512157388031483,-0.002695964416489005,0.039741046726703644,0.07970549911260605,-0.048863641917705536,-0.06224566325545311,-0.015505405142903328,0.02567056007683277,-0.026639271527528763,-0.007292129099369049,0.05526069924235344,0.03182069584727287,-0.0465402752161026,-0.012736844830214977,-0.02320708893239498,0.007389341946691275,-0.05764946714043617,-0.025456503033638,-0.059166744351387024,-0.017342276871204376,0.033190932124853134,0.007938727736473083,-0.05749320238828659,0.003371987259015441,0.08184517920017242,-0.010610098019242287,-0.062352731823921204,-0.07154279947280884,-0.05299053341150284,0.06980372220277786,0.012765842489898205,0.02719137817621231,-0.021624945104122162,0.14593036472797394,0.0017815075116232038,-0.003990324679762125,-0.019685085862874985,0.048514481633901596,-0.046853192150592804,0.019742440432310104,0.10829782485961914,0.002948225010186434,0.03236934170126915,0.025951748713850975,0.04508792236447334,-0.0033353480976074934,-0.06405176967382431,-0.08114458620548248,-0.03443126752972603,-0.05390627309679985,0.024964837357401848,-0.04536586254835129,0.10348794609308243,0.008329061791300774,0.02375546097755432,0.06576214730739594,-0.05834494158625603,0.10977127403020859,0.007442138623446226,0.044661324471235275,-0.059431638568639755,0.05008949339389801,0.07992176711559296,0.05531566962599754,-0.02394190803170204,-0.02508198283612728,-0.0032891579903662205,0.007709271740168333,-0.09814195334911346,-0.05280055105686188,-0.09929654002189636,0.037063051015138626,-0.05737292021512985,-0.007345466874539852,-0.054258063435554504,-0.10767953842878342,-0.05304558202624321,0.09095562249422073,-0.012727861292660236,0.04829868674278259,0.023266049101948738,0.0036521798465400934,0.006650662515312433,-0.011448823846876621,-0.04710005223751068,0.03779418021440506,-0.015315392054617405,0.02912834845483303,-0.006027426570653915,-1.4801096348548981e-08,-0.052801117300987244,-0.010731960646808147,-0.04361959546804428,0.001820576610043645,-0.006451815366744995,0.07065165787935257,-0.09024982154369354,-0.04207390546798706,0.0011868630535900593,-0.011147288605570793,-0.04719057306647301,0.02600129321217537,0.034737806767225266,0.03654905781149864,0.03552836552262306,0.021885087713599205,0.03583346679806709,0.028270568698644638,-0.009686444886028767,0.028137678280472755,0.011982551775872707,-0.07836098223924637,-0.020198680460453033,-0.015772931277751923,-0.029922159388661385,-0.0738539770245552,-0.03422849252820015,0.12450534105300903,-0.0076185050420463085,0.037937093526124954,-0.011176750995218754,0.04657008871436119,0.054707612842321396,-0.017835740000009537,-0.023536035791039467,0.004889493342489004,-0.0077331759966909885,-0.053332746028900146,0.04735859856009483,-0.073300801217556,-0.061584994196891785,0.09788194298744202,0.11431556940078735,-0.01620618626475334,-0.11250344663858414,0.039467986673116684,-0.034811634570360184,-0.03938640281558037,0.019892103970050812,-0.04491643235087395,0.06742639094591141,0.01452599186450243,0.01008559763431549,0.02390233427286148,0.12925292551517487,-0.019925827160477638,0.015126599930226803,-0.060169901698827744,-0.04095633327960968,0.08367109298706055,0.048225224018096924,-0.019420061260461807,0.030100194737315178,0.015015298500657082
diommsantos/QtREAnalyzer,-0.11696918308734894,0.022016283124685287,-0.03664367273449898,-0.02066255360841751,-0.04647878557443619,-0.031166814267635345,-0.016892826184630394,0.05298195779323578,-0.07149606198072433,0.022983577102422714,0.07234402000904083,-0.060291849076747894,-0.05234825983643532,0.0995996743440628,-0.04332595318555832,0.04944459721446037,-0.011472090147435665,-0.03182103857398033,0.04024401679635048,-0.07437963038682938,-0.026032550260424614,-0.0033388067968189716,0.03284831345081329,-0.03091619163751602,0.010772144421935081,0.005396423861384392,-0.06831809878349304,0.05317059904336929,0.03021291457116604,-0.08983312547206879,0.030106622725725174,0.059951767325401306,0.027700843289494514,-0.05115960165858269,0.07916605472564697,-0.009826980531215668,-0.013559087179601192,-0.06746674329042435,-0.06748542189598083,-0.032376788556575775,-0.03083239123225212,0.03361639380455017,-0.0893736183643341,0.009193120524287224,0.036972276866436005,-0.03912197798490524,0.027258334681391716,0.023438341915607452,0.02935156412422657,-0.1269480586051941,-0.006821644492447376,-0.08584865927696228,0.0007462100475095212,0.004619312006980181,0.02168693207204342,-0.01785260997712612,0.0004125501145608723,-0.022126423195004463,0.042148247361183167,0.02540798857808113,0.1108321025967598,0.03323328122496605,-0.08419438451528549,0.03768528625369072,0.013696346431970596,-0.03955015912652016,0.0001739028375595808,-0.070044606924057,0.06583134084939957,-0.022717684507369995,-0.05619298294186592,-0.07947362959384918,-0.039268482476472855,-0.028684891760349274,-0.02385469526052475,-0.01090174913406372,-0.023229332640767097,0.03571861982345581,-0.015856362879276276,0.015700804069638252,-0.01293432991951704,-0.11531434953212738,0.00773558160290122,0.09083230793476105,0.0415906086564064,0.03162277489900589,0.021977493539452553,0.02854290045797825,0.004560518078505993,-0.07914961874485016,0.04578109085559845,-0.007601658347994089,-0.03452471271157265,-0.045284271240234375,0.011837771162390709,-0.033160097897052765,0.03854513168334961,-0.040918149054050446,-0.036883555352687836,0.035688407719135284,-0.031908560544252396,-0.113287553191185,0.040923457592725754,0.043703820556402206,-0.05440841615200043,0.010835512541234493,0.02849571406841278,0.06293954700231552,-0.00013897994358558208,-0.06271699070930481,-0.08817291259765625,0.02106085605919361,-0.012811115011572838,-0.02941698022186756,-0.0005838449578732252,0.018676167353987694,0.0223098024725914,0.06615757942199707,0.015327407978475094,0.04901904612779617,0.017553919926285744,-0.006518697366118431,-0.027764663100242615,-0.0085702920332551,0.07855688035488129,0.09612857550382614,-0.0628773495554924,1.5475444830549396e-35,0.11936861276626587,0.01937197521328926,-0.07729285955429077,-0.032622165977954865,-0.025820013135671616,-0.0052541643381118774,0.04085848480463028,0.01469140313565731,-0.05183988809585571,0.00030960977892391384,0.0513661690056324,0.0204213485121727,-0.047646746039390564,0.0625968873500824,0.051790669560432434,0.012855983339250088,-0.021009264513850212,0.023711252957582474,-0.028903402388095856,-0.07684848457574844,0.05675439164042473,-0.05266589671373367,-0.04096129536628723,0.048419419676065445,0.09155244380235672,0.06611285358667374,0.08606159687042236,0.00041102792602032423,-0.03739042207598686,0.008488844148814678,-0.06782235950231552,-0.01767825335264206,-0.04182923585176468,0.02123306505382061,-0.056978560984134674,0.028390461578965187,-0.09963337332010269,-0.06289594620466232,-0.032964400947093964,-0.0197988860309124,-0.05342889204621315,0.0019008929375559092,-0.004746276885271072,-0.0861373171210289,0.11141255497932434,0.04714016616344452,-0.022415025159716606,0.02826632559299469,0.11461357772350311,0.011908914893865585,0.00014330336125567555,-0.009969429112970829,-0.008665083907544613,0.10520525276660919,-0.0586588978767395,0.09379535913467407,0.05915515869855881,-0.015303578227758408,0.0014117166865617037,0.01011479739099741,0.014131370931863785,0.0684383437037468,-0.07502514868974686,-0.07029827684164047,0.009814894758164883,-0.012246050871908665,0.025823161005973816,0.010125524364411831,-0.030045509338378906,0.13317450881004333,-0.09444925934076309,-0.05293150618672371,0.06567776948213577,0.07955413311719894,0.055135730654001236,0.000967383966781199,-0.00179905048571527,0.032879188656806946,-0.08022667467594147,-0.06283362209796906,-0.052319079637527466,0.010747930034995079,0.04075700044631958,-0.02864658087491989,0.0232195183634758,-0.07723638415336609,0.029810888692736626,-0.01731661707162857,0.0022612784523516893,0.06256072223186493,-0.04309772327542305,0.003609420033171773,-0.027628034353256226,0.06422603130340576,-0.09198997169733047,-9.514465050880019e-34,-0.030927984043955803,-0.04798075184226036,0.04411565139889717,-0.0012646553805097938,-0.011569608002901077,0.018331028521060944,-0.061116527765989304,-0.02238880842924118,0.03560345992445946,-0.021107356995344162,-0.0012107223737984896,0.12391292303800583,0.03139971196651459,0.00041058813803829253,-0.046436578035354614,0.08439301699399948,0.014806851744651794,-0.12649157643318176,-0.021236546337604523,0.03240475431084633,-0.028153391554951668,0.08442853391170502,0.04667224362492561,-0.08747724443674088,0.018205314874649048,-0.04650937393307686,0.14508982002735138,-0.027761822566390038,0.03827134519815445,-0.03770950436592102,0.006200090982019901,-0.04289624094963074,-0.055356357246637344,-0.09884223341941833,0.005424088798463345,0.01165173202753067,0.029397351667284966,-0.0295557901263237,-0.04902232065796852,0.005517954472452402,0.04571682587265968,0.06244814023375511,0.0019105203682556748,-0.015686089172959328,0.00786368828266859,0.00635028351098299,-0.03151928260922432,-0.06496867537498474,-0.05744075030088425,0.001504262094385922,0.05974501371383667,0.052955616265535355,0.010624677874147892,0.03790197893977165,-0.011807043105363846,-0.052030205726623535,0.10036937147378922,0.011434024199843407,-0.047693438827991486,0.07821913063526154,0.08388841152191162,-0.03268028050661087,-0.08032536506652832,-0.045285969972610474,0.014214951545000076,0.03949597850441933,0.04145808517932892,0.08581383526325226,-0.05588056519627571,-0.016214760020375252,-0.032267265021800995,-0.01671697571873665,0.07804219424724579,0.0005794434691779315,-0.027052292600274086,0.02545815147459507,-0.08465368300676346,-0.04783958941698074,0.050126343965530396,-0.07551734894514084,0.08279798179864883,-0.01825493387877941,0.014715497381985188,0.04429837316274643,0.07185868918895721,-0.06679096072912216,-0.032167717814445496,0.06018736958503723,0.08283257484436035,-0.04296711087226868,-0.034784093499183655,0.07142386585474014,0.04169857129454613,0.04530799016356468,0.03884987533092499,-1.9311384491516037e-08,0.09290985763072968,-0.007516779005527496,-0.01444331742823124,0.00805553887039423,0.033285774290561676,-0.060917314141988754,-0.023226115852594376,0.039136990904808044,-0.03729446232318878,-0.006863719783723354,0.002187869278714061,0.021425971761345863,-0.06769917160272598,0.1065559834241867,0.021038493141531944,-0.024387145414948463,-0.033292386680841446,0.07197865843772888,-0.017405860126018524,-0.08118671923875809,-0.0020226992201060057,0.05722561106085777,-0.0203334242105484,-0.009999487549066544,0.04210355505347252,-0.03699875622987747,0.05988321453332901,-0.034597914665937424,0.06743183732032776,0.04610152542591095,0.02322455868124962,0.05615243315696716,0.09022495895624161,-0.0035377684980630875,-0.018851855769753456,0.03897615522146225,-0.03148936480283737,-0.0066382489167153835,0.07523822039365768,0.02204965613782406,-0.023569345474243164,0.03972908854484558,0.004589672200381756,0.006206351798027754,-0.0856042355298996,-0.011259515769779682,-0.09016784280538559,-0.12405429780483246,-0.05724421143531799,0.026303790509700775,0.07102923095226288,-0.012679105624556541,0.014295072294771671,0.049822013825178146,-0.01507929340004921,0.018216293305158615,0.038207437843084335,-0.05503350868821144,0.0321202278137207,-0.021155498921871185,0.04363501816987991,-0.056994497776031494,0.06806846708059311,0.05541802942752838
HeroCTF/HeroCTF_v6,-0.0007937118643894792,0.05334846302866936,-0.06852078437805176,-0.09648885577917099,0.041436851024627686,0.01774410903453827,0.06811165064573288,0.0031382963061332703,-0.048722751438617706,0.05235568434000015,0.010330772027373314,-0.06830846518278122,0.015053768642246723,0.026365390047430992,-0.03108520805835724,-0.022834155708551407,-0.05702972039580345,0.05590251833200455,0.02713949792087078,-0.02055593766272068,-0.027194859459996223,-0.02649151161313057,0.012227535247802734,0.02651308849453926,-0.0009139528265222907,0.00822294969111681,-0.07046084105968475,-0.007545578293502331,-0.024778541177511215,-0.07382088899612427,0.042090900242328644,0.022977611050009727,0.05488161742687225,-0.016795476898550987,0.03474841266870499,-0.021177442744374275,0.014974135905504227,-0.0085907606408,-0.04675712808966637,0.045656658709049225,-0.035258885473012924,-0.038832150399684906,-0.04921853169798851,-0.017353441566228867,0.04483973607420921,0.06539326161146164,-0.049278467893600464,0.03843395411968231,0.06993759423494339,-0.03670994192361832,-0.10305755585432053,0.028438635170459747,-0.06559711694717407,-0.01268084067851305,-0.03551621735095978,0.02298930287361145,0.03830615058541298,-0.09039748460054398,0.13965186476707458,-0.022002218291163445,0.023298079147934914,-0.03452623635530472,-0.015165070071816444,0.03928828239440918,0.02927231229841709,-0.031073838472366333,-0.003494939533993602,-0.022381944581866264,-0.028419129550457,0.025394633412361145,-0.03976285457611084,0.01589616946876049,-0.012046470306813717,-0.09209295362234116,0.07121220976114273,0.061552494764328,-0.04566337168216705,-0.1108858659863472,0.0887775868177414,-0.012048527598381042,0.010198147036135197,-0.04512052610516548,0.014807521365582943,0.019380254670977592,0.011212117038667202,-0.04425588250160217,0.0532320998609066,-0.06809023767709732,0.013603977859020233,-0.035731375217437744,0.03984041512012482,-0.10401473194360733,0.04652141407132149,0.05440136417746544,-0.04932746663689613,-0.03485814854502678,0.06426727771759033,-0.13062646985054016,-0.0027681970968842506,0.14713163673877716,-0.009189347736537457,-0.08355837315320969,0.058848172426223755,-0.04874882474541664,0.051205825060606,0.05425918847322464,-5.5706709645164665e-06,-0.02400296926498413,0.05217674374580383,-0.006257309578359127,0.02646007388830185,-0.005095095839351416,-0.04287290200591087,0.012857086956501007,0.004320214036852121,0.052633944898843765,-0.08058933913707733,-0.019497349858283997,-0.05476156994700432,-0.07213494926691055,0.0717640221118927,0.025689037516713142,0.011054100468754768,0.0018422893481329083,0.0030354538466781378,0.05023598670959473,0.06610795855522156,-1.774888838540157e-33,0.012602662667632103,0.06008351966738701,0.06454701721668243,0.049510106444358826,-0.04152260348200798,-0.002019423060119152,-0.062554270029068,-0.016587229445576668,-0.00488210329785943,-0.08660311251878738,0.013703207485377789,-0.008725225925445557,-0.016203666105866432,0.04870026931166649,-0.010105087421834469,-0.06513066589832306,0.04141676798462868,-0.022941604256629944,-0.02351885847747326,0.04688725993037224,0.027227411046624184,0.019731147214770317,-0.027131298556923866,-0.0542258694767952,0.07012616097927094,-0.03720700368285179,-0.006526673212647438,-0.08135117590427399,0.036784324795007706,0.030810287222266197,-0.006052556447684765,-0.031185852363705635,0.01991823874413967,0.08172304928302765,0.029393717646598816,0.0337870828807354,0.07172799110412598,-0.10231684148311615,-0.012304006144404411,-0.04899315908551216,-0.011298326775431633,0.024772895500063896,0.014485932886600494,-0.03779289871454239,0.0005683595081791282,-0.045413386076688766,0.12334487587213516,0.0007192729390226305,-0.10121006518602371,0.05768878757953644,-0.126844584941864,0.08630088716745377,-0.054536718875169754,-0.0005853588227182627,-0.010951027274131775,0.0007527887355536222,0.02007281221449375,-0.07618642598390579,0.03593771904706955,0.00032065960112959146,0.08780279755592346,0.017228489741683006,0.03403301164507866,0.016397826373577118,0.0025072444695979357,0.00491501996293664,-0.02697044052183628,-0.03217936307191849,0.05847921967506409,0.07067083567380905,-0.025108853355050087,0.04258676618337631,0.039784450083971024,-0.02300291508436203,0.01917503960430622,-0.0014720853650942445,-0.0023243501782417297,0.03599914535880089,-0.0763850286602974,-0.09769212454557419,-0.10296677052974701,0.08142579346895218,-0.07094603031873703,-0.006551880855113268,0.00020129756012465805,-0.042251672595739365,0.04443489387631416,-0.13893093168735504,-0.0637277364730835,-0.06260684132575989,-0.054436732083559036,-0.0068075708113610744,0.05533699318766594,-0.0020943894051015377,0.028730150312185287,1.3751331481972445e-33,0.05118703469634056,0.03345359489321709,-0.015336952172219753,0.03259947896003723,0.1259777545928955,-0.01884574256837368,0.03864191845059395,0.06037893518805504,0.012044275179505348,0.02062741294503212,-0.011625086888670921,-0.04868258163332939,-0.025051899254322052,-0.09323375672101974,0.15914520621299744,-0.004861567635089159,0.019633138552308083,0.034247059375047684,-0.043413665145635605,0.12535914778709412,0.011352425441145897,-0.02061207965016365,-0.013548350892961025,-0.03657035902142525,0.02114439383149147,0.019554486498236656,-0.014272620901465416,-0.05290251597762108,-0.003388837678357959,-0.1097402423620224,-0.05260270833969116,0.016508853062987328,-0.07443155348300934,0.012661783024668694,-0.009659973904490471,0.042155828326940536,0.03970998153090477,0.051005296409130096,-0.015694985166192055,0.0463031567633152,0.07841219753026962,-0.004043872468173504,-0.0696396604180336,0.108136847615242,-0.028868217021226883,-0.001208428991958499,0.04424405097961426,0.044242918491363525,0.08222413808107376,-0.0039323000237345695,-0.031419433653354645,-0.040582962334156036,-0.020613066852092743,-0.005931091494858265,0.015755191445350647,0.028586873784661293,0.026711076498031616,-0.01876506768167019,-0.03078390844166279,0.07027611881494522,0.04191169515252113,0.06536013633012772,-0.04561157897114754,0.11743014305830002,0.07909505069255829,-0.09025643765926361,-0.12233216315507889,-0.013636579737067223,-0.047785136848688126,0.028370080515742302,0.043050482869148254,0.12963756918907166,-0.004796319641172886,0.026873048394918442,-0.011972607113420963,-0.02715890295803547,-0.128259539604187,0.002072060015052557,0.04977026209235191,0.05043315142393112,0.04537513479590416,-0.02408340387046337,0.012366547249257565,0.014734046533703804,-0.030368365347385406,0.12482182681560516,0.07478044182062149,0.03268873319029808,-0.01641191355884075,0.03058096021413803,-0.0070823864080011845,0.052538707852363586,0.060214754194021225,0.0576617494225502,0.06727326661348343,-1.4538789727680523e-08,0.017361007630825043,0.002052507596090436,-0.0789155587553978,-0.0638774111866951,-0.05263475701212883,0.006286855787038803,0.009605171158909798,-0.08366772532463074,-0.03654184192419052,0.03093103878200054,0.09186158329248428,0.013888871297240257,0.02805042639374733,0.04619012400507927,-0.059569351375103,0.03438485041260719,-0.06286828964948654,-0.014817913994193077,-0.052003223448991776,0.02025388367474079,-0.005410482175648212,-0.011763791553676128,0.0041243648156523705,-0.02194332331418991,-0.0685032308101654,-0.0004958529607392848,-0.009693695232272148,0.021031558513641357,0.022450974211096764,0.044138286262750626,0.035893358290195465,-0.025283358991146088,-0.0901826024055481,-0.028006982058286667,0.0035096663050353527,0.0852452740073204,-0.04260600730776787,-0.007593588903546333,-0.014156241901218891,-0.0003564559738151729,0.028052428737282753,0.08420047163963318,-0.00436444440856576,-0.025280291214585304,-0.0019422482000663877,0.018335357308387756,-0.04213681071996689,-0.08224678039550781,-0.0007403952185995877,-0.03031286597251892,-0.0743899866938591,-0.02101583033800125,-0.04010181501507759,0.04131976515054703,0.06449330598115921,0.06547011435031891,0.02311786264181137,0.008830792270600796,-0.06570472568273544,0.07417257130146027,0.051620300859212875,-0.024184739217162132,0.002562336390838027,0.02049959823489189
gleam-lang/zed-gleam,-0.13977764546871185,0.03963558003306389,0.031546298414468765,0.006818791851401329,-0.0086934519931674,-0.0679323673248291,0.08396928012371063,0.007081208284944296,-0.09273925423622131,0.0578608512878418,0.06413286179304123,-0.011734766885638237,-0.027804609388113022,0.001983464462682605,0.0018353877821937203,0.03240636736154556,-0.008715631440281868,-0.019428344443440437,-0.031018629670143127,-0.05946537107229233,-0.0025530655402690172,0.0021647203247994184,-0.024180831387639046,-0.0070207067765295506,0.031555674970149994,-0.026786934584379196,-0.032639484852552414,0.028605809435248375,0.09556657820940018,-0.07140916585922241,0.05753235146403313,0.11287546902894974,-0.09950617700815201,-0.022874468937516212,-0.07728151977062225,0.03542114421725273,0.0254370030015707,-0.012968902476131916,-0.06415964663028717,0.04254943132400513,-0.029393436387181282,0.028253743425011635,-0.11670754104852676,-0.030866852030158043,-0.026132749393582344,-0.06651948392391205,0.039525315165519714,-0.062303900718688965,-0.03490964695811272,-0.03125975281000137,-0.04688947647809982,-0.11368541419506073,-0.0365932323038578,0.013884661719202995,0.009029733017086983,0.10126056522130966,0.02195807546377182,-0.014895789325237274,0.06603331118822098,0.024293022230267525,0.03924662619829178,0.0002964618324767798,0.021701861172914505,0.017773961648344994,0.02500329352915287,0.003024784382432699,-0.04085724428296089,0.032543499022722244,-0.04810464382171631,-0.09099671244621277,-0.029034821316599846,-0.050732918083667755,-0.056988123804330826,-0.02651149593293667,-0.06409277021884918,0.02210797742009163,-0.0068019540049135685,-0.06800229102373123,-0.02406523935496807,-0.053069330751895905,0.02263953723013401,0.030550746247172356,0.0027202190831303596,0.07552292943000793,-0.0013389837695285678,0.009388012811541557,0.07443676888942719,0.008298549801111221,0.07492872327566147,0.03168792277574539,0.016607094556093216,0.03620843216776848,-0.03358389437198639,0.04670269042253494,-0.019144240766763687,0.05534199997782707,0.05558037385344505,-0.09961223602294922,-0.0022068265825510025,0.09905046224594116,-0.001437213271856308,-0.012574722990393639,-0.008849961683154106,0.0057194167748093605,-0.12858617305755615,0.005525971297174692,0.023504270240664482,0.09921566396951675,-0.06389138847589493,0.01985452137887478,0.007928245700895786,-0.003365944605320692,-0.1195039376616478,-0.09399967640638351,0.0297304168343544,-0.025264794006943703,-0.017788950353860855,-0.03928490728139877,-0.026251263916492462,-0.009472273290157318,0.15744560956954956,0.06587162613868713,0.04435880482196808,0.07397931069135666,-0.01467983890324831,0.03510064631700516,-0.027723126113414764,-3.0688994685482246e-33,0.08006220310926437,0.09525883942842484,-0.11647867411375046,0.11843664944171906,-0.021696317940950394,-0.0067313904874026775,0.017071107402443886,0.07174687832593918,-0.09958736598491669,-0.10910996049642563,0.02223244123160839,0.008929286152124405,-0.01991898939013481,0.02614728920161724,0.06304637342691422,-0.038513969630002975,0.04754753038287163,0.0019839913584291935,0.037464577704668045,-0.04673406481742859,-0.00735557870939374,-0.001577693154104054,-0.0353524275124073,-0.008935939520597458,0.04917685687541962,0.02220916748046875,-0.0287296362221241,0.01597972959280014,-0.07486215978860855,0.018733033910393715,0.12301474064588547,0.004102868027985096,0.048883356153964996,0.023149536922574043,0.008061811327934265,0.06049870327115059,-0.06900173425674438,-0.07549790292978287,0.05513056367635727,-0.08310820162296295,-0.049232903867959976,0.04577220231294632,0.029562756419181824,0.038731761276721954,0.01957143284380436,0.06346433609724045,-0.03423896059393883,-0.011121420189738274,0.018696650862693787,-0.007391743827611208,-0.04614076390862465,0.05979227274656296,0.0040323855355381966,0.06979876756668091,0.0166460033506155,0.049312885850667953,-0.04749009758234024,-0.02227584645152092,0.003464156063273549,0.016346782445907593,0.025912169367074966,0.03720470890402794,-0.11719917505979538,0.04429152235388756,-0.03241601958870888,0.026604557409882545,0.03313431888818741,0.03808347135782242,0.013678833842277527,0.01284106820821762,-0.08276243507862091,0.021756894886493683,0.07299313694238663,0.048376794904470444,0.020189635455608368,-0.03683343157172203,0.04514926299452782,-0.013285057619214058,-2.7604470233200118e-05,-0.015088600106537342,-0.08995867520570755,0.010789720341563225,-0.09765014797449112,-0.05754123628139496,-0.007817316800355911,-0.04071532562375069,-0.001783450716175139,0.0428774356842041,-0.002934550167992711,0.016444092616438866,-0.013068296946585178,0.06302902847528458,0.0939139574766159,0.01785997301340103,-0.10784835368394852,2.471580646714518e-33,-0.03078709915280342,0.018317796289920807,-0.04092784225940704,0.05324771627783775,0.02208111248910427,0.04787994921207428,0.002013352932408452,-0.05171170458197594,-0.035423021763563156,-0.016787173226475716,-0.0028332879301160574,0.07099227607250214,-0.03724072128534317,0.008485286496579647,-0.04843804985284805,0.019182708114385605,0.05872863158583641,-0.0717497244477272,0.07527031749486923,0.01811745949089527,0.026164937764406204,0.0752846747636795,-0.09084056317806244,-0.08701267093420029,0.0338495671749115,0.01352855283766985,-0.004052705131471157,-0.08201251924037933,-0.06292232871055603,0.05679625645279884,0.03460640087723732,-0.02829623781144619,-0.062190841883420944,0.04607353359460831,-0.05970630422234535,0.005897284019738436,0.05027949810028076,-0.05434766039252281,-0.07682321965694427,-0.008967787027359009,0.004389362875372171,-0.04440233111381531,0.06626956164836884,0.06032073497772217,-0.046614695340394974,0.019973954185843468,-0.02728106454014778,0.0702831819653511,-0.005291258450597525,0.00513968663290143,0.04983271285891533,0.04286864399909973,0.037762608379125595,-0.02763231471180916,-0.016467181965708733,-0.07373860478401184,0.10063735395669937,-0.012112511321902275,-0.10063892602920532,0.02767060324549675,0.11994602531194687,0.003490074770525098,0.04017088562250137,0.01631559617817402,0.011712423525750637,-0.027351966127753258,0.05384000390768051,0.03739713132381439,-0.028699936345219612,-0.09159297496080399,0.06268787384033203,-0.024451222270727158,-0.04100813716650009,-0.0707785040140152,-0.035020288079977036,-0.02233590930700302,0.022344542667269707,0.029666490852832794,-0.012262769974768162,-0.012628653086721897,0.046518757939338684,0.09868618845939636,-0.005272046197205782,-0.029507067054510117,-0.02673490159213543,-0.02433859184384346,-0.04522579908370972,0.016394492238759995,0.05171390250325203,-0.08034655451774597,-0.06818491220474243,0.05383648723363876,0.039622075855731964,-0.02625756897032261,0.02678653970360756,-1.3884942973163561e-08,0.012152854353189468,0.04354476556181908,-0.027309538796544075,-0.013323749415576458,0.06599896401166916,-0.05517874285578728,-0.0035442779771983624,0.056037720292806625,-0.030903691425919533,0.032486431300640106,0.021507536992430687,0.07556523382663727,-0.005263975355774164,0.1008288562297821,0.10631299763917923,-0.04135635495185852,-0.0490272082388401,0.026889963075518608,-0.056408435106277466,-0.03917843475937843,0.01576175168156624,0.09634644538164139,-0.01624288037419319,-0.015436495654284954,-0.08684056997299194,-0.04904664680361748,0.0351632684469223,0.012458563782274723,0.04226638004183769,0.02741747908294201,-0.00029722394538111985,0.0734352171421051,0.07572555541992188,-0.037461090832948685,0.019543511793017387,0.030697474256157875,-0.0671420693397522,0.009049586020410061,0.0012673279270529747,0.0518149733543396,-0.03901050612330437,0.04214789345860481,0.10746639966964722,-0.00014240197197068483,-0.05885877460241318,-0.012868199497461319,-0.03056279569864273,-0.0968187153339386,-0.016194919124245644,0.031668681651353836,0.03847716748714447,-0.05157380551099777,0.046206869184970856,-0.008445724844932556,-0.020851122215390205,-0.00719458656385541,0.02636856399476528,-0.02550605870783329,-0.041917167603969574,-0.028195152059197426,0.08852928876876831,-0.016873205080628395,0.00632912153378129,0.05192549154162407
danvega/golf-scheduler,-0.05346747860312462,-0.016548631712794304,-0.0656764879822731,-0.04349811375141144,-0.0694492906332016,-0.05346345901489258,-0.04382717236876488,0.05315624549984932,0.028919367119669914,0.012760366313159466,-0.01732720620930195,0.005716078449040651,0.055195242166519165,-0.009569894522428513,0.049587350338697433,0.036140237003564835,0.011282791383564472,-0.07753483951091766,0.04804785177111626,-0.025856750085949898,-0.019303251057863235,-0.028962360695004463,-0.017016418278217316,0.003628741018474102,0.018751563504338264,0.046480339020490646,0.07115251570940018,-0.012399524450302124,-0.041547805070877075,0.0553879588842392,-0.09967154264450073,-0.05875696241855621,-0.10919003188610077,0.03718596324324608,-0.051740407943725586,0.12667547166347504,0.03500106930732727,-0.07769174128770828,-0.0018218260956928134,-0.018598642200231552,-0.038652025163173676,-0.03881165757775307,-0.04285317659378052,-0.020436624065041542,-0.06623444706201553,0.03582974895834923,-0.003187540452927351,-0.038549818098545074,0.01999518647789955,-0.07346207648515701,-0.03212696313858032,-0.09538288414478302,-0.03473624959588051,-0.030434371903538704,-0.03137222304940224,-0.021356239914894104,-0.07368434220552444,0.07187307626008987,-0.02476739138364792,-0.004281688015908003,0.060652412474155426,-0.008303448557853699,0.0037306363228708506,0.08338595926761627,0.0705542117357254,0.009002571925520897,-0.015818418934941292,-0.0036156189162284136,0.08250831067562103,-0.09000304341316223,-0.0610467866063118,0.004230669233947992,-0.025362903252243996,0.002913624746724963,-0.014791241846978664,-0.06646204739809036,0.020109374076128006,0.036303140223026276,0.03893927112221718,-0.026312071830034256,0.0205623060464859,0.058573201298713684,-0.05200675129890442,0.17233385145664215,-0.06045697256922722,0.0040247258730232716,0.041558194905519485,0.11859530210494995,0.031974490731954575,0.0019164690747857094,-0.006137155927717686,-0.10829976201057434,0.0050676376558840275,-0.012539645656943321,0.020632939413189888,0.05418367683887482,0.0440823920071125,-0.05714328959584236,-0.04719838127493858,0.0446484237909317,-0.038670748472213745,-0.05741901695728302,0.028944991528987885,-0.04147231951355934,-0.04378246143460274,-0.03354373574256897,-0.006125494837760925,0.0071650403551757336,0.0355885848402977,-0.00810285471379757,-0.08640605956315994,0.01631908304989338,-0.04323050379753113,0.06179404631257057,-0.027574054896831512,0.061203908175230026,-0.042532779276371,-0.006932107266038656,-0.05769839137792587,0.0022035427391529083,-0.0014212060486897826,-0.024871481582522392,0.009981323033571243,0.012844071723520756,-0.02037809044122696,0.0036472163628786802,0.051045916974544525,-5.461544016566095e-33,0.03780475631356239,0.018444525077939034,-0.0008795448811724782,0.06528619676828384,0.10062799602746964,-0.011715225875377655,0.0709843561053276,0.057986389845609665,-0.06638927757740021,-0.04920387268066406,0.10483533143997192,0.04998296871781349,0.0392986461520195,0.059460122138261795,0.09629683196544647,-0.06598799675703049,0.08133102208375931,0.04250292852520943,0.08997160196304321,-0.08293069154024124,-0.11593607813119888,-0.02392585203051567,0.01167815551161766,0.04672989994287491,0.07970446348190308,0.02263389527797699,-0.04131675884127617,0.039199765771627426,-0.05707660689949989,-0.023386318236589432,0.10382703691720963,-0.05646964907646179,-0.03119789995253086,0.055454693734645844,0.006093901116400957,0.019161537289619446,-0.025681685656309128,-0.06825082004070282,-0.020119542255997658,0.014684461988508701,0.01138836145401001,0.029939068481326103,-0.07471419870853424,0.005663325544446707,0.030128564685583115,-0.002816329710185528,-0.13173669576644897,-0.03192434459924698,0.008836612105369568,-0.025958485901355743,-0.06140296906232834,0.03887959197163582,0.04879550635814667,0.055769555270671844,0.0334513895213604,0.01941518485546112,0.0038820873014628887,-0.047545138746500015,-0.021407460793852806,-0.017168741673231125,0.008917562663555145,-0.08246389776468277,-0.01650104485452175,0.011522900313138962,0.0165786724537611,0.007751808036118746,-0.06464613974094391,-0.02167811058461666,0.10788770020008087,0.040224432945251465,0.00536738708615303,0.03960996866226196,0.006681565195322037,0.032511159777641296,-0.08286847174167633,0.07925218343734741,-0.011642903089523315,-0.007937803864479065,-0.07670313864946365,0.02788231149315834,0.00974262598901987,0.017412254586815834,-0.06561635434627533,0.05628290772438049,0.004124992527067661,-0.0062763625755906105,-0.020219340920448303,0.052039485424757004,0.014611114747822285,0.061719074845314026,-0.03635023906826973,0.0536317452788353,-0.0005349406856112182,0.002791173290461302,-0.0012499315198510885,1.8602019940900153e-33,0.0055732931941747665,-0.033873096108436584,-0.0467982180416584,-0.0643705278635025,0.07873116433620453,-0.00918459054082632,-0.02683834731578827,-0.04351550713181496,-0.001605678116902709,0.11468473821878433,-0.023240666836500168,-0.04446830600500107,-0.010255681350827217,-0.01333816722035408,-0.06324123591184616,0.03855927661061287,-0.04378581792116165,-0.06015099585056305,0.03692951425909996,-0.0022301701828837395,-0.13962724804878235,0.1222994476556778,-0.0018160832114517689,-0.01930062659084797,-0.010883919894695282,0.027367155998945236,-0.09250591695308685,-0.004299242049455643,-0.06536820530891418,-0.005126557312905788,0.022503575310111046,-0.04553794115781784,-0.0038480537477880716,-0.03168151155114174,-0.06775594502687454,0.06105858087539673,0.0971561148762703,0.054406438022851944,-0.02401668392121792,-0.03929756581783295,0.11516746878623962,-0.07401885092258453,-0.09261174499988556,-0.024483678862452507,-0.005786340218037367,-0.037171319127082825,-0.05799544230103493,0.04904719442129135,-0.09364395588636398,-0.04550715908408165,-0.020205318927764893,-0.05976227670907974,0.04703349247574806,-0.09726449102163315,0.05570313706994057,0.021111896261572838,0.04103580489754677,0.04538083076477051,0.029238324612379074,0.050814904272556305,0.00762109225615859,-0.04493251442909241,-0.005565573461353779,0.125790536403656,-0.11517543345689774,-0.018218405544757843,-0.026761498302221298,0.05329757556319237,-0.004644578788429499,-0.0017130551859736443,-0.12029965221881866,0.004258145112544298,-0.03570939600467682,0.004027865827083588,0.005932653322815895,-0.06042987108230591,-0.012378791347146034,-0.0012251700973138213,0.037343915551900864,0.07710614800453186,-0.03647906333208084,0.043297141790390015,-0.06390577554702759,0.07665273547172546,-0.013599421828985214,-0.03679997846484184,0.03469538688659668,0.025557363405823708,-0.015271841548383236,-0.04126013442873955,-0.03443136811256409,0.035035379230976105,-0.026507379487156868,0.05380108207464218,0.016199935227632523,-1.7432929766414418e-08,0.02692694030702114,0.05148415267467499,-0.019187061116099358,0.04794802889227867,-0.036569349467754364,0.02402465045452118,-0.015137198381125927,0.029806362465023994,0.07477711886167526,0.02720165066421032,-0.06938376277685165,-0.060933977365493774,-0.037981487810611725,0.056615423411130905,-0.08553984016180038,-0.0129935871809721,-0.004567153286188841,0.08276477456092834,-0.015244251117110252,0.0052996184676885605,-0.012634546495974064,-0.0012549220118671656,0.07126428186893463,-0.03392389416694641,0.060147833079099655,-0.07010933011770248,0.0512017197906971,0.04320289194583893,-0.12338420003652573,0.036039650440216064,-0.013759252615272999,0.044852837920188904,0.021148143336176872,0.020308125764131546,0.029411310330033302,-0.04783189296722412,-0.04697882756590843,-0.015018347650766373,0.04948170855641365,0.0010292761726304889,0.04202941805124283,0.02895512990653515,0.02934327721595764,0.009995396248996258,0.0653582513332367,0.02425980195403099,-0.010592726990580559,-0.016650816425681114,-0.017673293128609657,-0.07449732720851898,-0.0463259182870388,0.019410327076911926,0.056395553052425385,0.06380362808704376,0.10287024080753326,0.08706215769052505,-0.0020695000421255827,-0.014158347621560097,0.030321216210722923,0.03762500733137131,-0.006082724779844284,0.1340787261724472,0.018101206049323082,-0.05060604214668274
utilForever/2024-DEVCON-Rust-Safety,-0.012801466509699821,-0.03482835367321968,-0.0514545738697052,0.008301766589283943,0.06908643245697021,0.09527647495269775,0.020277952775359154,0.06442062556743622,-0.008429049514234066,0.02711491286754608,-0.023273104801774025,-0.003357415087521076,0.012932393699884415,-0.0013762484304606915,-0.057001035660505295,0.047407303005456924,0.07745633274316788,0.047489553689956665,-0.04207880422472954,-0.07831154018640518,-0.017761828377842903,0.06424959748983383,0.051860302686691284,0.05478307232260704,0.010006322525441647,0.028186865150928497,-0.05271938815712929,0.0025234632194042206,0.06220589950680733,-0.08178011327981949,-0.019867530092597008,0.07792585343122482,0.02070746384561062,-0.03435703366994858,-0.059688810259103775,0.10757611691951752,0.03894806280732155,0.005621166434139013,0.02610841393470764,-0.007636824157088995,-0.009584425017237663,-0.012252433225512505,-0.03318798542022705,0.016354940831661224,0.052407920360565186,0.005097605753690004,0.04750324413180351,-0.02636706829071045,0.04005211219191551,0.029147867113351822,-0.07766260206699371,-0.000996332848444581,-0.06744520366191864,-0.019636165350675583,-0.03727888688445091,-0.009815523400902748,-0.010325648821890354,-0.011870836839079857,0.02477666363120079,-0.08015184104442596,0.11187555640935898,0.009610332548618317,-0.045725975185632706,0.03690579906105995,0.04902555048465729,-0.06624558568000793,-0.04816216975450516,0.08856470137834549,-0.08389855921268463,-0.009519140236079693,-0.03743501380085945,0.02466703951358795,0.039833564311265945,0.05273943021893501,0.017674759030342102,-0.02117202617228031,-0.007216282654553652,-0.0736762285232544,-0.019168123602867126,-0.06687422096729279,0.016660209745168686,0.02390599437057972,0.04383526369929314,0.012113607488572598,-0.06270111352205276,0.026631107553839684,0.06236857920885086,0.04986412823200226,-0.00040868818177841604,0.014707101508975029,0.005137439351528883,-0.015306818298995495,0.07712408155202866,-0.08187881857156754,0.012989778071641922,0.038065485656261444,-0.007419851142913103,-0.09747517853975296,0.014135538600385189,0.05204327404499054,0.0014253970002755523,0.06479082256555557,0.001682076370343566,-0.04962776228785515,-0.031273387372493744,-0.01269286684691906,-0.059324298053979874,0.08853862434625626,0.054458390921354294,0.01590508036315441,-0.05068953335285187,0.0534236803650856,-0.11497688293457031,-0.042874038219451904,0.031744733452796936,-0.09617546200752258,-0.01393563486635685,-0.05423937737941742,-0.0021882764995098114,-0.05255413427948952,-0.0028876541182398796,0.0846966803073883,-0.031228384003043175,0.030247947201132774,-0.07210876792669296,-0.0514221228659153,-0.06767618656158447,-6.764962642142572e-33,0.1092439666390419,0.06044861301779747,0.05630242079496384,0.1480908840894699,-0.027902578935027122,-0.03787688538432121,-0.028069110587239265,0.0035092185717076063,-0.06660695374011993,-0.06561511009931564,0.08766207098960876,0.10394898056983948,0.02288822829723358,0.07978395372629166,-0.0608295239508152,-0.08155061304569244,-0.10944266617298126,0.08137089014053345,-0.0019813061226159334,-0.042353469878435135,0.009591745212674141,-0.029797080904245377,0.035078782588243484,0.0485895574092865,0.05900236964225769,0.01197759434580803,-0.036638934165239334,-0.021825382485985756,-0.014378337189555168,-0.009811137802898884,0.00910915993154049,-0.04965415224432945,-0.021163927391171455,-0.0885571613907814,0.002077123150229454,-0.008103876374661922,-0.00899107102304697,-0.048243001103401184,0.018154561519622803,-0.04080487787723541,0.00040571021963842213,-0.02635352686047554,-0.014048467390239239,0.010355099104344845,0.03382216766476631,0.05490648001432419,0.03926217928528786,-0.04078676924109459,0.0229953583329916,0.0450412780046463,0.048878248780965805,-0.01779838651418686,-0.0037596470210701227,-0.02819930389523506,-0.000601390318479389,0.0005105259479023516,-0.08236468583345413,-0.06540307402610779,0.018786411732435226,-0.008239450864493847,0.07962260395288467,0.03262246772646904,-0.08312343060970306,0.014900345355272293,-0.007890187203884125,0.06179949641227722,-0.013315033167600632,-0.03904241323471069,0.09865572303533554,-0.026084519922733307,-0.018757855519652367,0.020569078624248505,-0.07979434728622437,0.038782596588134766,-0.09650979936122894,-0.016463246196508408,-0.15823407471179962,-0.07901658117771149,-0.03534368798136711,0.05617458000779152,0.0034278223756700754,-0.015873931348323822,0.0019349366193637252,-0.015267208218574524,-0.010771417990326881,-0.03407711535692215,0.047807853668928146,-0.0664215162396431,-0.018161941319704056,-0.024394143372774124,-4.113938121008687e-05,0.013955134898424149,-0.02332374081015587,-0.031540703028440475,0.016929250210523605,3.241081105610873e-33,-0.02340853214263916,-0.0641879066824913,0.016466517001390457,0.03348700329661369,0.009862028062343597,0.05849360674619675,-0.09337860345840454,-0.0755879282951355,0.11642569303512573,0.058975644409656525,-0.056605011224746704,-0.04300722852349281,0.019827373325824738,-0.01280205324292183,-0.10786902159452438,-0.07003138959407806,-0.003117714077234268,0.01932506635785103,-0.09016765654087067,0.031277675181627274,-0.03640195354819298,0.052112214267253876,0.04619463160634041,-0.031746089458465576,0.05254030227661133,0.05491958186030388,0.031363680958747864,-0.02277865633368492,0.02267497591674328,0.012555127963423729,0.014725284650921822,-0.009440003894269466,-0.009332378394901752,-0.12382049113512039,-0.03830493614077568,0.02116621471941471,0.0060299537144601345,-0.012294670566916466,-0.003084993688389659,0.008414165116846561,0.1127806007862091,0.04197663441300392,0.03552192822098732,-0.017401698976755142,-0.10474802553653717,-0.03890850394964218,-0.06947530061006546,-0.005394661799073219,0.024522200226783752,0.0025761283468455076,-0.01282003428786993,-0.12999753654003143,-0.025167223066091537,-0.06747254729270935,0.054230667650699615,0.030581971630454063,0.05104527994990349,0.05416637286543846,0.12666821479797363,-0.010480368509888649,-0.037663545459508896,0.08410462737083435,-0.078863725066185,0.06608495861291885,0.04011368378996849,-0.11944496631622314,-0.01944425329566002,0.03157501295208931,-0.011405977420508862,-0.036876559257507324,0.005328951869159937,0.004657653626054525,0.030312811955809593,-0.05912631377577782,0.005635313224047422,-0.012357564643025398,0.04416235536336899,0.025553572922945023,-0.021035781130194664,-0.08134374767541885,-0.009470810182392597,0.0037255953066051006,0.023253289982676506,0.05873018875718117,0.044036414474248886,-0.026989463716745377,0.0057104588486254215,-0.04641784355044365,-0.041143134236335754,-0.019358467310667038,-0.1333223432302475,-0.011357739567756653,-0.003013797802850604,0.05267638713121414,-0.057858604937791824,-1.8727142503394134e-08,0.017787769436836243,0.0611017644405365,-0.056339193135499954,0.07705439627170563,-0.023514145985245705,0.053689539432525635,0.007219650316983461,0.04580751433968544,-0.02158190868794918,0.0822514221072197,-0.016655446961522102,-0.04523972421884537,0.002013607183471322,0.016398819163441658,0.08158859610557556,-0.02227805182337761,0.013385952450335026,-0.04719914123415947,-0.04010418802499771,-0.09487313032150269,0.05160205066204071,0.015258464962244034,0.020931826904416084,-0.0026885047554969788,0.056327734142541885,0.06023036316037178,0.0365348756313324,0.10121189802885056,0.0282179806381464,0.015332909300923347,0.046559397131204605,0.0412958487868309,-0.13253901898860931,-0.020831216126680374,0.0048662591725587845,-0.07141567766666412,0.05748375505208969,-0.035445451736450195,0.024638812988996506,0.027345184236764908,-0.00822821818292141,0.0552697516977787,0.0384141243994236,0.03987506777048111,0.028070874512195587,0.04285317659378052,-0.01407421100884676,-0.04360061511397362,-0.035533882677555084,-0.03926904499530792,-0.016156909987330437,-0.07932792603969574,0.09110188484191895,0.0155505845323205,0.0034139982890337706,0.030759228393435478,0.026687216013669968,0.09415967017412186,0.029034370556473732,-0.010286403819918633,0.07100746035575867,0.11621570587158203,0.028493637219071388,0.029288075864315033
taoofagi/easegen-admin,0.05492596700787544,-0.06064249947667122,-0.049250781536102295,-0.0577077753841877,-0.0957837626338005,-0.07110384851694107,-0.004202011972665787,0.11585227400064468,-0.12641072273254395,0.06389934569597244,-0.01667466200888157,0.0016461384948343039,0.02784879505634308,-0.045756902545690536,-0.033186011016368866,-0.0014163036830723286,0.02651120163500309,-0.009116175584495068,0.09124991297721863,-0.07683582603931427,0.03994061052799225,-0.010672157630324364,-0.030534902587532997,-0.012545211240649223,0.026410307735204697,0.02404813840985298,0.0304685290902853,0.05212343484163284,0.07062119245529175,-0.042781148105859756,-0.017638690769672394,-0.03924355283379555,0.06891550123691559,0.00934368371963501,-0.022188222035765648,-0.0031619786750525236,0.101471446454525,-0.09332792460918427,-0.11958503723144531,0.0032420603092759848,-0.0633351132273674,-0.014596493914723396,-0.052106596529483795,0.0042313942685723305,0.074321448802948,0.04806496948003769,-0.007012711837887764,-0.015566018410027027,0.049640268087387085,-0.030547048896551132,-0.011658979579806328,-0.09548260271549225,-0.003083814401179552,-0.03099151886999607,-0.03730176016688347,0.03647227585315704,-0.040441352874040604,0.0059768022038042545,0.032215021550655365,-0.08799147605895996,0.04678945615887642,0.007519292179495096,-0.07963120937347412,0.08321493864059448,0.02457268536090851,-0.039116326719522476,-0.0064337062649428844,0.08442556858062744,0.11905019730329514,-0.0860980674624443,-0.1284620761871338,-0.034100811928510666,0.0006546556251123548,0.12347794324159622,-0.08826658129692078,-0.04297482222318649,0.017827926203608513,-0.0012133235577493906,0.002877590013667941,0.03747515007853508,0.008314747363328934,0.036416810005903244,-0.030956780537962914,0.052689433097839355,-0.04882635548710823,-0.03674869239330292,-0.007409517653286457,0.05368376150727272,-0.013909091241657734,-0.010926359333097935,0.08549847453832626,0.04013939946889877,0.016022391617298126,0.036806102842092514,0.016452258452773094,0.055627819150686264,0.003469771007075906,-0.08872385323047638,0.010215851478278637,0.054599225521087646,-0.019373537972569466,-0.05922628939151764,0.019083289429545403,-0.04347267746925354,-0.05327519774436951,-0.02245681919157505,-0.03416697680950165,0.02829461172223091,0.018332917243242264,-0.02741672471165657,-0.0666743814945221,-0.024512995034456253,-0.13309645652770996,-0.07780700922012329,0.0759056806564331,0.014411804266273975,-0.031940631568431854,0.06936164200305939,0.07621656358242035,0.0304770115762949,0.046896956861019135,0.002014859113842249,-0.025527216494083405,-0.0420687161386013,0.022478068247437477,-0.01846853271126747,-0.04067375883460045,-2.5755801216806198e-33,0.03908166289329529,0.05004088953137398,-0.049998510628938675,0.11761704832315445,0.02116268128156662,-0.012088004499673843,0.0546044185757637,0.03604879602789879,-0.05017141252756119,0.0748518630862236,0.11779998987913132,0.03747804835438728,-0.0741598904132843,0.011973939836025238,0.06356552988290787,-0.09667619317770004,-0.0516129769384861,0.029142484068870544,0.04889865592122078,0.0020668632350862026,-0.06982661038637161,-0.0070208036340773106,0.04382145032286644,-0.0011724100913852453,0.0643719881772995,0.023936334997415543,-0.0528511218726635,-0.0020299614407122135,0.06958196312189102,-0.03214706853032112,-0.06942788511514664,-0.060771457850933075,-0.032817937433719635,-0.07044985145330429,0.0015267041744664311,0.01742880791425705,-0.00859147123992443,-0.05038788914680481,0.018756844103336334,-0.06993543356657028,-0.12331918627023697,-0.003286635037511587,-0.014027586206793785,-0.06681746244430542,0.03698901832103729,0.015046590939164162,0.016736675053834915,-0.02755340375006199,0.03964982554316521,-0.01207544095814228,-0.07689295709133148,-0.06914741545915604,0.051528770476579666,0.11299189180135727,0.0035047733690589666,0.042513009160757065,0.02251393161714077,-0.01178890373557806,-0.04434264823794365,-0.005655316635966301,0.010140753351151943,0.07119553536176682,-0.02754778228700161,-0.005906295496970415,-0.030707888305187225,0.004341386258602142,0.0332334078848362,-0.014779282733798027,0.037169355899095535,-0.008872485719621181,-0.03415310010313988,0.004819465335458517,0.10488840192556381,0.006806747522205114,-0.032082635909318924,0.004100117366760969,-0.07791568338871002,0.03234510123729706,-0.04480065032839775,0.044177208095788956,-0.10874411463737488,0.03525322675704956,0.002060693921521306,0.05425582453608513,-0.04235635697841644,0.028830766677856445,0.03921811282634735,-0.008954601362347603,-0.06633133441209793,0.012695584446191788,-0.012282099574804306,0.04468211159110069,0.0042470176704227924,0.046533048152923584,-0.03417056053876877,2.202171346419214e-34,0.004399624653160572,0.034935686737298965,0.002474537119269371,0.019703449681401253,0.039078835397958755,0.0459180548787117,-0.026074208319187164,0.04457073658704758,0.07214488834142685,-0.0031262803822755814,-0.121231809258461,-0.012345363385975361,0.01779148355126381,0.0625012218952179,-0.037053242325782776,-0.009000242687761784,-0.02422100305557251,-0.010118363425135612,-0.0351615808904171,-0.046246133744716644,-0.0031654869671911,0.06155704706907272,-0.08077064156532288,-0.08867249637842178,0.03033400885760784,-0.034066103398799896,0.046553198248147964,-0.0029673262033611536,-0.03223445639014244,0.012224934063851833,0.03331490606069565,-0.013581217266619205,0.09694826602935791,-0.03219996765255928,-0.003824670799076557,0.008754409849643707,0.04251997545361519,0.0409170426428318,0.005616873502731323,0.04242689907550812,0.08926229178905487,-0.05218423157930374,0.05121413990855217,-0.0959106981754303,-0.061899468302726746,-0.07902312278747559,0.0008542080759070814,0.10735879838466644,0.04505034536123276,-0.094373419880867,0.0613962821662426,0.011648374609649181,0.027822177857160568,-0.1171901673078537,0.008620950393378735,-0.016230538487434387,0.040043268352746964,-0.01505108643323183,0.03047938644886017,-0.002840779023244977,0.016232144087553024,-0.003950591664761305,-0.06359557807445526,0.13633517920970917,-0.05233751982450485,-0.054447535425424576,-0.0436612106859684,0.041339896619319916,0.007802759297192097,-0.011824236251413822,-0.12214796990156174,0.046816375106573105,0.09659818559885025,-0.00936026033014059,-0.040659621357917786,-0.038323670625686646,-0.05468504875898361,0.01322217471897602,0.008316084742546082,0.0019186099525541067,-0.029197122901678085,0.04054980352520943,-0.014800854958593845,0.10035969316959381,-0.01773509383201599,0.024336829781532288,0.033523596823215485,-0.09524896740913391,-0.040356069803237915,-0.02523639425635338,-0.08293350040912628,0.0669807568192482,0.05582485720515251,0.08774014562368393,-0.06132369861006737,-2.2027091262089016e-08,-0.009327949024736881,-0.047933291643857956,-0.030212439596652985,0.021152019500732422,-0.07926318794488907,0.09907994419336319,0.060226887464523315,0.01542832050472498,-0.04858214035630226,0.037749651819467545,-0.012654406018555164,-0.032655343413352966,-0.013169755227863789,0.02993135340511799,0.024788562208414078,0.04425279051065445,0.02723829075694084,0.03194744512438774,-0.0044349548406898975,0.012337173335254192,0.09934289008378983,0.026522981002926826,-0.02174307592213154,-0.019454965367913246,0.014524265192449093,-0.06842219084501266,0.02488737180829048,0.034041211009025574,-0.004138050135225058,-0.021029392257332802,-0.027173325419425964,0.047683898359537125,0.051305223256349564,-0.016591385006904602,-0.011467701755464077,0.03463197872042656,0.027450866997241974,-0.009653538465499878,-0.016427859663963318,-0.021106714382767677,-0.06394339352846146,0.03861900418996811,0.03996676951646805,-0.016803067177534103,-0.04699581488966942,0.047844234853982925,-0.04772426560521126,-0.022853052243590355,-0.014362969435751438,-0.046258386224508286,0.025280572474002838,0.013706396333873272,0.01203637570142746,-0.06909748911857605,0.04325816407799721,0.11000996828079224,0.04875175282359123,0.018938995897769928,0.04512859508395195,0.06149188429117203,-0.01698034256696701,0.07289944589138031,0.009144952520728111,0.08941579610109329
