repo,0,1,2,3,4,5,6,7,8,9,10,11,12,13,14,15,16,17,18,19,20,21,22,23,24,25,26,27,28,29,30,31,32,33,34,35,36,37,38,39,40,41,42,43,44,45,46,47,48,49,50,51,52,53,54,55,56,57,58,59,60,61,62,63,64,65,66,67,68,69,70,71,72,73,74,75,76,77,78,79,80,81,82,83,84,85,86,87,88,89,90,91,92,93,94,95,96,97,98,99,100,101,102,103,104,105,106,107,108,109,110,111,112,113,114,115,116,117,118,119,120,121,122,123,124,125,126,127,128,129,130,131,132,133,134,135,136,137,138,139,140,141,142,143,144,145,146,147,148,149,150,151,152,153,154,155,156,157,158,159,160,161,162,163,164,165,166,167,168,169,170,171,172,173,174,175,176,177,178,179,180,181,182,183,184,185,186,187,188,189,190,191,192,193,194,195,196,197,198,199,200,201,202,203,204,205,206,207,208,209,210,211,212,213,214,215,216,217,218,219,220,221,222,223,224,225,226,227,228,229,230,231,232,233,234,235,236,237,238,239,240,241,242,243,244,245,246,247,248,249,250,251,252,253,254,255,256,257,258,259,260,261,262,263,264,265,266,267,268,269,270,271,272,273,274,275,276,277,278,279,280,281,282,283,284,285,286,287,288,289,290,291,292,293,294,295,296,297,298,299,300,301,302,303,304,305,306,307,308,309,310,311,312,313,314,315,316,317,318,319,320,321,322,323,324,325,326,327,328,329,330,331,332,333,334,335,336,337,338,339,340,341,342,343,344,345,346,347,348,349,350,351,352,353,354,355,356,357,358,359,360,361,362,363,364,365,366,367,368,369,370,371,372,373,374,375,376,377,378,379,380,381,382,383,384,385,386,387,388,389,390,391,392,393,394,395,396,397,398,399,400,401,402,403,404,405,406,407,408,409,410,411,412,413,414,415,416,417,418,419,420,421,422,423,424,425,426,427,428,429,430,431,432,433,434,435,436,437,438,439,440,441,442,443,444,445,446,447,448,449,450,451,452,453,454,455,456,457,458,459,460,461,462,463,464,465,466,467,468,469,470,471,472,473,474,475,476,477,478,479,480,481,482,483,484,485,486,487,488,489,490,491,492,493,494,495,496,497,498,499,500,501,502,503,504,505,506,507,508,509,510,511,512,513,514,515,516,517,518,519,520,521,522,523,524,525,526,527,528,529,530,531,532,533,534,535,536,537,538,539,540,541,542,543,544,545,546,547,548,549,550,551,552,553,554,555,556,557,558,559,560,561,562,563,564,565,566,567,568,569,570,571,572,573,574,575,576,577,578,579,580,581,582,583,584,585,586,587,588,589,590,591,592,593,594,595,596,597,598,599,600,601,602,603,604,605,606,607,608,609,610,611,612,613,614,615,616,617,618,619,620,621,622,623,624,625,626,627,628,629,630,631,632,633,634,635,636,637,638,639,640,641,642,643,644,645,646,647,648,649,650,651,652,653,654,655,656,657,658,659,660,661,662,663,664,665,666,667,668,669,670,671,672,673,674,675,676,677,678,679,680,681,682,683,684,685,686,687,688,689,690,691,692,693,694,695,696,697,698,699,700,701,702,703,704,705,706,707,708,709,710,711,712,713,714,715,716,717,718,719,720,721,722,723,724,725,726,727,728,729,730,731,732,733,734,735,736,737,738,739,740,741,742,743,744,745,746,747,748,749,750,751,752,753,754,755,756,757,758,759,760,761,762,763,764,765,766,767,768,769,770,771,772,773,774,775,776,777,778,779,780,781,782,783,784,785,786,787,788,789,790,791,792,793,794,795,796,797,798,799,800,801,802,803,804,805,806,807,808,809,810,811,812,813,814,815,816,817,818,819,820,821,822,823,824,825,826,827,828,829,830,831,832,833,834,835,836,837,838,839,840,841,842,843,844,845,846,847,848,849,850,851,852,853,854,855,856,857,858,859,860,861,862,863,864,865,866,867,868,869,870,871,872,873,874,875,876,877,878,879,880,881,882,883,884,885,886,887,888,889,890,891,892,893,894,895,896,897,898,899,900,901,902,903,904,905,906,907,908,909,910,911,912,913,914,915,916,917,918,919,920,921,922,923,924,925,926,927,928,929,930,931,932,933,934,935,936,937,938,939,940,941,942,943,944,945,946,947,948,949,950,951,952,953,954,955,956,957,958,959,960,961,962,963,964,965,966,967,968,969,970,971,972,973,974,975,976,977,978,979,980,981,982,983,984,985,986,987,988,989,990,991,992,993,994,995,996,997,998,999,1000,1001,1002,1003,1004,1005,1006,1007,1008,1009,1010,1011,1012,1013,1014,1015,1016,1017,1018,1019,1020,1021,1022,1023
ThomasVitale/langchain4j-spring-boot,-0.0076522827,-0.011260986,-0.03652954,-0.018844604,-0.016937256,-0.006965637,0.006576538,0.01727295,-0.006668091,0.027389526,-0.0023612976,-0.018371582,-0.012939453,-0.040374756,0.0063819885,-0.03414917,0.050964355,-0.039245605,-0.005077362,0.0013523102,-0.003578186,0.04043579,-0.028930664,0.050872803,-0.0095825195,0.036621094,0.010620117,-0.02909851,-0.016967773,-0.03778076,-0.01133728,0.03201294,-0.02305603,0.022476196,0.04928589,0.04611206,-0.031799316,0.038513184,0.042907715,-0.0016155243,0.017715454,-0.0013198853,-0.02116394,0.016967773,-0.04498291,-0.011886597,0.004360199,-0.0019016266,0.012718201,-0.0079574585,0.0067100525,-0.008598328,0.015289307,-0.036132812,-0.014770508,0.00022375584,-0.0513916,-0.0015735626,0.03100586,0.042175293,-0.019882202,-0.009765625,0.0009570122,-0.03668213,0.013877869,0.014823914,0.02519226,0.024368286,0.040161133,-0.0037231445,-0.03338623,0.009300232,0.024261475,-0.048583984,0.035095215,-0.027420044,-0.014343262,-0.0027656555,-0.0071411133,0.019821167,-0.009170532,0.036468506,0.046722412,-0.04812622,0.006248474,-0.05267334,-0.003944397,0.012710571,-0.0040779114,-0.043395996,-0.03161621,0.05029297,-0.026046753,0.02357483,-0.018173218,-0.009338379,0.015296936,0.029678345,-0.03274536,-0.0234375,-0.03540039,0.0075798035,-0.05404663,-0.0002822876,0.005130768,0.015281677,0.0048179626,0.08532715,0.051086426,0.02720642,-0.008522034,0.014884949,-0.001291275,0.020095825,-0.051361084,-0.029632568,-0.015548706,-0.012435913,0.0026416779,-0.007091522,-0.0036315918,0.015853882,0.05316162,0.011695862,-0.023254395,0.006164551,-0.019439697,-0.05218506,0.02633667,-0.033813477,0.013320923,0.05239868,-0.106933594,-0.057800293,-0.04901123,0.038360596,0.013496399,-0.009231567,0.030532837,-0.033050537,0.05822754,-0.04663086,-0.015167236,0.07885742,-0.032348633,0.0023994446,-0.001791954,0.009803772,-0.00945282,0.0025844574,-0.024017334,-0.022369385,-0.033050537,0.06237793,0.022155762,0.05303955,0.003982544,-0.0045547485,0.027160645,0.023910522,-0.022750854,-0.008781433,0.06744385,-0.019699097,-0.0146102905,0.017700195,-0.05581665,-0.014450073,0.013908386,0.062194824,-0.011695862,-0.0134887695,-0.010696411,-0.013343811,-0.01626587,0.0056991577,-0.016601562,-0.029937744,0.020233154,0.035095215,0.010726929,-0.023651123,-0.026000977,0.038391113,-0.011146545,-0.074157715,0.016662598,0.011703491,0.0413208,0.037750244,-0.025222778,-0.033233643,-0.042907715,0.015380859,0.0309906,0.0013618469,-0.05630493,-0.033691406,-0.0024318695,-0.010948181,-0.04373169,0.022781372,-0.019088745,0.02923584,-0.008125305,-0.017501831,-0.0050582886,0.002981186,0.043151855,-0.04095459,-0.04675293,-0.0569458,0.062347412,-0.07366943,-0.062347412,0.034088135,-0.020248413,-0.040252686,-0.008476257,0.0019187927,0.011764526,0.023071289,-0.0158844,0.04928589,-0.0045166016,0.024887085,-0.021102905,0.0006990433,-0.0010614395,0.025787354,-0.00073575974,0.004589081,-0.0143966675,0.025817871,-0.05831909,-0.012992859,0.0032444,0.06939697,0.02670288,0.023468018,0.028137207,-0.027175903,-0.006652832,-0.024841309,0.03475952,0.013923645,0.030776978,-0.027236938,0.033294678,0.067993164,-0.046417236,0.006919861,0.01763916,0.052856445,-0.014091492,0.07312012,-0.007858276,0.013137817,0.00034189224,0.027832031,-0.016204834,0.011894226,0.0071525574,-0.013137817,0.010505676,0.0046958923,0.0025348663,0.021377563,-0.052856445,0.017303467,0.042144775,0.0541687,-0.01739502,0.037078857,0.02407837,-0.083862305,-0.013908386,-0.010719299,-0.040771484,-0.018981934,-0.0008044243,0.03237915,0.05026245,-0.0041007996,-0.027938843,0.020004272,0.033416748,0.0028591156,-0.006958008,-0.0024147034,0.032287598,0.014472961,-0.030014038,0.018920898,0.010391235,-0.0014028549,0.04446411,0.053527832,-0.0016965866,0.009490967,-0.020614624,0.019195557,0.017654419,-0.01360321,0.031311035,-0.0069236755,0.05178833,-0.010574341,0.003288269,0.064575195,-0.04446411,0.051971436,0.031433105,0.05960083,0.0023536682,-0.043823242,-0.0078125,0.035614014,-0.04055786,-0.07684326,-0.015014648,-0.004508972,-0.013786316,0.0028705597,0.00015950203,-0.0011816025,-0.00333786,0.007549286,-0.028839111,0.019943237,0.025436401,0.012290955,0.0008325577,0.030029297,-0.0043029785,-0.008842468,0.01058197,0.04348755,0.0013551712,-0.01838684,-0.0048179626,-0.07232666,-0.030014038,0.009529114,0.009506226,-7.992983e-05,-0.045928955,0.035186768,-0.0058403015,-0.013687134,-0.011131287,-0.04864502,0.014167786,-0.011360168,0.0390625,-0.052734375,-0.027008057,0.007926941,-0.014709473,-0.02519226,0.035247803,-0.033569336,-0.021911621,-0.05340576,0.019195557,-0.01083374,-0.05996704,-0.00024354458,-0.01713562,-0.012123108,-0.04345703,0.004863739,-0.023025513,-0.02357483,-0.03933716,0.024459839,-0.003036499,-0.05831909,-0.009864807,-0.013687134,-0.033172607,-0.022628784,0.038909912,0.032226562,-0.022079468,0.019577026,-0.002380371,0.019515991,0.029037476,0.01134491,0.015327454,0.036132812,-0.075683594,-0.0059776306,0.040649414,0.028808594,-0.013633728,-0.014205933,-0.07891846,-0.0064849854,0.0049934387,-0.052886963,-0.032318115,-0.03552246,0.012336731,-0.084228516,-0.018600464,-0.02709961,0.03189087,0.039001465,-0.004875183,-0.016326904,0.04638672,-0.07086182,0.0015249252,0.011276245,-0.031982422,0.0009622574,-0.06347656,0.08569336,0.04046631,-0.0036010742,0.010070801,0.034729004,-0.06451416,0.01739502,-0.048736572,0.036010742,-0.05795288,-0.022659302,-0.035339355,-0.030059814,-0.0031414032,-0.04220581,-0.019332886,0.010650635,-0.031234741,0.0513916,-0.036468506,-0.001496315,-0.004825592,0.0019931793,0.0005249977,-0.007255554,-0.06726074,0.02607727,0.043640137,0.017532349,-0.026733398,-0.044158936,-0.011734009,0.0042915344,0.010009766,0.028366089,0.010787964,0.077819824,0.01197052,0.018981934,0.0069084167,0.013092041,-0.009887695,-0.017730713,-0.014129639,-0.017120361,-0.03161621,0.0062332153,-0.03781128,0.002254486,-0.013931274,-0.02810669,0.003665924,0.07354736,-0.0011987686,0.015731812,0.005218506,-0.012527466,-0.0077323914,0.03375244,-0.057159424,-0.0049438477,-0.024658203,0.017532349,0.02330017,-0.017044067,-0.029647827,0.0151901245,-0.05178833,-0.024139404,-0.0014533997,0.008674622,-0.027648926,-0.015960693,0.016464233,-0.04156494,-0.028656006,0.032470703,-0.021728516,0.040771484,0.03375244,0.0035037994,-0.03074646,-0.021652222,0.041778564,-0.04522705,-0.020080566,-0.009101868,0.001288414,-0.011238098,0.04006958,-0.02456665,-0.027069092,-0.025344849,0.008422852,-0.0058288574,-0.021697998,0.062927246,-0.04824829,-0.037353516,0.0052604675,0.0022354126,0.024169922,0.0046463013,-0.019180298,-0.00982666,0.093444824,0.028961182,-0.036865234,0.056671143,-0.030548096,-0.023880005,0.0069885254,0.009796143,-0.0057678223,-0.0052986145,0.021499634,0.008033752,-0.0012741089,0.014831543,-0.0016021729,-0.056762695,-0.001832962,-0.0027313232,-0.02130127,-0.034362793,-0.011360168,0.027511597,0.012908936,0.090270996,-0.020858765,0.029525757,0.0440979,0.041290283,0.045135498,-0.011756897,-0.00749588,0.0059661865,0.029632568,-0.040893555,-0.050842285,0.04425049,-0.016403198,-0.019210815,-0.017105103,0.044952393,-0.010971069,0.01838684,-0.004322052,-0.027374268,0.026901245,-0.029586792,-0.022155762,-0.028778076,-0.0692749,-0.028427124,0.006252289,0.013496399,-0.03930664,0.004119873,-0.02961731,-0.024398804,0.017807007,-0.018432617,0.0013036728,-0.057647705,0.008590698,0.041137695,-0.046325684,0.006958008,-0.023162842,0.0059394836,-0.009231567,-0.0069618225,-0.016052246,-0.028182983,0.015388489,-0.010971069,0.018005371,-0.0039749146,0.02861023,0.0005784035,-0.009750366,0.0039978027,-0.005016327,-0.013999939,0.02671814,0.025466919,0.04071045,-0.033599854,0.001285553,0.008094788,0.0015850067,-0.054504395,-0.011749268,0.040618896,-0.0093307495,0.0002641678,-0.030807495,0.033843994,-0.009460449,-0.04031372,0.004211426,-0.0042915344,0.0116119385,0.01335144,0.002456665,-0.00868988,-0.001914978,0.0027637482,-0.016448975,-0.025115967,-0.020629883,-0.02558899,-0.023147583,0.02116394,0.008476257,-0.007221222,-0.025436401,-0.018051147,-0.030197144,0.011222839,-0.0030078888,0.022323608,0.011047363,-0.019256592,0.012130737,-0.03540039,-0.026672363,0.009002686,-0.036987305,-0.012886047,-0.009178162,0.0368042,0.03967285,0.032684326,-0.013641357,0.025924683,-0.05331421,0.05001831,-0.030288696,0.0012397766,-0.004173279,0.044921875,0.017120361,0.03250122,0.06976318,-0.007827759,-0.021530151,0.0037136078,-0.0033874512,0.027267456,-0.0206604,-0.022476196,-0.07305908,-0.009239197,-0.0012807846,-0.026382446,0.04171753,0.01663208,-0.010726929,-0.027267456,-0.0024166107,0.0051002502,0.051757812,-0.014602661,-0.044281006,0.020080566,-0.019226074,-0.01612854,-0.021362305,-0.062286377,-0.033325195,0.040008545,-0.06738281,-0.030303955,0.021530151,-0.03778076,-0.028579712,0.00315094,0.054229736,-0.035888672,-0.00056505203,0.020248413,-0.008140564,0.009208679,-0.008781433,-0.022521973,-0.02986145,0.048309326,0.0007762909,0.019470215,0.04711914,-0.0014705658,0.0019454956,-0.008659363,-0.012229919,0.018371582,0.05090332,0.06341553,0.030349731,0.0025672913,-0.046539307,-0.034240723,-0.0619812,0.00014281273,0.027359009,-0.05984497,-0.08129883,-0.01928711,0.034729004,0.05770874,0.01940918,0.034484863,0.0073547363,-0.010597229,0.03060913,-0.013755798,0.023666382,-0.02444458,-0.032470703,0.0010900497,0.010787964,-0.002866745,0.015914917,0.0021800995,-0.013168335,0.0075950623,0.012687683,0.01499939,0.018478394,-0.0037822723,0.0146865845,0.017425537,0.0143966675,0.026031494,0.04473877,0.019866943,-0.016403198,-0.030731201,0.0013484955,-0.025390625,-0.009384155,-0.0056419373,-0.019012451,0.022445679,-0.04232788,0.016204834,-0.051940918,-0.057556152,0.034240723,0.02078247,0.015823364,0.0051231384,0.018081665,0.046539307,-0.068115234,0.040100098,-0.004055023,-0.00818634,0.016433716,-0.014526367,0.018569946,-0.05227661,0.03845215,0.005634308,0.021972656,-0.046173096,0.006755829,-0.015838623,0.026519775,0.042419434,-0.033325195,0.0077400208,0.0038452148,0.037750244,0.038635254,0.0035247803,-0.025482178,0.020492554,0.04763794,-0.031677246,-0.040130615,-0.013092041,-0.00033140182,0.039733887,0.01965332,-0.031402588,0.03729248,0.029891968,0.045928955,-0.03378296,0.014190674,-0.025497437,-0.04559326,-0.028579712,-0.021148682,0.023284912,-0.0020637512,-0.02659607,0.016342163,-0.028167725,0.030151367,0.044525146,0.0345459,-0.023956299,0.013114929,-0.00053310394,-0.004611969,0.0029354095,-0.013504028,0.05380249,0.0546875,0.023406982,-0.037475586,0.017410278,-0.02999878,-0.025558472,-0.0013303757,-0.007534027,0.04660034,0.027648926,-0.003627777,-0.048736572,0.03778076,0.009231567,-0.08190918,0.02607727,0.011001587,-0.006122589,0.087524414,0.11657715,-0.01663208,0.018951416,0.054748535,-0.023803711,-0.024047852,0.06286621,0.038116455,-0.021896362,-0.019104004,-0.048065186,-0.0256958,0.018875122,0.0046081543,0.004638672,0.02986145,0.06060791,0.0046424866,-0.026245117,0.010215759,-0.027786255,0.023620605,0.048583984,0.018173218,-0.02772522,-0.029876709,0.0045928955,-0.0012359619,-0.012527466,-0.019958496,0.029663086,0.014373779,0.019866943,0.0056266785,-0.030181885,-0.0022678375,0.047576904,-0.017623901,0.005115509,0.033172607,0.023132324,0.008163452,-0.07220459,-0.035308838,-0.022003174,-0.061798096,0.004398346,-0.0012598038,-0.00554657,-0.031982422,0.034118652,-0.020126343,-0.016723633,0.016815186,-0.025436401,0.022369385,-0.03829956,-0.029647827,-0.0262146,-0.05633545,-0.04647827,0.080322266,-0.015960693,-0.009857178,-0.011131287,-0.029296875,0.020690918,-0.017028809,0.024765015,0.019134521,0.05038452,-0.008514404,-0.01235199,-0.003982544,-0.044036865,-0.039245605,0.04144287,-0.109191895,-0.041137695,-0.06323242,0.008049011,-0.012413025,-0.04916382,-0.04714966,0.0056114197,-0.023513794,-0.02470398,-0.016921997,-0.017028809,0.007446289,-0.010063171,-0.022064209,-0.005168915,-0.027740479,0.03756714,-0.03765869,0.06500244,-0.0038986206,0.0058784485,-0.0058670044,-0.0011634827,-0.009384155,-0.029937744,0.02960205,-0.036590576,0.072753906,0.07501221,-0.0024337769,-0.037902832,-0.019821167,-0.068847656,-0.0074157715,-0.014190674,0.06124878,0.04626465,-0.0569458,-0.0016851425,-0.040405273,-0.023544312,0.01612854,-0.026901245,-0.015151978,0.002822876,-0.0023269653,-0.004131317,0.01361084,-0.0021419525,0.008544922,0.013877869,-0.035186768,0.0075798035,-0.019012451,0.0029277802,-0.002729416,0.0028362274,0.029693604,0.032562256,-0.009788513,0.045135498,-0.050720215,0.01423645,0.038604736,-0.032562256,-0.0035171509,-0.02218628,0.026382446,0.0046310425,0.038330078,-0.016723633,0.03878784,0.008651733,-0.020355225,0.042938232,0.024459839,0.04196167,-0.041046143,0.029220581,0.025527954,0.006965637,-0.033111572,0.067993164,0.01033783,0.018951416,-0.047790527,0.035888672,0.0043563843,-0.03756714,0.012420654,-0.014198303,-0.04159546,0.0035686493,-0.0121536255,0.010902405,-0.057128906,-0.0010280609
arconia-io/arconia,0.005279541,-0.03265381,0.0053901672,-0.0066871643,-0.051086426,0.010765076,-0.007820129,0.0015859604,-0.010955811,-0.011627197,-0.037109375,0.009605408,-0.057037354,-0.017166138,0.024429321,-0.050689697,0.04006958,-0.016738892,0.024032593,0.0039901733,-0.0073890686,0.043121338,-0.0118255615,0.058563232,-0.014755249,0.038757324,0.0021152496,-0.02734375,-0.014076233,-0.027679443,-0.018035889,0.014350891,0.0022277832,0.0034656525,0.024780273,0.022262573,-0.011306763,0.006439209,0.013710022,0.019332886,0.034301758,-0.01423645,-0.087402344,0.046142578,-0.07873535,-0.040740967,0.021575928,0.011383057,0.037628174,0.044036865,0.0036773682,0.01852417,0.013496399,0.002708435,-0.013053894,0.0121154785,0.0017776489,-0.010864258,0.026550293,-0.026611328,-0.030960083,-0.012702942,0.03314209,0.030563354,0.021270752,0.020385742,0.008644104,0.026641846,0.0121536255,0.0020370483,-0.013679504,-0.025283813,0.0137786865,-0.054656982,0.053955078,-0.0043792725,-0.039611816,0.0019683838,-0.0021247864,0.032043457,-0.03289795,0.020477295,0.00091695786,-0.028671265,0.024627686,-0.0075149536,-0.024490356,0.006668091,0.017105103,-0.05822754,-0.018600464,0.02960205,-0.026885986,0.022659302,-0.009407043,-0.046295166,0.00035572052,0.008781433,-0.016921997,0.014335632,-0.03805542,-0.0055656433,0.0033073425,-0.019836426,0.0064468384,0.0042266846,-0.016220093,0.066223145,0.061462402,0.034698486,-0.006752014,0.047454834,0.032165527,-0.0020980835,-0.05517578,-0.05911255,-0.0009946823,0.00605011,0.0038108826,-0.040985107,0.008514404,0.02760315,0.0016012192,-0.0072517395,0.0029563904,0.014595032,-0.023513794,-0.011299133,-0.006641388,-0.017211914,0.034484863,0.04260254,-0.08380127,-0.019805908,-0.034484863,0.019683838,-0.025299072,-0.014724731,0.020950317,-0.047027588,0.06695557,-0.013168335,0.030014038,0.062194824,-0.031280518,0.0178833,-0.0066566467,0.011009216,0.003490448,-0.037231445,0.017456055,-0.06549072,-0.033569336,0.051635742,-0.004764557,0.04876709,0.009140015,0.010185242,0.01828003,0.0107803345,0.005836487,-0.0040779114,0.028671265,-0.042816162,-0.03729248,-0.014671326,-0.03768921,-0.0073432922,0.013580322,0.05871582,-0.0045394897,-0.021972656,-0.0037288666,0.021072388,-0.006416321,0.0287323,-0.021499634,-0.03781128,0.027175903,0.022125244,0.01878357,-0.004295349,-0.027740479,0.05303955,-0.03213501,-0.027770996,-0.003124237,-0.018539429,0.050689697,-0.0013170242,0.021835327,0.0070266724,-0.020721436,-0.018127441,0.041046143,-0.0028762817,-0.014419556,-0.042053223,0.0058784485,0.035491943,-0.03265381,-0.009941101,-0.023040771,-0.0065612793,-0.023208618,-0.061340332,0.0018100739,-0.018157959,0.08239746,-0.042175293,-0.053100586,-0.05734253,0.054260254,-0.06781006,-0.0881958,0.046875,-0.008773804,-0.031707764,-0.0038776398,-0.009124756,0.03744507,0.00077962875,0.011482239,0.052764893,0.019836426,-0.0032520294,-0.021850586,-0.024353027,-0.011550903,0.031066895,-0.058563232,0.033416748,-0.0058174133,0.016693115,-0.0491333,0.011665344,0.0070266724,0.07086182,-0.0022144318,-0.0036144257,0.04748535,-0.033996582,0.002105713,-0.0395813,0.03829956,-0.03390503,0.024490356,-0.036315918,0.037994385,0.044830322,-0.03945923,-0.018966675,0.018081665,0.032684326,0.014701843,0.039154053,0.0041885376,0.031951904,0.0036907196,0.040100098,-0.044921875,0.049194336,0.03137207,-0.00374794,0.042297363,0.029876709,0.04360962,0.03881836,-0.055358887,0.029907227,0.01574707,0.04660034,-0.024780273,0.027359009,0.047973633,-0.08178711,-0.01701355,0.010513306,-0.056793213,-0.010032654,-0.015640259,0.01889038,0.00032138824,0.00027799606,-0.03265381,0.043884277,0.039611816,0.014450073,-0.055877686,-0.04147339,0.0053710938,0.027236938,-0.041015625,-0.00027179718,0.0045166016,0.004875183,0.041107178,0.030838013,0.0007686615,0.012542725,-0.010360718,0.029266357,0.0014095306,-0.00843811,0.008201599,0.016815186,0.024429321,-0.0056419373,-0.0046539307,0.03765869,-0.04083252,0.034729004,0.0038414001,0.024353027,0.004486084,-0.040161133,-0.01247406,0.006626129,-0.04159546,-0.08947754,-0.0074424744,-0.02053833,-0.042114258,-0.016296387,-0.008384705,0.02166748,-0.033996582,0.0077819824,-0.017456055,0.01576233,-0.002811432,0.022537231,-0.0044822693,0.06060791,0.0026569366,0.006580353,0.0060157776,0.042938232,-0.0021152496,-0.013954163,-0.016159058,-0.03225708,-0.007911682,-0.034179688,0.021087646,0.018096924,0.0057678223,0.0357666,0.03326416,0.027740479,-0.05758667,-0.06665039,0.019104004,0.034179688,0.031921387,-0.01966858,-0.0095825195,0.065979004,0.007045746,0.009391785,0.025878906,-0.0041122437,-0.017089844,-0.012779236,0.0026779175,-0.051849365,-0.009803772,-0.0050697327,-0.047821045,-0.027542114,-0.025100708,-0.014793396,0.0035438538,-0.022125244,-0.05026245,0.012649536,-0.027526855,-0.07635498,0.0059509277,-0.01550293,-0.031555176,-0.02420044,0.06604004,0.036071777,0.0012931824,0.01576233,-0.024032593,0.01335144,0.009338379,0.025985718,-0.009590149,0.013908386,-0.024276733,-0.00065660477,0.0040893555,0.032562256,-0.036132812,-0.0491333,-0.04663086,0.0028247833,-0.006374359,-0.051879883,-0.019577026,-0.035949707,0.011802673,-0.05807495,-0.01663208,-0.03503418,0.04421997,-0.0055351257,0.012825012,-0.007659912,0.013687134,-0.020217896,-0.03994751,-0.005378723,-0.006679535,-0.012260437,-0.05517578,0.071899414,0.04586792,-0.018600464,0.009490967,0.040771484,-0.060546875,-0.025436401,-0.01096344,0.021255493,-0.035339355,-0.026062012,-0.016723633,-0.0340271,0.006164551,-0.0041885376,-0.013450623,0.013557434,-0.03479004,-0.0029411316,-0.006038666,-0.04373169,-0.026947021,0.011650085,0.0390625,-0.0026931763,-0.058044434,0.035888672,0.07147217,0.022705078,-0.026657104,-0.012954712,0.0037498474,-0.009460449,-0.025863647,0.028533936,0.0039482117,0.109680176,-0.032287598,0.038085938,0.00013041496,0.030212402,0.021011353,-0.029251099,0.013389587,-0.00016212463,-0.057769775,0.024673462,-0.024795532,0.006801605,-0.030380249,-0.014442444,0.005531311,0.055877686,0.006576538,0.005207062,-0.023529053,0.006175995,0.018737793,0.000582695,-0.023086548,-0.0065078735,-0.014083862,0.0054626465,0.049743652,-0.008514404,-0.008041382,0.011665344,-0.036621094,0.010635376,-0.026626587,0.030517578,0.011650085,0.0051574707,0.013198853,-0.049072266,-0.05630493,0.006538391,-0.028305054,0.05065918,0.0036334991,-0.018341064,-0.038360596,-0.02520752,0.06201172,-0.004131317,-0.004211426,0.007472992,0.02368164,0.0031776428,0.02116394,-0.0063285828,-0.008987427,-0.016098022,0.00907135,0.0022888184,-0.020111084,0.038208008,-0.008682251,-0.025970459,0.0006055832,-0.008590698,0.014144897,-8.523464e-06,-0.014808655,-0.013923645,0.075805664,0.046325684,-0.05117798,0.076660156,-0.059051514,-0.022888184,0.003835678,0.023956299,-0.02458191,-0.03375244,0.038208008,-0.00041270256,-0.015113831,-0.052520752,0.002521515,0.005619049,0.020599365,0.01108551,-0.05706787,0.019760132,0.0025234222,0.031143188,-0.00055360794,0.08782959,0.00031280518,0.05456543,0.0077171326,-0.0072784424,-0.0028839111,-0.02784729,0.01902771,-0.024520874,0.036590576,-0.04562378,-0.06225586,0.046295166,-0.023620605,0.011108398,-0.02748108,0.032348633,-0.045166016,0.0021591187,0.009254456,0.004119873,0.01890564,0.0011787415,-0.03930664,-0.038635254,-0.026489258,-0.0029945374,-0.0051841736,-0.0047721863,-0.04525757,0.013069153,0.005558014,0.0209198,0.013580322,-0.027328491,-0.031143188,-0.06878662,0.024353027,-0.0129470825,-0.02003479,-0.023239136,-0.014503479,-0.018707275,-0.0066108704,-0.028747559,-0.0071983337,-0.048706055,-0.014877319,-0.0061416626,-0.017959595,0.005214691,0.02470398,0.0046958923,0.009590149,-0.00037384033,-0.009117126,-0.02192688,0.011238098,0.0023670197,0.052124023,-0.021316528,-0.025817871,0.019851685,0.011314392,-0.033477783,-9.2446804e-05,0.0020828247,0.0045280457,0.03488159,-0.019683838,0.023406982,0.006324768,-0.03265381,0.018218994,-0.0020141602,0.019958496,0.008460999,-0.011833191,0.04812622,0.00573349,0.017745972,-0.011566162,0.016036987,0.0042495728,-0.025146484,-0.008079529,-0.020568848,0.0067253113,0.0005235672,-0.005542755,-0.011894226,-0.030212402,0.021697998,-0.00381279,-0.0030822754,-0.0033092499,-0.04055786,0.03567505,-0.0546875,-0.05126953,0.027374268,-0.05847168,-0.0040016174,0.022735596,0.040771484,0.009994507,0.05227661,0.002609253,0.013412476,-0.06390381,0.055511475,-0.00054216385,0.00037837029,-0.0262146,0.07171631,0.036865234,0.032806396,0.06616211,0.018875122,0.0013074875,-0.008926392,0.020950317,-0.008682251,-0.03475952,-0.048828125,-0.078308105,-0.006111145,-0.01651001,-0.004306793,-0.007457733,0.02267456,-0.0546875,0.040863037,0.0038471222,0.012588501,0.03930664,-0.023071289,-0.03250122,0.020385742,0.008903503,-0.024047852,0.013053894,-0.05029297,0.0032920837,0.05630493,-0.031982422,0.004623413,0.018051147,0.004184723,-0.02456665,0.04147339,0.06903076,-0.051757812,-0.0047416687,0.055419922,-0.04598999,0.024353027,-0.03579712,0.0048942566,-0.018997192,0.01701355,-0.025177002,0.029052734,0.010559082,-0.041992188,-0.008232117,0.0016384125,-0.003917694,0.009132385,0.038208008,0.07220459,0.027893066,-0.020889282,-0.009979248,-0.000538826,-0.01991272,-0.002002716,0.039154053,-0.042510986,-0.053955078,0.014572144,0.031402588,0.07159424,0.010009766,0.011131287,0.020935059,-0.026641846,0.01499176,-0.036499023,0.014305115,0.031951904,0.012588501,0.02507019,0.004863739,-0.010314941,0.026260376,0.016036987,0.031082153,0.041259766,0.012649536,0.09118652,0.025466919,0.022628784,0.018035889,0.03845215,0.0070266724,0.024749756,0.050048828,-0.020217896,-0.059661865,0.004753113,0.036895752,-0.013259888,-0.017456055,0.0022029877,-0.0069007874,0.032806396,-0.04309082,-0.011604309,-0.104003906,-0.061462402,0.010002136,0.016571045,0.020584106,0.0014696121,0.0036087036,0.008056641,-0.021575928,0.043273926,-0.025802612,-0.013259888,0.0038909912,0.016647339,0.04071045,-0.02809143,0.03552246,-0.021331787,0.029800415,-0.055145264,0.042144775,-0.030548096,0.043701172,0.06866455,-0.025054932,-0.0031986237,-0.010803223,-0.04248047,0.0071754456,-0.01586914,-0.04006958,-0.008735657,0.021408081,-0.026138306,-0.051513672,-0.034484863,-0.0028076172,0.045715332,0.021118164,-0.008026123,0.00617218,0.04058838,0.017089844,-0.008628845,0.014755249,-0.035583496,-0.04812622,-0.03479004,-0.020614624,0.014472961,-0.015197754,-0.026885986,-0.0018005371,-0.057403564,0.031921387,0.05230713,0.015426636,-0.025161743,0.023773193,-0.0038719177,-0.010948181,0.011672974,-0.020645142,0.052764893,0.072265625,0.028182983,-0.029174805,0.022338867,-0.0053367615,-0.05407715,-0.025817871,-0.03930664,0.06124878,0.010597229,0.025970459,-0.023101807,0.031219482,-0.00073862076,-0.024765015,0.0054092407,0.016296387,-0.026565552,0.09008789,0.0793457,0.027542114,-0.0008916855,0.03314209,-0.002796173,0.0019683838,0.03894043,0.046295166,-0.024261475,-3.9994717e-05,-0.03048706,-0.038970947,0.041259766,0.0030212402,0.011199951,-0.011039734,0.05392456,-0.03152466,-0.006362915,0.016937256,-0.011291504,0.029220581,0.06335449,0.038726807,-0.00982666,-0.025039673,0.046203613,0.0042381287,-0.0034332275,0.010116577,0.062927246,-0.0075569153,-0.03086853,-0.004547119,-0.034088135,-0.02658081,-0.0011701584,0.0056991577,-0.018844604,0.025527954,0.005332947,-0.003921509,-0.04714966,-0.024276733,-0.0022277832,-0.053894043,0.01701355,0.012649536,-0.003955841,-0.03765869,0.017944336,-0.01889038,-0.02507019,0.05618286,-0.038909912,0.021331787,-0.05319214,-0.040405273,-0.031555176,-0.046783447,-0.05923462,0.07342529,-0.025970459,-0.03656006,-0.017242432,-0.00012040138,0.0048217773,-0.07110596,-0.017959595,-0.043304443,0.036956787,-0.011886597,0.001958847,-0.00299263,-0.015853882,-0.019927979,-0.0029277802,-0.041900635,-0.005596161,-0.002653122,-0.018051147,0.00095033646,-0.010498047,0.0029335022,0.0178833,0.012245178,-0.0040512085,-0.006538391,-0.009124756,0.021194458,-0.070251465,-0.019485474,0.0008378029,-0.04348755,0.019882202,-0.046203613,0.05569458,-0.0067825317,-0.013038635,-0.046020508,-0.035125732,-0.034362793,-0.012054443,0.019439697,-0.03125,0.049102783,0.05404663,-0.015975952,-0.010658264,-0.017944336,-0.049835205,-0.010879517,-0.015106201,0.057769775,0.049468994,-0.064697266,0.017303467,-0.04333496,-0.033569336,0.062927246,0.010719299,-0.013832092,0.006801605,-0.015548706,0.024871826,-0.009437561,-0.0126571655,0.011154175,0.02218628,-0.0803833,0.015197754,-0.013549805,-0.0036010742,0.021316528,0.014404297,0.05355835,0.047729492,-0.04031372,-0.016983032,-0.0105896,-0.018600464,0.013839722,-0.04055786,-0.013000488,0.019424438,0.010124207,-0.010566711,0.031204224,0.000166893,0.020950317,0.010032654,-0.00712204,0.054382324,0.032073975,0.04458618,-0.02822876,0.022338867,0.009971619,-0.022369385,-0.042022705,0.046966553,0.02558899,-0.000121712685,-0.028793335,0.036071777,0.035125732,-0.039001465,0.016723633,-0.012214661,-0.044647217,0.019332886,-0.035095215,0.009941101,-0.045684814,-0.010353088
borjavb/bq-lineage-tool,-0.031341553,-0.014625549,-0.052490234,-0.072753906,-0.05569458,0.03048706,-0.11352539,0.044921875,-0.038238525,0.013725281,-0.028884888,0.004421234,-0.048553467,-0.015609741,-0.005504608,-0.06390381,0.0524292,-0.034088135,-0.032958984,-0.0026550293,-0.037963867,0.035308838,-0.020385742,0.035583496,0.044433594,0.01890564,-0.05404663,0.01927185,0.019424438,0.009552002,0.0052452087,-0.030776978,0.009155273,0.02670288,-0.016052246,0.06719971,-0.0055770874,0.01309967,0.042785645,-0.026565552,0.021224976,0.0030670166,-0.0060691833,0.024749756,-0.055236816,-0.026809692,0.018493652,0.03933716,0.008811951,-0.00076055527,-0.025772095,-0.017166138,0.011642456,-0.020751953,-0.024169922,-0.06109619,-0.018676758,-0.009567261,0.02015686,-0.021499634,-0.013366699,-0.010810852,0.036743164,0.009262085,-1.8239021e-05,-0.023513794,0.01184082,0.037628174,0.0031776428,-0.0129852295,0.0060195923,-0.0068588257,0.0127334595,-0.0501709,0.03829956,-0.0031356812,-0.023025513,-0.003227234,0.018188477,0.008346558,0.031402588,0.05014038,0.026504517,-0.04296875,0.03048706,-0.018051147,-0.016571045,-0.011741638,0.0036411285,-0.05871582,-0.03857422,0.05657959,-0.033599854,0.032714844,-0.05859375,0.014328003,-0.027511597,-0.01473999,-0.031951904,-0.010665894,-0.023727417,-0.0046958923,-0.018081665,-0.01663208,0.010009766,0.0020256042,-0.0385437,0.016937256,0.060699463,0.039001465,0.011985779,0.051361084,0.020431519,-0.011634827,-0.0045814514,-0.0036125183,0.008544922,0.021209717,-0.001162529,-0.043182373,0.0006752014,0.02998352,-0.0036239624,-0.03543091,0.017990112,-0.00016963482,-0.026870728,-0.013183594,0.0014925003,0.017425537,0.0074310303,0.064331055,-0.07598877,-0.062927246,-0.06774902,0.005126953,0.04257202,-0.027740479,0.004020691,0.0018453598,0.017425537,-0.05026245,-0.016082764,0.030548096,-0.024871826,-0.006210327,0.044189453,0.026229858,-0.0020694733,-0.027313232,-0.026794434,0.05505371,-0.008125305,0.03543091,-0.05545044,0.021469116,-0.06384277,0.012573242,0.041107178,0.009132385,0.012382507,0.005355835,0.038513184,0.031463623,0.031463623,-0.022277832,-0.03829956,0.004016876,0.016204834,0.0015048981,-0.033721924,0.025741577,0.0020942688,0.019012451,0.004737854,0.027053833,-0.036010742,-0.02684021,0.006137848,0.06317139,0.029663086,-0.025756836,-0.074157715,0.07067871,-0.03237915,-0.025146484,0.012565613,0.031585693,0.012306213,0.02470398,0.032165527,-0.0012426376,-0.0071907043,-0.026626587,-0.0036697388,-0.01878357,0.05429077,-0.0007753372,0.008392334,0.017822266,-0.0317688,0.032043457,-0.010696411,0.028839111,0.015472412,0.021896362,-0.001127243,0.0048294067,0.03692627,-0.0074806213,-0.022445679,-0.046966553,0.03186035,-0.046813965,-0.05569458,-0.008666992,-0.014778137,-0.034057617,-0.0132751465,-0.037506104,0.029312134,-0.013153076,-0.011238098,0.061676025,-0.014480591,0.02267456,-0.032470703,0.008346558,-0.042144775,0.053497314,-0.028884888,-0.0072784424,0.02003479,0.05606079,-0.009605408,0.0039787292,0.048034668,-0.03756714,0.014457703,0.009979248,0.029159546,-0.030929565,-0.06976318,-0.075683594,-0.018630981,-0.050933838,0.029953003,-0.031829834,-0.009269714,0.040283203,-0.023345947,0.01586914,0.0018568039,0.020080566,-0.046051025,0.062042236,0.026885986,0.003786087,-0.016021729,0.045013428,-0.029769897,0.019119263,0.0021247864,-0.006916046,-0.009773254,-0.018676758,-0.025299072,-0.010246277,-0.0007109642,-0.010383606,0.019470215,-0.05316162,0.018371582,0.00894928,0.011428833,-0.05432129,0.010986328,-0.018692017,0.011398315,-0.030014038,0.02166748,0.03793335,0.015777588,0.0053863525,0.002937317,0.060821533,0.008071899,0.040100098,-0.03161621,-0.0018634796,0.030456543,0.04034424,-0.00083732605,-0.020370483,0.03881836,0.002111435,0.039978027,0.0881958,-0.041259766,0.020965576,-0.036865234,-0.011772156,0.0070152283,-0.02659607,0.021865845,0.017227173,0.025482178,0.02029419,0.040802002,-0.0048828125,0.006023407,0.014915466,-0.006210327,0.003293991,-0.009986877,-0.04269409,-0.021881104,-0.027374268,-0.0703125,-0.04937744,0.033416748,-0.047973633,-0.04727173,-0.00060510635,-0.04751587,-0.0035324097,0.017990112,-0.006111145,-0.018341064,-0.008384705,0.04751587,-0.029296875,-0.005393982,-0.0006046295,0.024673462,-0.012741089,0.01335144,0.016281128,-0.003490448,-0.030349731,-0.0019302368,-0.039031982,-0.0049591064,-0.004135132,-0.016921997,0.05343628,-0.01727295,0.04397583,0.008842468,-0.00667572,-0.042663574,-0.0435791,0.03390503,0.022949219,0.06262207,-0.066711426,-0.04663086,0.02796936,-0.0007824898,-0.03866577,0.02960205,-0.02507019,-0.016189575,-0.03338623,0.033569336,-0.04232788,-0.034484863,-0.009735107,-0.033966064,0.028747559,-0.05355835,-0.029067993,-0.011940002,0.010017395,-0.009727478,0.05831909,0.041381836,-0.012229919,-0.04751587,0.020141602,0.007205963,0.02243042,0.00944519,0.027999878,0.023361206,0.0107803345,0.0070877075,0.023742676,-0.0065307617,0.0027866364,-0.044799805,0.008346558,0.01335907,-0.026275635,0.017349243,-0.0005750656,-0.03475952,0.015716553,-0.0390625,0.0054359436,-0.0067100525,-0.043823242,-0.022537231,-0.022781372,-0.02545166,-0.044647217,-0.028839111,-0.015716553,0.022979736,0.023040771,-0.021774292,0.01889038,0.026687622,-0.035064697,0.00078487396,0.0028381348,-0.02960205,-0.011817932,0.007896423,0.028030396,-0.00881958,0.0034866333,-0.029846191,0.0121536255,-0.07159424,-0.022033691,0.00381279,0.060760498,-0.008422852,-0.058685303,-0.04244995,-0.04675293,-0.000330925,-0.010017395,-0.026931763,0.009941101,-0.027191162,0.0038223267,0.026184082,-0.033813477,-0.03982544,-0.003616333,0.029876709,-0.020599365,-0.037231445,0.023910522,0.045196533,0.005680084,0.008399963,-0.0118255615,-0.017715454,0.008529663,0.02684021,0.021896362,-0.019607544,-0.014625549,-0.020568848,0.0146102905,0.021270752,0.012710571,-0.016494751,-0.012718201,0.013046265,-0.029022217,-0.013046265,0.008338928,0.0073661804,-0.0041503906,-0.026290894,0.0057411194,0.022842407,-0.006664276,-0.004676819,-0.023620605,0.002368927,-0.0023784637,-0.0013275146,-0.028549194,0.017227173,0.008453369,0.029525757,-0.0024757385,-0.00655365,0.016204834,0.008491516,0.00944519,-0.046142578,-0.0118255615,-0.0012388229,-0.03817749,-0.024810791,-0.04071045,0.0023231506,-0.051208496,-0.036743164,-0.017227173,0.017333984,0.011428833,0.01625061,-0.0060768127,-0.10949707,0.007396698,-0.023834229,-0.025894165,0.056365967,-0.01586914,-0.024353027,0.011138916,0.011947632,0.059906006,-0.00092840195,-0.0052337646,-0.05783081,-0.04724121,-0.020629883,0.0446167,-0.04559326,-0.05734253,0.0060272217,-0.0030288696,-0.009902954,-0.008071899,0.020553589,0.014816284,0.04119873,0.023208618,-0.032836914,0.05911255,-0.052703857,-0.070739746,0.039855957,0.029830933,0.0029850006,0.010597229,-0.01966858,0.014373779,-0.010101318,-0.021743774,-0.01008606,0.016113281,-0.004749298,-0.040802002,-0.022994995,0.009735107,0.005054474,-0.008171082,0.03189087,0.068603516,0.03390503,0.00011885166,0.018157959,0.015701294,0.017242432,-0.0084991455,-0.038085938,0.02822876,-0.010414124,-0.016662598,-0.04324341,0.05429077,-0.029144287,0.036346436,-0.021453857,0.0017709732,0.07745361,-0.0070648193,0.04348755,-0.021026611,-0.03552246,0.005710602,-0.048309326,-0.021606445,-0.09503174,-0.019729614,-0.03741455,0.036132812,-0.06726074,0.024353027,-0.011558533,0.056854248,0.028808594,0.013221741,-0.057739258,0.03338623,-0.013259888,0.056152344,-0.022491455,0.008659363,-0.016159058,0.010635376,0.0020999908,0.0030345917,-0.02104187,-0.032348633,-0.0041236877,-0.006904602,0.055114746,0.034576416,0.033569336,0.004245758,0.0066070557,-0.043670654,-0.023635864,-0.02078247,0.06414795,-0.044677734,0.0413208,-0.017807007,-0.028167725,0.01612854,0.04940796,-0.052612305,0.024520874,0.02796936,0.023834229,0.024841309,0.0098724365,-0.0016489029,-0.00019943714,-0.014389038,0.0014448166,0.0034770966,0.030166626,-0.039794922,-0.046936035,0.0028839111,0.04296875,0.0071792603,-0.017333984,0.026733398,0.0056495667,-0.008056641,-0.0010986328,0.023864746,0.060150146,-0.026794434,-0.009941101,-0.009536743,-0.0014591217,0.054870605,0.013671875,0.028671265,0.04272461,-0.061431885,0.040283203,-0.027908325,-0.021240234,0.009422302,-0.01890564,0.01701355,-0.0061454773,0.0075263977,-0.013442993,-0.022918701,-0.0029773712,0.0059547424,-0.03704834,-0.02709961,0.009559631,-0.047943115,-7.992983e-05,0.055755615,-0.011985779,0.056640625,-0.024017334,0.007698059,0.033447266,0.01058197,0.015792847,-0.03878784,0.008155823,-0.020111084,-0.0637207,-0.02973938,-0.016220093,0.04449463,0.06842041,0.027282715,0.039978027,-0.020751953,0.0068130493,-0.020187378,-0.02104187,-0.00969696,-0.009590149,0.016098022,0.0031394958,0.014198303,-0.012626648,-0.027160645,0.006126404,0.0758667,-0.055389404,0.020309448,-0.012031555,-0.03756714,-0.023162842,-0.035003662,0.119628906,-0.010017395,0.023040771,0.0067710876,-0.04537964,-0.04373169,-0.027008057,0.0395813,-0.018936157,0.04748535,-0.07220459,0.0046463013,0.028747559,0.02633667,-0.01852417,0.004047394,-0.029159546,-0.013458252,0.024475098,0.016235352,0.010040283,0.0390625,-0.012680054,-0.033233643,-0.065979004,-0.044433594,-0.015686035,-0.021072388,-0.03540039,-0.0009765625,0.04638672,0.059753418,0.01361084,0.030731201,-0.0018072128,0.018554688,0.0184021,-0.011886597,0.003932953,0.02508545,0.013298035,-0.044189453,0.022827148,-0.031021118,0.03579712,-0.0052719116,0.022476196,0.023391724,0.019958496,0.06774902,-0.029510498,0.021224976,0.017578125,-0.018249512,-0.05758667,-0.0069999695,0.020507812,-0.035888672,-0.033050537,0.06829834,-0.024536133,0.014183044,-0.07702637,-0.018753052,-0.007801056,0.052612305,0.023101807,0.04385376,-0.038238525,0.0021705627,0.049621582,-0.012863159,0.011627197,-0.003168106,0.031341553,0.02822876,0.008102417,0.0029850006,-0.037994385,-0.011886597,0.026641846,0.05154419,0.031982422,0.0018749237,0.029922485,-0.037475586,0.013786316,-0.025344849,0.019134521,-0.03062439,0.03475952,0.020767212,-0.036621094,0.020385742,-0.03591919,-0.019638062,-0.034118652,0.0023517609,0.013801575,-0.00014293194,0.043518066,-0.0056533813,-0.04711914,-0.052734375,0.03353882,0.08074951,0.0546875,-0.012702942,-0.03555298,0.099243164,-0.014526367,0.042907715,-0.01235199,-0.033325195,-0.02482605,-0.00157547,0.035614014,0.003774643,0.0039482117,-0.0047798157,-0.014877319,-0.055480957,0.008514404,0.03817749,-0.0047302246,0.0012407303,-0.044525146,-0.005126953,0.037994385,-0.044830322,-0.004512787,0.019363403,0.0008234978,-0.027633667,0.011253357,0.0056915283,0.021499634,0.026870728,-0.038757324,-0.033203125,-4.7683716e-07,0.0031547546,-0.017669678,-0.025894165,0.0039520264,0.0011758804,-0.01486969,0.0579834,0.0056533813,-0.03640747,0.0284729,0.052368164,0.0007324219,0.009979248,0.0060577393,-0.012397766,0.0004389286,0.07489014,0.053009033,-0.0078125,0.019088745,-0.006679535,-0.052947998,0.06304932,0.06109619,0.035736084,0.018829346,0.05847168,-0.031280518,0.04220581,-0.024887085,0.0657959,0.012062073,0.02142334,0.05130005,-0.037200928,-0.050048828,0.045043945,-0.024597168,-0.015899658,-0.0015144348,0.02230835,0.00541687,-0.0004696846,0.01725769,0.013381958,-0.009414673,-0.042266846,0.014442444,0.03555298,0.03265381,-0.004108429,0.022705078,-0.03866577,-0.00020325184,-0.0026931763,-0.0046844482,-0.036743164,-0.011940002,0.03793335,-0.041015625,0.020599365,-0.030258179,-0.04031372,-0.014801025,0.021621704,0.006412506,-0.027450562,-0.00019574165,-0.008468628,-0.022369385,-0.05215454,0.04248047,-0.009765625,0.034484863,0.058044434,-0.061065674,-0.06311035,0.04144287,0.0385437,0.08843994,-0.0039138794,0.02923584,0.0076446533,0.0039863586,-0.059265137,-0.030639648,0.013328552,-0.032470703,-0.03237915,-0.0047416687,0.010726929,0.03704834,-0.0061187744,-0.078186035,0.035705566,-0.021896362,-0.017822266,-0.040893555,-0.025726318,0.013938904,-0.01210022,-0.022949219,-0.01083374,-0.039123535,0.029327393,-0.03857422,0.031158447,-0.004055023,-0.019378662,0.009880066,0.015640259,0.028701782,-0.02861023,0.0010166168,0.02268982,-0.005630493,0.031219482,-0.059692383,-0.032684326,-0.03137207,0.025222778,0.007911682,0.025985718,0.017410278,0.011810303,-0.017105103,-0.016586304,-0.022888184,-0.005405426,0.03942871,0.02067566,-0.009185791,-0.0015592575,-0.03463745,0.013969421,-0.009132385,0.0069847107,0.0075035095,0.013549805,-0.027252197,0.0014410019,-0.013435364,0.03050232,-0.007801056,-0.006225586,-0.017547607,0.05859375,-0.02331543,-0.0069236755,0.019851685,0.0017223358,0.025787354,0.03704834,-0.017944336,-0.025604248,-0.035247803,0.03753662,-0.0057258606,0.024642944,-0.010818481,0.0038318634,0.005455017,0.004360199,0.029174805,-0.006526947,-0.033569336,0.024627686,0.013664246,-0.04534912,-0.03744507,-0.00032234192,-0.009719849,0.0026855469,-0.047424316,0.040039062,-0.011917114,0.025146484,0.019378662,-0.038269043,0.005962372,-0.02998352,-0.00894928,0.0020713806,-0.021362305,0.02267456
linux-china/sieve-cache,0.011199951,-0.002243042,-0.007637024,-0.05911255,-0.023498535,0.0015077591,-0.05114746,-0.0066947937,-0.039886475,0.036010742,0.0029830933,-0.017700195,0.009338379,-0.003145218,0.0178833,-0.03894043,0.059661865,-0.010673523,0.038482666,0.015197754,-0.023254395,0.068603516,-0.0019741058,0.046447754,0.02230835,-0.043304443,0.030456543,0.012023926,0.020584106,-0.016830444,0.0042304993,-0.020614624,0.008735657,-0.00856781,0.014083862,-0.014465332,-0.024673462,-0.008087158,0.0036754608,0.009712219,0.034454346,-0.013076782,-0.048706055,0.01473999,-0.083618164,-0.021194458,0.029342651,0.044128418,0.02305603,0.041046143,0.011116028,0.025604248,0.0107040405,0.010864258,-0.023834229,-0.0031261444,0.0060653687,-0.032440186,0.02406311,-0.030319214,-0.018066406,0.022399902,0.031341553,0.031921387,0.0060195923,-0.018997192,0.013748169,0.058044434,0.012756348,-0.029846191,-0.023284912,-0.0011205673,-0.022598267,-0.025497437,0.029830933,0.0015678406,-0.011695862,0.004749298,-0.0335083,0.058013916,-0.041809082,-0.011703491,0.0037956238,-0.0076789856,-0.049224854,-0.02180481,-0.004573822,0.0051116943,-0.008743286,-0.07098389,-0.023971558,0.053375244,-0.05633545,0.011016846,-0.015235901,-0.059173584,0.0362854,0.036132812,-0.006664276,-0.016738892,-0.06994629,-0.011543274,-0.044433594,-0.018417358,-0.026565552,-0.017669678,-0.014335632,0.064575195,0.048828125,0.062194824,-0.010871887,0.026062012,0.0390625,0.016082764,-0.052337646,-0.0038661957,0.035949707,-0.021652222,0.013061523,-0.034851074,0.025039673,0.048217773,-0.008659363,-0.036010742,-0.0034008026,-0.0053977966,-0.047546387,-0.006088257,-0.009002686,-0.028640747,0.00434494,0.05899048,-0.07196045,-0.05847168,-0.051849365,0.005710602,-0.043518066,-0.0042381287,0.009490967,-0.035064697,0.044525146,-0.0035362244,0.062438965,0.019515991,-0.06137085,0.026947021,0.027130127,0.0043907166,-0.04284668,-0.045196533,0.016204834,-0.0096206665,-0.02355957,0.0635376,-0.002609253,0.07269287,-0.010139465,0.020614624,0.016555786,0.042510986,-0.0064964294,-0.0015563965,0.009887695,-0.064331055,-0.06604004,-0.017166138,-0.007736206,0.006298065,0.00605011,0.047576904,-0.012641907,0.03338623,-0.0041999817,0.0036392212,0.0022602081,-0.013801575,-0.022888184,-0.009208679,0.029846191,0.01486969,0.014732361,-0.021743774,-0.017959595,0.03778076,-0.008522034,-0.02709961,0.008232117,-0.0035533905,0.0259552,0.006401062,-0.011207581,0.020690918,-0.003276825,-0.04336548,0.034240723,-0.01689148,0.03488159,-0.027359009,0.011421204,0.04373169,0.023010254,-0.004119873,0.018325806,-0.037322998,-0.017959595,-0.017333984,0.013076782,-0.020111084,0.0463562,-0.005859375,-0.024642944,-0.0019683838,0.008361816,-0.032409668,-0.019058228,0.04486084,-0.019699097,-0.042388916,-0.006298065,-0.0463562,0.055145264,0.014801025,0.0048065186,0.07208252,-0.012588501,-8.201599e-05,-0.0046691895,-0.019699097,-0.06188965,0.03805542,-0.048095703,-0.0064849854,0.01486969,0.041229248,-0.0021896362,0.010505676,0.034484863,0.006351471,0.006855011,-0.0062294006,0.027832031,-0.035064697,-0.0060768127,-0.0057640076,-0.039093018,-0.051574707,0.01838684,-0.014259338,-0.009353638,0.04812622,0.028015137,-0.020141602,-0.0031051636,0.030380249,-0.03353882,0.037139893,0.028533936,0.02998352,-0.022979736,0.026260376,-0.022094727,0.013923645,-0.014587402,-0.011131287,0.014595032,-0.0006508827,0.013053894,0.021942139,-0.036743164,0.0071640015,0.023513794,0.012161255,-0.017990112,-0.032226562,0.03845215,-0.060028076,-0.0012159348,-0.0011177063,-0.044921875,-0.037353516,-0.0012226105,-0.012588501,0.02935791,0.029586792,0.0035572052,0.017593384,0.047729492,0.044189453,0.0035800934,-0.045074463,0.02571106,-0.019622803,-0.04156494,-0.0073509216,0.004699707,-0.041778564,0.020355225,0.043121338,-0.024276733,0.032226562,0.009033203,0.024429321,0.029067993,-0.018447876,0.007286072,0.06549072,0.031707764,-0.014190674,-3.5107136e-05,0.0079574585,-0.0028514862,0.005558014,0.010688782,-0.018417358,0.018173218,-0.03250122,0.016418457,-0.03314209,-0.03149414,-0.08404541,0.04699707,-0.004875183,-0.02748108,-0.00970459,0.009269714,-0.01991272,-0.024429321,0.006061554,0.0006375313,0.0057258606,-0.0044403076,-0.03527832,-0.05630493,-0.06982422,-0.0026931763,-0.0090408325,0.010627747,0.0041122437,0.006275177,0.013656616,0.029434204,0.011978149,-0.013931274,-0.0385437,0.041656494,-0.016983032,-0.010971069,0.014793396,0.01838684,0.03741455,-0.043518066,-0.05227661,0.04437256,0.021896362,0.06365967,0.014427185,-0.06628418,0.049194336,0.05154419,-0.0340271,0.0049552917,0.001964569,-0.03060913,-0.016983032,0.023254395,-0.07116699,0.005645752,-0.039886475,-0.0574646,-0.013214111,-0.032226562,-0.0109939575,-0.024261475,-0.0049743652,-0.051849365,0.056030273,0.04135132,-0.04421997,-0.047088623,-0.0035037994,0.012580872,0.037353516,-0.013687134,0.008468628,-0.016311646,0.044006348,0.004852295,-0.028167725,0.013023376,0.024642944,-0.021072388,0.00087070465,0.03149414,-0.009017944,-0.007499695,0.0044784546,0.021865845,-0.035125732,-0.011749268,-0.017120361,0.0057754517,-0.026672363,-0.033203125,-0.028717041,-0.03378296,-0.05480957,-0.0033874512,-0.01902771,0.0231781,0.008293152,0.01512146,0.028945923,0.014190674,0.021575928,-0.031799316,-0.013114929,-0.023635864,-0.0010471344,-0.027526855,0.074035645,0.04852295,-0.053100586,0.0061912537,0.03967285,-0.01247406,0.0034885406,0.002796173,0.031173706,-0.02947998,-0.093688965,-0.008659363,-0.07458496,-0.050842285,-0.06341553,0.004878998,0.013801575,-0.015716553,0.029785156,-0.018478394,0.016174316,-0.042144775,0.009880066,0.08123779,0.0039901733,0.016906738,-0.0042152405,0.04168701,0.0034046173,-0.036987305,-0.0013408661,-0.027313232,-0.00217247,-0.019378662,0.037872314,-0.0020618439,0.03994751,-9.089708e-05,0.029464722,-0.03451538,0.066711426,0.041748047,-0.024429321,0.048828125,-0.01512146,-0.028518677,0.03665161,-0.0289917,-0.0063171387,-0.031219482,0.0026130676,-0.0052871704,0.037109375,-0.018310547,-0.028045654,0.011878967,-0.0025196075,-0.0035476685,-0.043518066,0.020385742,0.009552002,0.06488037,-0.03640747,0.04119873,-0.013809204,0.014457703,0.004623413,-0.093322754,0.010391235,0.009925842,0.04043579,0.0019798279,-0.007484436,0.017089844,-0.0031414032,-0.024459839,0.0039100647,-0.02796936,0.042663574,0.019454956,-0.04763794,-0.0073547363,-0.012535095,0.037139893,-0.0015077591,-0.023071289,-0.02330017,0.013206482,0.013771057,0.042266846,-0.009391785,0.012039185,0.017120361,0.04626465,-0.0028381348,-0.032440186,0.021865845,0.010543823,-0.0019454956,-0.002029419,-0.008216858,0.03665161,0.0010271072,0.014305115,-0.02961731,0.054656982,0.04473877,-0.02418518,0.04901123,-0.05670166,-0.008857727,-0.003446579,0.0069732666,-0.037902832,-0.05331421,0.0491333,-0.028427124,-0.026565552,3.8027763e-05,0.011657715,-0.020202637,-0.011398315,-0.010795593,-0.040222168,0.010353088,-0.00642395,0.05517578,0.025390625,0.11932373,-0.0011634827,0.060333252,0.01436615,0.006389618,0.016921997,-0.00017619133,0.013793945,-0.009567261,-0.0035190582,-0.033721924,-0.039001465,0.05895996,0.005519867,-0.007785797,-0.010475159,0.025009155,-0.09350586,-0.012512207,0.013519287,-0.01121521,0.013397217,-0.0074386597,-0.03189087,-0.025543213,-0.028045654,-0.0758667,-0.022857666,-0.0043907166,-0.06604004,-0.020080566,0.015991211,0.058135986,0.021865845,0.008758545,-0.037597656,-0.03012085,0.043273926,0.015205383,-0.020935059,-0.023269653,-0.00082731247,0.00969696,-0.017669678,-0.010025024,-0.02923584,-0.056488037,0.009437561,-0.024154663,0.01398468,0.041625977,0.03277588,0.02116394,-0.007007599,-0.023925781,0.012008667,-0.018310547,0.028884888,-0.039031982,-0.0058059692,-0.02268982,-0.027572632,0.02909851,0.027236938,-0.011779785,-0.013893127,-0.0063438416,0.0060806274,0.017105103,-0.0043678284,0.026779175,1.7404556e-05,0.012245178,0.047088623,-0.023635864,0.0625,0.009986877,0.012634277,0.06713867,-0.0096588135,0.024978638,-0.0024871826,-0.017593384,-0.03982544,-0.059020996,-0.05239868,-0.08380127,-0.027923584,0.050689697,-0.0043144226,-0.006000519,0.02104187,0.0033607483,0.005947113,0.0065231323,-0.0309906,-0.056121826,0.008239746,-0.0491333,-0.035736084,-0.01574707,-0.04901123,-0.003850937,-0.0005450249,0.0102005005,0.022232056,0.010986328,-0.0026245117,-0.020446777,-0.026947021,0.0368042,-0.009750366,-0.023391724,-0.005340576,0.054840088,0.010986328,0.007850647,0.04421997,0.0040740967,0.0236969,0.01689148,0.014701843,-0.017227173,-0.03237915,-0.024017334,-0.051513672,-0.0151901245,-0.022216797,-0.01953125,0.018447876,0.02003479,-0.02532959,0.007843018,-0.01109314,-0.0026664734,0.004814148,0.023025513,-0.055847168,0.013572693,-0.030853271,-0.006099701,0.022964478,-0.055755615,-0.04055786,-0.022354126,-0.021057129,-0.06213379,0.0065345764,0.027908325,0.015960693,-0.03555298,0.01550293,-0.029129028,0.04522705,0.009490967,-0.006690979,-0.0035305023,-0.016571045,0.027694702,0.02154541,-0.018981934,-0.055023193,0.023803711,-0.0385437,-0.00390625,0.026626587,0.02708435,-0.012512207,0.0010385513,0.010223389,-0.030410767,-0.042144775,0.06237793,0.0015306473,-0.024749756,-0.020690918,-0.030578613,0.011978149,-0.07824707,-0.017105103,0.0340271,0.0050315857,-0.016403198,0.0501709,-0.0069122314,-0.05303955,0.018920898,0.0234375,-0.01222229,0.023651123,0.027893066,-0.009391785,0.046325684,0.04171753,-0.014053345,0.035858154,-0.017593384,0.012458801,0.01864624,-0.004261017,0.07086182,0.010299683,-0.009849548,-0.010971069,0.0647583,0.032928467,0.01626587,0.025375366,-0.0077667236,-0.033325195,0.016220093,0.049682617,-0.02545166,-0.0067863464,0.016830444,-0.009140015,0.0129470825,-0.016708374,0.009529114,-0.04260254,-0.039367676,0.041534424,0.015060425,-0.005092621,0.017913818,-0.009384155,-0.01751709,-0.017547607,0.051971436,-0.004016876,-0.00617218,0.014251709,-0.004714966,-0.011817932,0.027114868,0.0022563934,-0.0055732727,0.026885986,-0.058502197,0.007637024,-0.01322937,0.05606079,0.049560547,-0.015541077,0.0045394897,0.054504395,-0.0052261353,0.022705078,-0.057647705,-0.07330322,0.043304443,0.014823914,-0.030807495,-0.030426025,-0.03286743,-0.03643799,-0.004486084,0.009338379,-0.013412476,-0.025512695,0.03967285,-0.02357483,0.018722534,-0.00020003319,-0.037475586,-0.03427124,-0.017120361,0.014419556,-0.01676941,-0.040008545,-0.023666382,0.0095825195,-0.024490356,-0.006462097,0.03463745,0.03237915,-0.006629944,0.007297516,0.012031555,0.0022220612,0.010475159,-0.019683838,0.031311035,0.078125,0.009712219,0.00869751,0.035705566,0.02746582,-0.023757935,-0.016693115,-0.06689453,0.064819336,0.001490593,-0.014183044,-0.022476196,0.012466431,-0.022109985,-0.0647583,0.03390503,0.025726318,0.011383057,0.043029785,0.04034424,0.035888672,0.033691406,0.0058517456,0.021240234,0.03048706,0.041229248,0.054840088,-0.017929077,0.03729248,-0.005973816,-0.05859375,0.051940918,0.00037407875,0.03262329,-0.0055732727,0.061920166,-0.0022773743,0.011543274,0.042053223,0.0047798157,-0.005279541,0.03074646,-0.03591919,-0.006816864,-0.019744873,0.032562256,-0.007156372,0.05291748,0.0154800415,0.037231445,0.033477783,0.015281677,0.035461426,-0.008285522,-0.02619934,0.008834839,0.008392334,-0.012802124,-0.005832672,-0.00016105175,0.025054932,-0.039093018,-0.004558563,-0.0022010803,-0.06097412,-0.010772705,0.0037784576,-0.0062217712,0.0027618408,-0.0513916,0.03189087,-0.017181396,0.0340271,-0.013961792,0.008956909,-0.031158447,-0.041046143,-0.044281006,-0.04159546,-0.062927246,0.041259766,0.000813961,0.0061569214,0.07269287,-0.017410278,-0.039764404,0.014381409,0.025497437,0.034606934,-0.0362854,-0.0047912598,-0.009735107,0.01512146,-0.035491943,-0.04425049,0.0084991455,-0.06210327,0.015602112,0.007637024,-0.03866577,-0.024749756,-0.044281006,-0.05480957,0.0059928894,0.013008118,-0.03717041,-0.031158447,-0.04232788,-0.0018138885,0.024246216,-0.024291992,-0.039794922,-0.045166016,0.06390381,-0.056427002,0.047790527,0.028717041,-0.028015137,-0.041137695,-0.06756592,-0.047607422,-0.038482666,0.00088739395,-0.022094727,0.042114258,0.0473938,-0.05895996,-0.052459717,-0.0016479492,0.0008997917,-0.010627747,0.02204895,0.032684326,0.023025513,-0.021148682,0.017456055,-0.036193848,-0.011787415,0.071899414,0.03616333,-0.038330078,0.004131317,-0.02645874,0.042236328,0.013572693,-0.038635254,-0.007282257,0.006000519,-0.05908203,-0.028076172,-0.0032691956,-0.009429932,0.03744507,-0.039855957,0.00037002563,0.019744873,-0.019302368,-0.00831604,-0.012016296,-0.00016081333,-0.0065574646,0.0072517395,-0.051940918,-0.012680054,0.036346436,0.0096588135,0.021987915,-0.046905518,0.051208496,0.027557373,-0.04534912,0.037628174,0.070617676,0.030319214,-0.04434204,0.0048828125,0.04373169,-0.02180481,-0.040222168,0.0110321045,-0.01020813,0.04711914,-0.029800415,0.013786316,0.027893066,-0.028030396,-0.008338928,-0.019592285,-0.025466919,-0.0017175674,-0.028152466,0.013320923,-0.02381897,-0.017105103
ThomasVitale/llm-apps-java-langchain4j,-0.043060303,-0.039794922,-0.05899048,-0.035736084,-0.06304932,-0.002576828,-0.05947876,0.06286621,-0.045196533,0.04562378,-0.01876831,0.03048706,-0.007774353,-0.023757935,0.03918457,-0.020812988,0.00075912476,0.01676941,-0.0039405823,-0.008628845,0.0049362183,0.0030765533,-0.018966675,-0.015625,0.039276123,0.02420044,-0.038757324,-0.017074585,0.022720337,-0.005382538,-0.0060043335,-0.008110046,0.023208618,0.01499939,-0.009002686,0.07348633,-0.032470703,0.022125244,0.009689331,-7.748604e-06,0.058746338,-0.035003662,0.010116577,0.0027580261,-0.020584106,-0.010009766,0.07110596,0.027664185,-0.010154724,-0.04348755,-0.009628296,-0.0020713806,0.0025939941,0.008468628,-0.016342163,0.0034542084,0.008651733,-0.0011835098,0.0038528442,-0.015960693,-0.018814087,0.022323608,0.02432251,0.026672363,0.0096206665,0.013084412,-0.062408447,0.0064582825,0.0259552,0.034057617,-0.0018825531,-0.05569458,0.0045547485,-0.0635376,0.054016113,-0.004486084,-0.0042686462,0.01525116,-0.009880066,0.03338623,0.029083252,0.04815674,0.0052375793,-0.013626099,0.015640259,-0.018493652,0.0029506683,-0.01878357,0.01838684,-0.04006958,-0.017730713,0.03604126,0.005542755,0.034362793,-0.023101807,-0.037200928,-0.011932373,0.006298065,0.0058784485,-0.043029785,-0.0058517456,0.0008420944,-0.057373047,0.011421204,-0.03012085,-0.004070282,0.014640808,0.08496094,0.017105103,0.030471802,-0.030136108,-0.028121948,0.048858643,0.019943237,-0.020446777,-0.039855957,-0.012145996,0.04144287,0.014816284,0.008392334,-0.0017261505,0.024597168,-0.0064468384,0.009384155,0.008972168,0.016494751,0.0050354004,-0.005706787,0.06628418,-0.020996094,-0.01789856,0.05847168,-0.055786133,-0.080566406,-0.056488037,0.018829346,-0.0031471252,-0.015144348,-0.0119018555,-0.007881165,0.013450623,0.004611969,0.035125732,0.0061950684,-0.032226562,0.017562866,0.028961182,0.013496399,-0.04638672,-0.049346924,0.012023926,-0.019348145,-0.012298584,0.022232056,0.029922485,-0.004589081,0.015426636,-0.028945923,0.04498291,0.018173218,0.02168274,0.019454956,0.0178833,-0.03475952,-0.025909424,-0.051879883,-0.048339844,6.109476e-05,0.016479492,0.060668945,-0.014389038,-0.028701782,0.012245178,0.023330688,-0.007194519,0.034362793,-0.027511597,-0.016143799,0.03869629,-0.0054740906,-0.0043754578,-0.018600464,-0.010177612,0.053863525,0.011489868,-0.020629883,0.019485474,0.0126953125,0.028289795,0.029342651,-0.030426025,-0.00016379356,-0.0004963875,0.015655518,0.0026474,-0.04611206,0.013122559,-0.009140015,-0.0071792603,0.013168335,0.0028705597,0.005722046,0.0146102905,-0.0013170242,0.08734131,-0.040649414,0.048858643,-0.022583008,0.017868042,0.033966064,-0.014984131,0.016830444,-0.011039734,-0.022369385,-0.034729004,-0.012252808,0.014533997,-0.059783936,-0.010894775,-0.047790527,0.011741638,0.034179688,-0.028793335,0.070129395,-0.021347046,0.02961731,-0.01272583,0.018325806,-0.018875122,0.046936035,-0.018997192,-0.0357666,0.05618286,0.026275635,-0.051605225,-0.019317627,0.026611328,-0.025756836,0.021087646,0.044677734,0.015960693,-0.011009216,-0.009986877,0.009590149,0.028335571,0.015960693,0.02279663,0.01184082,0.010948181,0.027435303,-0.023422241,-0.014862061,0.027633667,-0.017181396,-0.009002686,0.066589355,-0.01902771,0.003824234,-0.0010852814,0.029953003,-0.015266418,0.006958008,0.029174805,-0.023117065,-0.020324707,0.016937256,-0.004184723,0.018936157,-0.033294678,0.013725281,0.026748657,0.0038051605,0.011528015,-0.0029354095,-0.053863525,-0.020324707,0.0030441284,0.007522583,-0.023376465,-0.023498535,0.032409668,0.013801575,0.08428955,0.0031166077,0.030349731,0.022155762,0.034851074,0.033843994,0.034820557,0.01689148,0.03955078,0.02722168,-0.00018799305,0.020553589,-0.0006084442,-0.007987976,0.01486969,0.08538818,-0.016921997,0.013832092,-0.06088257,-0.004890442,-0.029403687,-0.0027275085,0.0090789795,-0.009231567,0.014862061,-0.0010681152,-0.01134491,0.01776123,-0.06768799,0.01247406,0.027832031,-0.011482239,0.041107178,0.0020751953,-0.018875122,0.005290985,-0.07287598,-0.0725708,0.022766113,-0.041229248,0.025009155,0.011634827,-0.001739502,-0.028060913,0.039794922,0.004360199,0.021972656,-0.024230957,-0.031585693,-0.033172607,-0.036621094,0.033233643,0.0010404587,-0.005558014,0.018829346,0.044677734,-0.008087158,-0.07922363,-0.033813477,-0.0541687,-0.021865845,0.004009247,0.023345947,-0.02015686,-0.016067505,0.006313324,0.00957489,0.0055618286,-0.01675415,0.0013570786,0.013381958,0.022842407,0.03857422,-0.07965088,-0.03945923,-0.00032687187,-0.05847168,-0.049591064,0.043395996,-0.004547119,0.013694763,-0.0121536255,-0.054229736,-0.024551392,-0.0057640076,0.017364502,0.009735107,0.019958496,-0.0836792,0.03375244,0.002216339,0.001789093,0.002521515,0.042266846,0.034454346,-0.045013428,-0.033721924,-0.0050582886,0.0010566711,0.016418457,-0.005039215,0.008071899,0.011116028,0.01876831,0.0024700165,0.0034446716,0.037506104,0.0065345764,-0.0011720657,0.019317627,0.008926392,-0.022537231,0.02357483,-0.014755249,0.010215759,0.06677246,-0.07006836,0.0073280334,0.036346436,-0.033111572,-0.0038967133,-0.0067214966,-0.02482605,-0.00415802,-0.011398315,0.013618469,0.05239868,-0.014518738,0.01335144,-0.022445679,0.054595947,-0.08111572,-0.009170532,0.004852295,-0.07312012,-0.005882263,-0.052612305,0.08203125,0.03845215,-0.05795288,-0.002243042,0.028213501,-0.06817627,0.020889282,-0.02784729,0.05029297,-0.05026245,-0.015823364,-0.018569946,-0.030532837,-0.022750854,-0.048065186,0.01499176,-0.010147095,-0.05609131,-0.029129028,-0.038208008,-0.016906738,0.03100586,0.017822266,0.014442444,-0.020858765,-0.038116455,0.000119924545,0.047332764,0.05783081,-0.0340271,0.005722046,-0.022033691,0.017547607,0.007972717,0.03778076,-0.0010766983,-0.005382538,-0.029067993,0.03540039,-0.0042762756,0.011024475,0.013702393,-0.023925781,0.0064048767,-0.0018348694,-0.04876709,0.036193848,-0.0012102127,0.032165527,-0.028625488,-0.0053863525,0.04171753,1.8239021e-05,-0.018310547,-0.009178162,0.00012946129,-0.02520752,-0.0006804466,0.0178833,-0.008834839,0.002708435,-0.0038986206,0.017974854,-0.023971558,-0.023040771,-0.019165039,-0.0012187958,-0.06945801,-0.03466797,0.005897522,-0.0048217773,-0.029129028,-0.0116119385,-0.0029659271,0.012619019,-0.013015747,0.015045166,-0.013702393,0.033325195,0.02923584,-0.020507812,0.017349243,-0.029037476,-0.041137695,-0.019989014,-0.036071777,-0.029083252,0.034362793,-0.009819031,0.022857666,-0.0017194748,0.029037476,-0.012161255,0.025619507,0.014892578,-0.013412476,0.061676025,0.02671814,-0.0129852295,0.030029297,-0.013084412,0.07489014,0.035705566,0.017211914,-0.0054512024,0.04168701,0.01725769,-0.0039749146,-0.007987976,-0.027938843,-0.03955078,0.00031232834,0.018081665,-0.008018494,-0.0043144226,0.009757996,-0.009048462,-0.014015198,-0.06750488,-0.027908325,0.01687622,0.0047721863,-0.0211792,-0.053344727,0.019073486,-0.01008606,-0.010261536,0.020996094,0.08215332,0.0057411194,0.029083252,0.041107178,0.03503418,-0.016159058,0.0256958,-0.01574707,-0.08178711,-0.07116699,0.031829834,-0.021377563,-0.012306213,0.010429382,-0.015403748,-0.0039596558,0.04360962,0.0028095245,0.020095825,-0.030471802,-0.0625,0.035980225,-0.019973755,-0.0340271,-0.035583496,-0.11035156,-0.00969696,-0.010368347,0.06451416,0.007881165,0.03250122,-0.02519226,-0.033966064,0.040863037,-0.020446777,-0.0055122375,0.033111572,0.043060303,0.06903076,-0.06518555,0.06427002,-0.0064697266,-0.01309967,-0.08520508,-0.005077362,-0.036010742,-0.05706787,0.004398346,0.02633667,0.0030288696,0.023895264,0.0050239563,0.008865356,-0.028060913,-0.031921387,-0.01914978,-0.014816284,0.11090088,-0.022506714,0.009483337,-0.007194519,-0.014335632,0.03668213,0.012832642,-0.008216858,-0.019607544,-0.009651184,-0.02217102,0.034851074,0.053100586,-0.020889282,-0.012550354,-0.03567505,0.01373291,0.0045394897,0.05041504,0.041137695,-0.029891968,-0.037322998,0.039367676,-0.0075302124,-0.018508911,-0.011619568,-0.0058059692,-0.01309967,0.00054740906,0.021270752,0.042022705,-0.034179688,-0.0051841736,-0.017730713,-0.019973755,0.025054932,0.015029907,0.014930725,-0.0025367737,-0.061676025,0.084472656,-0.024124146,-0.038085938,0.035827637,-0.015159607,-0.013679504,-0.0859375,-0.018707275,0.02432251,0.0013132095,-0.010124207,-0.009284973,-0.03289795,0.019805908,-0.016677856,0.0057029724,0.011871338,0.06060791,-0.01763916,0.035247803,0.031829834,0.016784668,-0.008522034,0.026351929,-0.0021877289,-0.010650635,0.0055999756,-0.06365967,-0.028335571,-0.0007405281,0.0206604,-0.03744507,-0.0021572113,0.003993988,-0.036315918,-0.008796692,-0.0042533875,0.02407837,0.04232788,-0.006000519,-0.034484863,0.025802612,-0.0026302338,-0.016281128,-0.036132812,-0.056762695,-0.040222168,0.042419434,-0.053100586,0.01058197,0.026000977,-0.016067505,-0.04989624,-0.022201538,0.04849243,0.027877808,0.035980225,-0.020095825,-0.027679443,-0.048065186,-0.0034675598,-0.020614624,-0.05130005,0.020950317,-0.01927185,0.023132324,-0.0028057098,0.0069122314,0.005214691,0.016036987,-0.056427002,-0.03100586,-0.028762817,-0.0046539307,-0.018722534,0.07537842,-0.014801025,-0.04486084,-0.06512451,0.0030097961,0.011543274,-0.06890869,-0.05593872,0.02029419,-0.0009083748,0.035827637,0.004245758,0.027130127,-0.0043296814,-0.0116119385,0.019042969,-0.062683105,0.02418518,0.020523071,0.009025574,-0.04449463,0.0020103455,-0.019577026,0.053741455,0.0030517578,-0.014572144,0.013824463,0.0019512177,0.023483276,0.0031394958,-0.0074653625,0.029968262,0.0010995865,-0.046142578,0.020477295,0.008888245,-0.011276245,-0.004512787,0.044006348,-0.03338623,-0.0050735474,-0.051635742,-0.009086609,0.0022335052,0.042541504,-0.023712158,0.03781128,-0.023956299,0.015960693,-0.0017547607,-0.0038490295,-0.022262573,-0.011459351,-0.034698486,-0.0317688,0.054504395,0.0256958,0.025268555,0.012786865,0.0079422,-0.025421143,-0.015579224,-0.019470215,-0.0011377335,0.020370483,0.012542725,0.0070648193,-0.007259369,0.011039734,-0.018554688,0.0005607605,-0.041931152,0.022750854,0.011741638,0.03842163,0.044555664,0.025665283,-0.008033752,0.017440796,0.026000977,-0.01966858,-0.025115967,-0.019348145,-0.034606934,-0.0124053955,0.0001988411,-0.05633545,0.029968262,0.017623901,-0.006931305,-0.02204895,0.0049705505,-0.049682617,-0.025726318,-0.026153564,-0.012023926,0.0020751953,-0.037139893,-0.017654419,0.005443573,-0.057800293,0.022323608,0.042541504,0.010902405,-0.017181396,0.013282776,0.014007568,0.028808594,-0.019592285,-0.04434204,0.003873825,0.0635376,-0.010528564,-0.032348633,0.0019683838,0.0067481995,-0.012138367,-0.022491455,-0.025939941,0.03213501,-0.0110321045,0.033966064,-0.014770508,0.011932373,0.025619507,-0.07397461,0.015945435,0.044708252,0.001124382,0.020309448,0.04071045,0.011161804,0.0014448166,0.011405945,-0.017944336,0.006717682,0.03768921,0.051574707,-0.024734497,-0.0073280334,-0.017700195,-0.033081055,0.035827637,0.062927246,0.021270752,0.027832031,0.045928955,-0.0010671616,0.0044136047,0.0042533875,-0.009803772,0.004310608,0.04714966,0.019546509,-0.031463623,-0.030426025,0.038513184,-0.025970459,0.029006958,-0.016281128,0.044555664,0.030807495,0.050750732,0.035736084,-0.021820068,-0.010414124,0.07318115,-0.0317688,-0.006088257,0.021621704,0.0020828247,-0.020553589,-0.0385437,-0.0055007935,-0.004989624,-0.043701172,-0.029876709,-0.04736328,0.03366089,-0.038238525,0.024719238,-0.049560547,-0.023773193,-0.00022637844,-0.016357422,-0.0077438354,-0.003484726,0.008644104,-0.010726929,0.0138549805,-0.031341553,0.0043296814,-0.0059661865,0.0062408447,0.01751709,-0.04660034,-0.035003662,0.014442444,0.061431885,0.04724121,0.059692383,-0.0011138916,0.01159668,0.0024147034,-0.03665161,-0.029876709,0.013450623,-0.037139893,0.0038089752,0.00060653687,-0.02758789,0.009750366,-0.04473877,-0.13378906,0.049346924,-0.03451538,-0.053009033,-0.02368164,0.009864807,0.021469116,-0.04711914,-0.011199951,-0.019714355,-0.017105103,-0.00052309036,-0.04473877,0.068847656,0.0012817383,-0.018981934,-0.02696228,-0.031677246,-0.05657959,-0.02130127,0.0011091232,0.011390686,-0.006664276,0.07171631,-0.0069732666,-0.06414795,-0.024932861,-0.06161499,0.0006971359,0.0048561096,-0.00025820732,-0.008285522,-0.019348145,0.0004389286,0.0050086975,0.015541077,0.08862305,0.019546509,-0.03074646,0.044281006,-0.021240234,0.06161499,0.012611389,0.017715454,-0.009208679,-0.0146484375,0.002620697,-0.019805908,-0.012458801,0.03768921,-0.020751953,0.0050315857,0.047790527,0.012001038,-0.01977539,0.0289917,-0.013832092,-0.01096344,0.033416748,0.0209198,-0.021743774,-0.013938904,0.023361206,0.053588867,0.00042176247,0.012939453,-0.025482178,0.017044067,-0.032226562,0.074401855,0.05303955,0.0692749,-0.056793213,0.046936035,0.050628662,-0.019058228,-0.0053901672,0.0015983582,0.0014944077,-0.0026855469,-0.027618408,0.012084961,0.02078247,-0.034820557,0.0072631836,0.0037631989,-0.057769775,-0.025344849,-0.020858765,0.03878784,-0.01600647,0.012702942
ThomasVitale/llm-apps-java-spring-ai,-0.025527954,-0.02420044,-0.072265625,-0.040893555,-0.05090332,-0.025802612,-0.0647583,0.058380127,-0.040649414,0.04522705,0.010879517,0.024917603,0.004173279,-0.03967285,0.035736084,-0.011009216,-0.011993408,0.029724121,-0.012260437,-0.009384155,0.0033855438,-0.001947403,-0.036193848,-0.038635254,0.040893555,0.034118652,-0.059448242,-0.01007843,0.026550293,0.0013408661,-0.0020179749,-0.0065307617,0.034118652,0.0053901672,-0.009033203,0.05380249,-0.023849487,0.008468628,0.015930176,-0.011512756,0.048431396,-0.027175903,-0.005039215,0.008285522,-0.039642334,-0.024139404,0.06530762,0.04095459,0.0077552795,-0.041137695,-0.006374359,-0.017196655,0.01826477,-0.030822754,-0.02508545,-0.009475708,0.014892578,-0.02420044,0.012214661,0.006095886,-0.019577026,-0.007698059,0.022537231,-0.017105103,0.016571045,0.007534027,-0.051239014,0.010772705,0.030792236,0.04751587,0.001616478,-0.050872803,0.00484848,-0.036499023,0.036132812,0.006160736,-0.007671356,0.04168701,0.0154418945,0.00819397,0.018005371,0.02381897,-0.004737854,-0.028396606,0.03164673,-0.022964478,-0.00024068356,-0.0052108765,0.003534317,-0.023223877,-0.020095825,0.030563354,-0.016143799,0.059295654,-0.015258789,-0.0032081604,0.0034732819,0.018310547,0.02357483,-0.04638672,0.0152282715,-0.020584106,-0.031585693,-0.0016736984,-0.034210205,-0.022323608,0.044799805,0.07849121,0.013252258,0.0138168335,-0.058654785,0.005710602,0.05606079,0.024734497,-0.043762207,-0.052368164,8.7201595e-05,0.03894043,0.010826111,0.009025574,0.00022757053,0.01576233,0.0007843971,0.012969971,-0.012817383,0.008361816,0.004688263,-0.01651001,0.066345215,-0.008796692,-0.025787354,0.06628418,-0.057373047,-0.096069336,-0.06384277,0.0079956055,-0.020736694,-0.020187378,-0.012016296,-0.012901306,0.028274536,-0.0056152344,0.035217285,0.012237549,-0.024841309,-1.4901161e-05,0.021331787,0.036010742,-0.030197144,-0.04901123,0.038757324,-0.032836914,-0.020828247,0.015106201,0.056884766,0.021575928,0.018432617,-0.014350891,0.01953125,0.026855469,0.018417358,0.0013313293,0.02671814,-0.0066719055,-0.023101807,-0.021148682,-0.055633545,0.00073194504,0.018661499,0.058898926,-0.012741089,-0.020431519,-0.0015001297,0.031234741,0.007385254,0.028945923,-0.027191162,-0.047546387,0.042510986,0.0037384033,-0.0181427,-0.010139465,-0.0017967224,0.03451538,-0.0096588135,-0.024658203,0.019317627,0.023025513,0.026824951,0.02180481,0.01033783,-0.008811951,0.0015029907,0.0059051514,0.0011396408,-0.043945312,0.0020980835,-0.010047913,-0.0096588135,0.0067634583,-0.0055389404,0.015640259,-0.0014762878,-0.001950264,0.029724121,-0.024108887,0.024459839,-0.00077342987,0.008377075,0.039001465,-0.013710022,0.004398346,-0.003419876,-0.03314209,-0.03326416,-0.010177612,0.003255844,-0.049743652,-0.01486969,-0.034851074,0.0049438477,0.011688232,-0.029403687,0.057678223,-0.019439697,0.028717041,-0.008453369,0.018981934,0.00944519,0.042999268,0.0026550293,-0.050628662,0.038482666,0.028839111,-0.034423828,-0.028442383,0.016418457,-0.049713135,0.032226562,0.041107178,0.008255005,-0.010055542,0.010673523,0.037475586,-0.005268097,-0.013244629,0.028076172,0.0051498413,0.00041532516,0.029129028,-0.010620117,-0.0008225441,0.009422302,0.010566711,-0.005886078,0.037963867,-0.024536133,0.010437012,0.006980896,0.02935791,-0.011833191,0.024261475,0.03591919,-0.0058784485,-0.021865845,0.00712204,-0.02305603,-0.006790161,-0.021194458,0.017410278,0.025405884,-0.031982422,0.0047302246,0.007247925,-0.034729004,-0.041656494,-0.015304565,0.020187378,-0.0390625,-0.02041626,0.015205383,0.010093689,0.058502197,-0.005393982,0.029571533,0.026901245,0.02809143,0.013221741,0.012321472,0.027069092,0.050964355,0.018051147,-0.018936157,0.021240234,-0.0045433044,-0.009140015,0.0042533875,0.082336426,-0.015945435,0.011917114,-0.060638428,-0.005874634,-0.017562866,-0.0070877075,0.004714966,-0.027832031,-0.003479004,0.00030064583,-0.0104522705,-0.007419586,-0.04727173,0.031799316,0.030258179,-0.0027065277,0.030548096,0.0041236877,-0.03149414,0.011482239,-0.053253174,-0.044647217,0.006958008,-0.023880005,0.019256592,0.014442444,0.0012369156,-0.020523071,0.027923584,0.0037002563,0.013130188,-0.030029297,-0.015792847,-0.039794922,-0.030288696,0.036132812,0.0158844,-5.942583e-05,0.017562866,0.050445557,0.015426636,-0.05432129,-0.012413025,-0.04626465,-0.03111267,-0.0018692017,0.015403748,-0.010688782,-0.025115967,0.0048446655,0.01158905,0.0038757324,-0.011909485,0.017181396,0.024658203,0.02772522,0.036071777,-0.056640625,-0.02507019,0.018325806,-0.03970337,-0.03805542,0.03768921,-0.037322998,0.00034737587,0.008934021,-0.030288696,-0.0016002655,-0.011436462,0.017105103,0.014213562,0.00289917,-0.068237305,0.02519226,0.008056641,0.00995636,0.019454956,0.038146973,-0.0027313232,-0.07110596,0.0030345917,-0.015640259,-0.029342651,-0.014038086,0.011428833,0.017089844,0.04034424,0.018753052,0.0121154785,0.011703491,0.045318604,0.011871338,-0.024291992,-0.015052795,0.0013961792,-0.028396606,0.022857666,-0.01928711,0.005882263,0.08203125,-0.06097412,0.011054993,0.011116028,-0.0013122559,-0.00434494,0.015792847,-0.022964478,0.02470398,0.002439499,-0.0053253174,0.053100586,-0.020187378,-0.01184082,-0.008903503,0.039001465,-0.07318115,-0.0054092407,0.00036621094,-0.06506348,-0.020050049,-0.023483276,0.083984375,0.027511597,-0.05255127,-0.0029182434,0.03817749,-0.05758667,0.040252686,-0.036834717,0.035339355,-0.033813477,-0.011543274,-0.019454956,-0.024810791,-0.009895325,-0.03717041,-0.0017089844,-0.010627747,-0.050811768,-0.013618469,-0.025909424,-0.019760132,0.032928467,0.007972717,-0.0070114136,-0.029830933,-0.034057617,-0.0140686035,0.033996582,0.05834961,-0.056396484,-0.009498596,-0.018066406,0.03567505,0.009407043,0.03933716,0.01802063,-0.016036987,-0.061187744,0.031463623,-0.0045204163,0.015464783,0.030227661,-0.009147644,-0.0009379387,-0.0058517456,-0.05493164,0.041992188,-0.0095825195,0.026168823,-0.028381348,0.00019156933,0.019485474,0.02607727,-0.025146484,-0.0018053055,-0.0034103394,-0.03604126,0.0012722015,0.029144287,-0.006259918,-0.01134491,-0.021514893,0.018966675,-0.06915283,-0.0181427,-0.019760132,-0.009674072,-0.056030273,-0.057006836,0.00844574,-0.012687683,-0.05166626,-0.024612427,0.0138549805,-0.019866943,-0.01411438,0.04159546,-0.013832092,0.01789856,0.020507812,-0.02078247,-0.00409317,-0.027435303,-0.05117798,-0.019104004,-0.04473877,-0.02835083,0.047912598,-0.02268982,0.03704834,-0.011741638,0.0317688,-0.017562866,0.03265381,0.017349243,-0.00869751,0.038879395,0.046936035,-0.00068712234,0.03488159,-0.009376526,0.057495117,0.031402588,0.018325806,-0.0062332153,0.055389404,0.0149002075,-0.0021800995,0.0024967194,-0.012710571,-0.052978516,0.024261475,0.0023784637,-0.00881958,0.012184143,-0.00484848,0.003709793,-0.021728516,-0.041290283,0.004081726,0.0055732727,0.0043525696,0.0017633438,-0.037628174,0.022109985,-0.0008072853,0.0044937134,0.014839172,0.08929443,0.011520386,0.031234741,0.031341553,0.014930725,-0.039916992,0.013145447,-0.0024108887,-0.09277344,-0.082458496,0.03387451,-0.019088745,-0.024154663,0.016448975,-0.024932861,-0.006855011,0.033111572,0.020004272,0.017929077,-0.016433716,-0.0692749,0.05307007,-0.013549805,-0.05987549,-0.04196167,-0.12854004,-0.012435913,-0.017120361,0.059020996,-0.0024871826,0.019805908,-0.032043457,-0.032989502,0.03161621,-0.0121154785,0.0003039837,0.01586914,0.016067505,0.06311035,-0.03994751,0.058807373,-0.010055542,-0.003025055,-0.0713501,0.0008792877,-0.03866577,-0.053253174,0.008575439,0.031921387,0.0048332214,0.018829346,-0.0022525787,0.012535095,-0.019927979,-0.03918457,-0.018356323,-0.022949219,0.105651855,-0.040527344,0.020233154,-0.021942139,-0.012763977,0.034179688,0.006088257,-0.0061187744,-0.009498596,-0.006866455,-0.01701355,0.030761719,0.018569946,0.012184143,0.017410278,-0.040100098,0.02720642,0.0059013367,0.028396606,0.05380249,-0.029144287,-0.010749817,0.019317627,-0.009269714,-0.025878906,-0.008224487,-0.011634827,-0.014930725,-0.009048462,0.018600464,0.03765869,-0.014785767,-0.008346558,-0.008529663,-0.016036987,-0.00015950203,0.017318726,0.008300781,-0.0048446655,-0.06976318,0.059692383,-0.02809143,-0.044311523,0.02571106,-0.010887146,-0.008033752,-0.070739746,-0.0044898987,0.017288208,0.014976501,-0.017288208,0.016159058,-0.031066895,0.006401062,-0.008140564,-0.0013189316,0.031341553,0.07373047,-0.041900635,0.061920166,0.041381836,0.029556274,-0.0004003048,0.025436401,0.012519836,-0.029922485,0.005970001,-0.057128906,-0.04385376,-0.0021038055,0.009292603,-0.010322571,-0.011787415,0.013046265,-0.03604126,-0.0028457642,0.008255005,0.059936523,0.043762207,-0.015701294,-0.029403687,0.046691895,-0.014663696,-0.02645874,-0.037872314,-0.072753906,-0.051452637,0.028869629,-0.054351807,-0.018478394,0.030914307,-0.025543213,-0.06549072,-0.034973145,0.061431885,0.04034424,0.02720642,-0.02848816,-0.016403198,-0.055145264,-0.003742218,-0.027404785,-0.035064697,-0.002067566,-0.00573349,0.026824951,-0.0033569336,0.0010614395,-0.0026569366,0.011299133,-0.05496216,-0.021133423,-0.03970337,-0.012161255,-0.00920105,0.0692749,-0.010887146,-0.04434204,-0.060058594,0.0006327629,0.018707275,-0.053009033,-0.054229736,0.019958496,-0.009284973,0.019485474,0.017913818,0.025787354,0.009811401,-0.006454468,0.0067214966,-0.059448242,0.033599854,-0.00068187714,0.00027394295,-0.01979065,0.013496399,-0.009780884,0.049560547,0.011665344,-0.041229248,0.0234375,-0.0047187805,0.018127441,-0.008224487,-0.024612427,0.015052795,0.03326416,-0.040863037,0.0069007874,0.007762909,-0.031188965,-0.0028705597,0.03878784,-0.021865845,-0.0034751892,-0.053833008,-0.010360718,0.003753662,0.03640747,-0.0017290115,0.043884277,-0.029067993,0.004875183,-0.012207031,0.009284973,-0.022384644,0.00340271,-0.030334473,-0.037261963,0.039794922,0.033966064,0.010566711,0.030258179,0.013206482,0.0056610107,-0.021774292,0.02658081,-0.024536133,0.008995056,-0.009880066,0.019302368,0.00217247,0.026489258,-0.010307312,0.00907135,-0.03062439,0.029968262,0.029067993,0.029953003,0.025726318,0.017044067,0.0103302,0.029907227,0.048034668,-0.014785767,-0.006252289,-0.042266846,-0.040374756,-0.036376953,-0.0149383545,-0.054534912,0.021575928,-0.001830101,-0.0256958,-0.01424408,-0.0004696846,-0.049713135,-0.036621094,-0.035217285,-0.008872986,-0.0027751923,-0.030776978,-0.024734497,0.038604736,-0.05682373,-0.0017595291,0.043762207,0.009002686,-0.020584106,0.00052928925,0.010978699,0.048431396,-0.028259277,-0.048736572,0.0084991455,0.057891846,-0.0154800415,-0.04208374,-0.005039215,0.010917664,-0.005809784,-0.038513184,-0.015808105,0.026306152,-0.013824463,0.023895264,-0.04449463,0.028640747,0.04043579,-0.082092285,0.03665161,0.032409668,-0.022460938,0.0029945374,0.05117798,0.011787415,0.0065612793,0.00027537346,0.0065078735,0.0027446747,0.038269043,0.066833496,-0.02859497,0.0027561188,-0.029769897,-0.039276123,0.048950195,0.04434204,0.005935669,0.024215698,0.054382324,0.0031490326,-0.002105713,-0.003850937,-0.010498047,0.0090408325,0.05621338,0.033416748,-0.034484863,-0.036499023,0.051208496,-0.03250122,0.025619507,-0.016281128,0.044158936,0.05709839,0.060821533,0.03994751,-0.024978638,-0.019134521,0.09210205,-0.025009155,-0.0017185211,0.018463135,7.492304e-05,-0.029968262,-0.045288086,0.0036067963,-0.021636963,-0.015991211,-0.027648926,-0.02999878,0.032226562,-0.04852295,0.02696228,-0.044067383,-0.03277588,0.020690918,-0.013534546,-0.047790527,0.0017080307,-0.010391235,-0.014785767,0.010887146,-0.05706787,-0.011924744,-0.015777588,0.022583008,0.044952393,-0.05218506,-0.043640137,0.012084961,0.060546875,0.057891846,0.076171875,-0.008995056,0.015777588,0.0034103394,-0.012321472,-0.026351929,-0.010307312,-0.009925842,0.0042648315,0.020889282,-0.025421143,-0.0026931763,-0.039031982,-0.1262207,0.0625,-0.022155762,-0.052978516,-0.03564453,0.005302429,0.017227173,-0.044525146,-0.022537231,-0.017181396,-0.0178833,0.010246277,-0.031402588,0.052459717,0.016296387,-0.012489319,-0.027648926,-0.02130127,-0.04244995,-0.018493652,-0.0009860992,0.002811432,-0.016235352,0.056640625,-0.03225708,-0.08404541,-0.03704834,-0.023468018,-0.009269714,-0.015174866,0.0076560974,-0.012611389,-0.020935059,-2.348423e-05,-0.0038280487,0.006362915,0.06866455,0.03353882,-0.011940002,0.057403564,-0.024887085,0.06335449,0.010650635,0.0026760101,-0.015327454,-0.0118637085,0.01574707,-0.013755798,-0.0045204163,0.05178833,-0.018051147,-0.004108429,0.06365967,0.028411865,-0.0289917,0.027664185,-0.002714157,-0.029144287,0.03768921,0.040130615,-0.02166748,-0.015083313,0.006717682,0.040496826,0.0024662018,0.009979248,-0.016967773,0.01360321,-0.03942871,0.06738281,0.06414795,0.07495117,-0.066467285,0.022201538,0.056549072,-0.058746338,-0.034179688,0.005870819,-0.012886047,-0.009590149,-0.016738892,0.026443481,0.03970337,-0.011436462,0.009635925,-0.0005235672,-0.05871582,-0.027496338,-0.01260376,0.03250122,-0.016616821,0.017623901
JustAlittleWolf/ModDetectionPreventer,0.04953003,-0.015335083,0.012825012,-0.027755737,-0.038269043,-0.013031006,-0.00073862076,-0.0031585693,-0.0051116943,0.03717041,-0.011489868,-0.040985107,-0.0011701584,-0.044006348,-0.013916016,-0.05407715,0.0022697449,-0.004348755,0.012779236,-0.011772156,0.013191223,-0.010864258,0.028366089,-0.059570312,0.012756348,0.036071777,-0.016403198,-0.028778076,0.007873535,-0.02659607,0.0061073303,0.0019102097,0.044433594,-0.016677856,-0.02357483,-0.041534424,0.022064209,-0.038879395,-0.028442383,0.02935791,0.022613525,-0.018722534,-0.0035858154,0.0048103333,-0.025894165,-0.023284912,0.03112793,-0.021713257,0.04043579,-0.030426025,-0.041015625,0.021850586,-0.02947998,-0.018615723,-0.01473999,0.008110046,-0.038330078,0.046813965,0.015464783,0.0024528503,-0.011260986,0.012023926,0.007259369,-0.016647339,-0.0035381317,-0.032043457,0.003501892,0.013786316,-0.046722412,-0.040161133,0.04800415,-0.030563354,0.0068244934,-0.012413025,0.0039787292,-0.02734375,-0.0011425018,-0.0019741058,0.00023055077,-0.014434814,0.0017814636,0.012290955,-0.030136108,0.011764526,0.007751465,0.036468506,-0.01374054,-0.026916504,0.04522705,-0.04498291,-0.01348114,0.08514404,0.020446777,0.010040283,-0.04534912,-0.046295166,0.042175293,0.01134491,-0.00056934357,-0.0064468384,-0.022842407,-0.014175415,0.0008511543,-0.0041656494,-0.00920105,-0.018585205,0.03643799,0.05316162,0.029724121,0.019927979,-0.038391113,0.070129395,0.026535034,0.022232056,-0.012359619,-0.0112838745,-0.012634277,0.021957397,-0.015075684,-0.0036830902,-0.016784668,0.0038776398,-0.03277588,0.012191772,-0.026733398,-0.03591919,0.01007843,0.018798828,0.08685303,-0.015945435,-0.05041504,0.050994873,-0.041931152,-0.07269287,-0.03161621,-0.0051193237,-0.04650879,-0.028320312,-0.005340576,-0.04840088,0.021697998,0.010406494,0.05923462,-0.009140015,-0.031036377,-0.015235901,0.0028591156,0.04940796,0.02607727,-0.033843994,0.03277588,-0.013404846,-0.004272461,0.056427002,0.01889038,0.059020996,0.0491333,-0.0035152435,0.0008625984,0.015304565,0.031677246,-0.002374649,0.02659607,-0.014305115,-0.03515625,-0.006587982,-0.059448242,-0.013877869,0.022750854,0.08654785,0.015930176,-0.033843994,-0.040283203,0.022079468,-0.0077209473,-0.000100672245,-0.05807495,0.0029888153,0.014587402,-0.0018672943,0.022216797,-0.024337769,-0.044433594,0.07397461,-0.019485474,-0.033813477,0.02998352,0.03781128,0.0073928833,0.005836487,0.039215088,0.018951416,-0.021270752,-0.010955811,-0.013671875,-0.0015249252,0.02230835,0.006664276,-0.0010700226,0.02935791,-0.00046730042,0.022750854,-0.005962372,-0.0050201416,-0.030944824,-0.0030212402,0.0011701584,-0.008033752,0.020751953,0.007255554,-0.008911133,-0.029174805,-0.00023818016,-0.02998352,-0.031051636,0.02909851,0.013259888,-0.05935669,0.015335083,-0.041290283,0.028701782,0.06628418,-0.024154663,0.020019531,-0.0051612854,0.011772156,-0.0008664131,-0.002943039,-7.683039e-05,0.05432129,-0.019622803,-0.043029785,-0.0046157837,0.010070801,-0.04949951,-0.009941101,0.02935791,-0.022384644,0.029129028,0.029205322,0.016464233,-0.0021705627,-0.04272461,-0.079956055,0.019714355,-0.035583496,0.012496948,-0.028839111,-0.0028247833,0.017990112,-0.01008606,-0.04248047,0.011543274,-0.057891846,0.016464233,0.026870728,-0.016708374,0.011947632,-0.027801514,0.038360596,-0.02558899,-0.0012979507,0.022247314,-0.031097412,0.0068969727,-0.018920898,0.019363403,0.041290283,0.009185791,-0.022109985,-0.011634827,-0.026931763,-0.011360168,0.026535034,-0.00062942505,-0.023880005,-0.032196045,-0.004135132,-0.020095825,-0.0019197464,-0.008918762,0.030166626,-0.026016235,-0.020431519,-0.013969421,0.08099365,-0.014732361,-0.0061416626,-0.011550903,0.014045715,0.031402588,0.062469482,-0.005645752,0.016586304,0.025482178,0.031021118,0.024307251,0.03100586,0.0053749084,0.0079574585,-0.03451538,0.022201538,0.03427124,-0.020050049,0.026489258,-0.004917145,0.03439331,0.01071167,0.018417358,-0.007835388,-0.037719727,-0.03479004,0.009086609,0.059173584,0.003578186,-0.040100098,0.010345459,0.012145996,0.02041626,0.0048103333,0.013664246,-0.04815674,-0.032104492,-0.055908203,-0.038635254,0.022079468,-0.060455322,-0.0033111572,-0.020324707,0.002714157,-0.0012073517,-0.035247803,-0.05899048,-0.0050086975,0.008094788,0.026535034,0.038085938,-0.018218994,0.025390625,-0.00024056435,0.040649414,-0.016967773,-0.023757935,0.0018730164,-0.004436493,0.012916565,-0.07678223,0.022079468,-0.022979736,-0.007797241,-0.01260376,-0.02027893,-0.0047912598,-0.0104599,0.041015625,0.0076065063,-0.001707077,0.014015198,0.03817749,-0.0385437,0.033813477,0.0016965866,-0.0074043274,-0.042785645,0.008895874,-0.056549072,-0.039978027,0.0029621124,0.020248413,0.03262329,0.022827148,0.0056610107,-0.02885437,0.0071144104,-0.019683838,-0.027267456,0.02798462,-0.03475952,0.0129470825,0.0057907104,-0.011383057,-0.01737976,0.056610107,-0.015213013,0.019973755,-0.011489868,-0.014328003,0.06817627,0.026504517,0.03149414,-0.009384155,0.026657104,-0.02458191,-0.019760132,0.018112183,-0.00059986115,0.009849548,0.0063552856,-0.04257202,-0.008720398,-0.016616821,-0.02079773,-0.028930664,-0.029403687,0.018295288,-0.04763794,0.021331787,-0.03378296,0.039001465,0.043640137,-0.021636963,0.053100586,-0.00053071976,0.0035076141,-0.03225708,0.035461426,-0.034820557,-0.005970001,0.01134491,0.05041504,0.0017175674,-0.013244629,0.0029678345,0.042816162,-0.021987915,0.032287598,-0.01234436,-0.021347046,0.025772095,-0.0065689087,-0.01133728,-0.0069999695,0.013214111,-0.009941101,-0.09033203,-0.022994995,-0.00831604,0.019805908,0.062316895,-0.058044434,-0.06933594,0.00095176697,0.023635864,-0.0135650635,-0.028030396,0.002122879,0.024765015,-0.038238525,-0.0037841797,0.0056114197,-0.01600647,-0.010101318,-0.0012874603,0.02949524,-0.027450562,0.03704834,-0.032989502,0.038208008,0.022979736,0.03515625,0.03189087,-0.041412354,0.016281128,0.028305054,-0.061340332,-0.047973633,0.060668945,0.01701355,-0.0011863708,-0.018371582,-0.020324707,0.0748291,-0.051940918,-0.009407043,0.008766174,6.264448e-05,-0.023773193,0.006046295,0.020202637,0.012290955,0.03414917,-0.01777649,0.026657104,-0.0040359497,-0.008132935,0.013168335,-0.06201172,-0.0043296814,0.025039673,-0.0625,-0.022140503,-0.047424316,0.025619507,-0.09313965,-0.015777588,-0.019943237,-0.022613525,0.039642334,0.033111572,-0.042541504,0.022232056,0.0110321045,-0.004463196,0.018630981,-0.0028095245,-0.0044174194,0.0012331009,-0.02519226,-0.010917664,0.0032176971,0.0031356812,-0.033050537,0.013069153,0.015045166,-0.0152282715,0.037872314,-0.009033203,0.038330078,-0.00058698654,-0.035003662,0.08300781,0.08148193,-0.037628174,-0.008926392,0.095214844,0.027633667,-0.087402344,0.021652222,-0.022491455,-0.04574585,-0.004512787,-0.0006451607,-0.021499634,0.0039520264,0.03692627,0.009849548,0.008346558,-0.014350891,-0.051452637,-0.06072998,0.0017061234,0.011314392,-0.03756714,-0.05038452,0.003545761,-0.040039062,-0.023788452,0.048065186,0.09899902,0.039215088,0.016815186,-0.035003662,0.020233154,0.0051345825,-0.013114929,-0.020370483,-0.027496338,0.00045585632,0.0055274963,-0.017166138,0.009712219,0.005191803,-0.02267456,0.030059814,0.068847656,0.008338928,-0.015411377,-0.075683594,-0.050750732,0.017196655,-0.025726318,0.013694763,-0.017227173,-0.040893555,0.0027694702,-0.01335907,-0.026641846,0.023834229,-0.017929077,0.00087213516,0.049743652,-0.014732361,-0.04348755,0.009216309,0.03274536,0.012496948,-0.008331299,-0.012687683,0.003227234,0.023880005,0.013809204,-0.03111267,-0.03616333,-0.04989624,0.037506104,0.012878418,0.042541504,0.0011463165,-0.0064926147,0.034576416,-0.024551392,-0.044525146,-0.0009889603,-0.034698486,0.101745605,-0.026885986,-0.0072135925,-0.010169983,0.015060425,0.038482666,-0.00093460083,-0.045196533,-0.025939941,0.042419434,-0.016555786,0.021560669,-0.0033226013,0.027511597,0.03010559,-0.013191223,0.019821167,-0.002275467,0.045806885,0.0063285828,-0.041046143,0.0015420914,0.0143585205,-0.0052337646,-0.023284912,-0.002626419,0.008796692,-0.02355957,-0.0026683807,0.010345459,0.076416016,-0.01739502,-0.011123657,0.021850586,0.002128601,0.038146973,0.004760742,0.011383057,0.05734253,-0.064331055,-0.015113831,-0.06097412,-0.030136108,0.013168335,-0.044189453,-0.000854969,-0.03503418,-0.008308411,0.032104492,0.00843811,-0.022109985,0.0031833649,-0.016616821,0.0082092285,0.0099105835,-0.037384033,-0.03164673,-0.0010137558,0.00037240982,0.004016876,0.01776123,0.015716553,0.02218628,0.01121521,0.017745972,-0.015045166,-0.0037269592,-0.021621704,-0.015899658,-0.01727295,-0.03665161,0.0074920654,-0.020736694,0.0048675537,-0.030822754,0.037353516,-0.0038890839,-0.03201294,0.04034424,-0.015037537,-0.02319336,0.015548706,-0.0121536255,-0.0048675537,-0.03286743,-0.10101318,-0.031707764,0.02809143,-0.08758545,-0.033843994,0.043945312,-0.033294678,-0.03881836,0.06311035,0.0073013306,0.03768921,0.036499023,0.019317627,-0.017150879,-0.020065308,0.00089740753,0.017929077,-0.017501831,-0.00012886524,-0.019897461,0.032684326,-0.0053749084,-0.0008568764,-0.022644043,0.012268066,-0.0524292,-0.023117065,0.0063972473,0.016723633,0.010910034,0.06225586,-0.022064209,-0.06585693,-0.03942871,0.0045776367,0.012374878,-0.0056648254,-0.053894043,-0.007789612,0.009521484,0.0017442703,-0.025131226,0.03152466,-0.035888672,-0.007461548,0.019104004,-0.0022888184,0.03111267,-0.0043296814,-0.080566406,0.03152466,0.014076233,-0.008811951,-0.00043082237,-0.044158936,-0.032836914,0.03741455,0.009788513,0.047210693,0.010856628,-0.011291504,0.007949829,0.04046631,-0.02935791,0.011459351,0.008613586,-0.012084961,0.03201294,0.024459839,-0.021148682,-0.027038574,-0.039642334,-0.013313293,0.0059661865,0.045654297,-0.029907227,0.03439331,-0.08258057,-0.010757446,0.059631348,-0.005584717,-0.013954163,0.018173218,0.017532349,-0.0021648407,-0.0206604,0.022476196,-0.01991272,-0.014289856,0.011787415,0.0524292,0.028411865,0.02418518,-0.053497314,-0.02583313,0.017089844,-0.014389038,0.030761719,-0.043426514,0.033111572,0.013412476,-4.1007996e-05,-0.00079870224,0.034423828,-0.029159546,0.04815674,0.010017395,-0.040405273,-0.00038266182,-0.025344849,-0.0127334595,-0.03338623,-0.014343262,0.013183594,0.032348633,0.024108887,-0.060913086,0.07086182,0.024261475,0.022232056,-0.030212402,0.020767212,-0.011169434,0.0020389557,0.028244019,-0.0028877258,0.05355835,0.06237793,-0.03652954,0.03765869,-0.017456055,0.0011987686,0.047576904,0.012924194,0.00017976761,-0.010276794,-0.0035896301,0.033294678,-0.037597656,-0.00374794,0.033477783,0.031219482,0.007881165,0.00076532364,0.007827759,0.005935669,0.010025024,-0.029220581,0.051971436,-0.0107040405,-0.002521515,0.0015792847,-0.028152466,0.0035533905,0.013748169,-0.070251465,-0.006286621,0.023330688,-0.008460999,0.028411865,0.040771484,0.041137695,0.00579834,-0.0038070679,0.024841309,0.014030457,0.032562256,-0.013168335,-0.028259277,0.040130615,0.03866577,-0.03955078,0.03152466,-0.02041626,0.026611328,-0.01209259,-0.02720642,-0.034179688,-0.02947998,0.016983032,-0.09075928,-0.0042800903,0.024475098,0.03717041,-0.05883789,-0.02482605,0.031280518,0.021606445,-0.03213501,-0.0006933212,0.09039307,-0.05895996,-0.031082153,0.023529053,0.039794922,0.0002975464,-0.10760498,-0.0019378662,0.008888245,0.03527832,-0.0049552917,0.019088745,-0.042907715,-0.00048208237,0.004348755,-0.006126404,-0.0022392273,0.0008716583,0.019302368,-0.040618896,-0.034423828,-0.040618896,-0.02281189,0.103271484,-0.03366089,-0.041992188,-0.0025463104,0.021408081,-0.02482605,-0.035186768,-0.057647705,0.013793945,-0.03314209,0.04788208,0.047668457,-0.057128906,-4.23193e-06,0.020309448,0.060333252,0.0637207,0.01386261,-0.02609253,-0.016937256,0.014701843,-0.016860962,0.01436615,0.0062942505,-0.009208679,-0.026138306,0.003604889,-0.017578125,-0.001909256,-0.043182373,-0.055847168,0.01550293,0.010536194,-0.036071777,-0.001958847,0.023101807,-0.008979797,-0.014328003,-0.0113220215,-0.012771606,0.00919342,0.022125244,-0.032470703,0.020401001,-0.0014076233,-0.01979065,-0.046569824,-0.006149292,-0.0045814514,0.0053901672,0.01939392,-0.035461426,0.05114746,0.07208252,-0.01576233,-0.00014925003,0.008178711,-0.0021038055,0.019134521,0.03665161,0.006603241,-0.0004172325,-0.044311523,0.01058197,-0.012992859,-0.004878998,0.0048713684,-0.005077362,-0.0029716492,0.033477783,-0.017120361,0.035888672,0.02758789,-0.0010881424,-0.0022830963,-0.054595947,-0.006225586,0.01612854,-0.0181427,0.06097412,-0.014595032,0.079589844,-0.06488037,0.08294678,-0.0029888153,0.06427002,-0.016052246,0.04034424,0.07537842,0.059173584,-0.00017559528,-0.005264282,0.021347046,0.03579712,0.032348633,-0.00415802,-0.01373291,0.014915466,-0.009468079,0.047912598,0.042755127,0.022567749,-0.030700684,0.055633545,0.010536194,0.0062408447,-0.005710602,0.12939453,0.011024475,0.05328369,0.021408081,-0.011108398,0.020462036,0.005153656,0.020904541,-0.0024795532,0.04144287,0.0087509155,-0.0118637085,0.022079468,0.01235199,0.0037174225
