repo,0,1,2,3,4,5,6,7,8,9,10,11,12,13,14,15,16,17,18,19,20,21,22,23,24,25,26,27,28,29,30,31,32,33,34,35,36,37,38,39,40,41,42,43,44,45,46,47,48,49,50,51,52,53,54,55,56,57,58,59,60,61,62,63,64,65,66,67,68,69,70,71,72,73,74,75,76,77,78,79,80,81,82,83,84,85,86,87,88,89,90,91,92,93,94,95,96,97,98,99,100,101,102,103,104,105,106,107,108,109,110,111,112,113,114,115,116,117,118,119,120,121,122,123,124,125,126,127,128,129,130,131,132,133,134,135,136,137,138,139,140,141,142,143,144,145,146,147,148,149,150,151,152,153,154,155,156,157,158,159,160,161,162,163,164,165,166,167,168,169,170,171,172,173,174,175,176,177,178,179,180,181,182,183,184,185,186,187,188,189,190,191,192,193,194,195,196,197,198,199,200,201,202,203,204,205,206,207,208,209,210,211,212,213,214,215,216,217,218,219,220,221,222,223,224,225,226,227,228,229,230,231,232,233,234,235,236,237,238,239,240,241,242,243,244,245,246,247,248,249,250,251,252,253,254,255,256,257,258,259,260,261,262,263,264,265,266,267,268,269,270,271,272,273,274,275,276,277,278,279,280,281,282,283,284,285,286,287,288,289,290,291,292,293,294,295,296,297,298,299,300,301,302,303,304,305,306,307,308,309,310,311,312,313,314,315,316,317,318,319,320,321,322,323,324,325,326,327,328,329,330,331,332,333,334,335,336,337,338,339,340,341,342,343,344,345,346,347,348,349,350,351,352,353,354,355,356,357,358,359,360,361,362,363,364,365,366,367,368,369,370,371,372,373,374,375,376,377,378,379,380,381,382,383,384,385,386,387,388,389,390,391,392,393,394,395,396,397,398,399,400,401,402,403,404,405,406,407,408,409,410,411,412,413,414,415,416,417,418,419,420,421,422,423,424,425,426,427,428,429,430,431,432,433,434,435,436,437,438,439,440,441,442,443,444,445,446,447,448,449,450,451,452,453,454,455,456,457,458,459,460,461,462,463,464,465,466,467,468,469,470,471,472,473,474,475,476,477,478,479,480,481,482,483,484,485,486,487,488,489,490,491,492,493,494,495,496,497,498,499,500,501,502,503,504,505,506,507,508,509,510,511,512,513,514,515,516,517,518,519,520,521,522,523,524,525,526,527,528,529,530,531,532,533,534,535,536,537,538,539,540,541,542,543,544,545,546,547,548,549,550,551,552,553,554,555,556,557,558,559,560,561,562,563,564,565,566,567,568,569,570,571,572,573,574,575,576,577,578,579,580,581,582,583,584,585,586,587,588,589,590,591,592,593,594,595,596,597,598,599,600,601,602,603,604,605,606,607,608,609,610,611,612,613,614,615,616,617,618,619,620,621,622,623,624,625,626,627,628,629,630,631,632,633,634,635,636,637,638,639,640,641,642,643,644,645,646,647,648,649,650,651,652,653,654,655,656,657,658,659,660,661,662,663,664,665,666,667,668,669,670,671,672,673,674,675,676,677,678,679,680,681,682,683,684,685,686,687,688,689,690,691,692,693,694,695,696,697,698,699,700,701,702,703,704,705,706,707,708,709,710,711,712,713,714,715,716,717,718,719,720,721,722,723,724,725,726,727,728,729,730,731,732,733,734,735,736,737,738,739,740,741,742,743,744,745,746,747,748,749,750,751,752,753,754,755,756,757,758,759,760,761,762,763,764,765,766,767,768,769,770,771,772,773,774,775,776,777,778,779,780,781,782,783,784,785,786,787,788,789,790,791,792,793,794,795,796,797,798,799,800,801,802,803,804,805,806,807,808,809,810,811,812,813,814,815,816,817,818,819,820,821,822,823,824,825,826,827,828,829,830,831,832,833,834,835,836,837,838,839,840,841,842,843,844,845,846,847,848,849,850,851,852,853,854,855,856,857,858,859,860,861,862,863,864,865,866,867,868,869,870,871,872,873,874,875,876,877,878,879,880,881,882,883,884,885,886,887,888,889,890,891,892,893,894,895,896,897,898,899,900,901,902,903,904,905,906,907,908,909,910,911,912,913,914,915,916,917,918,919,920,921,922,923,924,925,926,927,928,929,930,931,932,933,934,935,936,937,938,939,940,941,942,943,944,945,946,947,948,949,950,951,952,953,954,955,956,957,958,959,960,961,962,963,964,965,966,967,968,969,970,971,972,973,974,975,976,977,978,979,980,981,982,983,984,985,986,987,988,989,990,991,992,993,994,995,996,997,998,999,1000,1001,1002,1003,1004,1005,1006,1007,1008,1009,1010,1011,1012,1013,1014,1015,1016,1017,1018,1019,1020,1021,1022,1023
CleanroomMC/Fugue,-0.0023427638225257397,-0.052898529917001724,0.02939734235405922,0.006864174269139767,0.020339570939540863,-0.02915400080382824,-0.017180364578962326,-0.0042849997989833355,0.0455486886203289,-0.013396362774074078,0.030953770503401756,0.006677285302430391,0.06179862469434738,0.03005070798099041,-0.01836645044386387,0.0029433940071612597,0.02868897281587124,8.780444477451965e-05,-0.023009125143289566,-0.03583444654941559,0.0024706467520445585,-0.02755936235189438,0.02429506927728653,0.017436640337109566,-0.057752251625061035,0.016560431569814682,0.00702176708728075,-0.005536651238799095,-0.011001151986420155,0.02529510110616684,-0.057062096893787384,-0.03087727725505829,-0.01852678507566452,-0.014024779200553894,0.05705215781927109,-0.022746283560991287,-0.02263130620121956,-0.00806002039462328,0.024067381396889687,-0.018613437190651894,-0.008333753794431686,-0.01641998440027237,-0.026882529258728027,0.036833442747592926,-0.028501328080892563,0.007196019869297743,-0.04305977001786232,-0.007277481257915497,0.036463893949985504,-0.006744069047272205,0.07612235099077225,-0.033774483948946,0.015073015354573727,-0.0001737093843985349,-0.02865530177950859,0.06844120472669601,0.03954918310046196,0.07369988411664963,-0.017986886203289032,-0.04048733040690422,-0.01744377426803112,-0.02412061206996441,0.011103805154561996,-0.015026143752038479,-0.04920265078544617,0.004470265936106443,-0.02767428755760193,-0.022519877180457115,0.049123309552669525,-0.0005469120806083083,-0.041763704270124435,0.028956228867173195,0.03707357123494148,0.004996908828616142,0.06097915768623352,-0.026871953159570694,-0.0069368924014270306,0.0028838778380304575,0.057949602603912354,-0.001963026588782668,0.003571123583242297,0.010885019786655903,-0.02793993055820465,-0.008319169282913208,0.06951475143432617,-0.0350208505988121,0.07169267535209656,-0.04080033674836159,-0.010470196604728699,0.01275285892188549,0.05053633451461792,-0.03300812840461731,0.040606118738651276,0.027317175641655922,-0.020663002505898476,0.002672177506610751,0.025545379146933556,0.021494140848517418,-0.0032341983169317245,-0.044293325394392014,-0.0033361681271344423,-0.038999348878860474,0.021540571004152298,0.04106220230460167,0.005078101065009832,0.03564000129699707,-0.03484166041016579,-0.025368688628077507,-0.007163861766457558,0.033195797353982925,-0.01597542315721512,0.019160648807883263,-0.011278538964688778,0.01837238296866417,-0.011864026077091694,0.0018346353899687529,-0.04485425353050232,0.0025356330443173647,0.02411067858338356,0.050586629658937454,0.0354192890226841,-0.006169842090457678,0.06654932349920273,-0.06510386615991592,-0.06064142286777496,0.02663794718682766,0.02482462301850319,-0.013649797067046165,-0.03977814316749573,0.04476013779640198,0.00023402263468597084,-0.0032144750002771616,-0.011972950771450996,0.013923604972660542,0.038783274590969086,0.019976947456598282,-0.08456229418516159,-0.06559915095567703,0.01615738496184349,0.007005412597209215,-0.009346946142613888,-0.031222892925143242,0.01825883239507675,0.027717627584934235,0.06675887852907181,0.04776682332158089,0.04378928244113922,0.02144293487071991,0.00020867868443019688,0.03025762550532818,-0.04063890501856804,0.002554164733737707,-0.04909598082304001,-0.03459380194544792,-0.016782375052571297,-0.020916445180773735,-0.0017186646582558751,0.017810238525271416,0.011407147161662579,-0.0009806803427636623,0.010071540251374245,-0.00021813261264469475,-0.0033196161966770887,-0.0019266451708972454,-0.0288226380944252,-0.05646247789263725,0.07937031239271164,0.0020180705469101667,0.029340943321585655,0.030684608966112137,0.01047717034816742,0.04305027797818184,-0.00874149426817894,0.01981639303267002,0.04459359496831894,-0.006583029869943857,0.004740503150969744,0.01216952782124281,0.02150963433086872,0.008653213270008564,-0.012577072717249393,-0.05669928714632988,0.025154652073979378,0.018176287412643433,0.009558863937854767,0.03617197275161743,-0.00939145777374506,-0.010335363447666168,0.029702365398406982,-0.06436773389577866,-0.006455225870013237,-0.030669156461954117,0.04595879837870598,0.015311982482671738,-0.009379992261528969,-5.8362151321489364e-05,-0.01687832549214363,0.013533968478441238,0.004704583901911974,-0.017733758315443993,-0.04889660328626633,0.017155148088932037,0.024047499522566795,-0.03474972024559975,-0.030258195474743843,0.06147534027695656,0.022796286270022392,-0.04098828509449959,0.04062443599104881,-0.04363313689827919,-0.026738056913018227,-0.002095766132697463,-0.02658287063241005,0.022014543414115906,-0.02327864058315754,-0.009461370296776295,-0.0021236268803477287,0.011087174527347088,-0.05063239857554436,0.02552110143005848,-0.05390171334147453,0.030059924349188805,0.07299482077360153,0.033621013164520264,0.03801528736948967,0.040677011013031006,0.009327703155577183,0.03152994439005852,0.045457448810338974,-0.03804142400622368,-0.016727419570088387,0.012876897118985653,0.026130104437470436,0.009866354055702686,-0.010849222540855408,0.0067376261577010155,0.06481704115867615,-0.01428648829460144,0.02536388300359249,-0.002056164899840951,-0.035617534071207047,0.02126762457191944,-0.007442019414156675,0.016530651599168777,0.01630549319088459,0.03593999519944191,0.012993362732231617,0.021256323903799057,0.003542502410709858,-0.026077408343553543,0.01739218458533287,0.035518672317266464,0.02334565855562687,0.005023641046136618,0.030530458316206932,-0.027643529698252678,0.026277778670191765,-0.04383735731244087,-0.013128101825714111,-0.005584839265793562,-0.006966623943299055,-0.020794376730918884,-0.005360826384276152,-0.031147267669439316,-0.022871632128953934,-0.005183052271604538,-0.025478370487689972,-0.04525815322995186,0.07559719681739807,-0.02180924080312252,0.04550657048821449,0.008054543286561966,-0.029746852815151215,-0.020619753748178482,0.008348270319402218,0.028973454609513283,0.003388488432392478,0.04344111680984497,-0.007882794365286827,-0.0233775582164526,0.003231063950806856,-0.022390030324459076,-0.019656121730804443,-0.00462683429941535,-0.03363228589296341,0.016722112894058228,0.028749927878379822,0.008602464571595192,0.03029496781527996,0.033330854028463364,-0.025240300223231316,0.02899656444787979,-0.002051884774118662,-0.047719016671180725,0.009707239456474781,0.01899763010442257,0.011169526726007462,0.006500473245978355,0.0028317118994891644,0.020067142322659492,0.02593640238046646,-0.06413227319717407,0.025285402312874794,-0.04779598116874695,0.008529656566679478,0.00648699002340436,-0.01885770633816719,0.004460379481315613,-0.018242862075567245,0.021002093330025673,0.025236863642930984,-0.011835264973342419,-0.03928319364786148,-0.058886557817459106,-0.06198528781533241,0.0003454269317444414,0.008859763853251934,0.03937815502285957,-0.009639937430620193,-0.02157466486096382,0.03240308165550232,0.016495894640684128,-0.0748147964477539,-0.0633278414607048,-0.0001886142126750201,0.011681358329951763,-0.03195473551750183,0.0016389727825298905,0.018009815365076065,-0.023915370926260948,-0.010699620470404625,0.0009058438008651137,0.020609362050890923,0.05257149785757065,-0.025825338438153267,-0.02989974617958069,0.0007978195208124816,-0.0055738287046551704,-0.03834781423211098,-0.000582571083214134,0.04369945824146271,-0.009606254287064075,0.0030676310416311026,-0.00995012279599905,0.008374369703233242,0.0450860820710659,-0.0172539334744215,0.0039101941511034966,0.012234761379659176,0.021330473944544792,-0.00910333450883627,-0.008211678825318813,0.026419153437018394,-0.07381679117679596,-0.06723388284444809,0.04290873184800148,0.04600587114691734,-0.026722870767116547,0.010972780175507069,0.04668933525681496,0.053706955164670944,-0.03284551575779915,-0.04182641953229904,-0.00755326310172677,0.040883954614400864,-0.00935989711433649,0.000740076822694391,0.02083214744925499,0.019664283841848373,0.02577744796872139,-0.022262921556830406,0.01992414891719818,-0.009397524408996105,0.021467264741659164,-0.08291062712669373,-0.023976875469088554,0.013525069691240788,0.0499068908393383,0.020935779437422752,0.033915579319000244,0.009143385104835033,0.031525079160928726,0.0038013949524611235,0.03866379335522652,-0.07228080928325653,0.01924586296081543,-0.008019326254725456,0.017200859263539314,0.01630585268139839,0.041419852524995804,-0.003681138390675187,0.013457109220325947,-0.038074713200330734,0.006144972983747721,-0.014424778521060944,-0.03719944879412651,0.005422553047537804,-0.02783098816871643,0.0014935422223061323,0.010315540246665478,0.014823713339865208,0.08228866755962372,0.03317221999168396,0.02330300211906433,0.03208627551794052,0.026240430772304535,-0.030521435663104057,-0.007061879150569439,0.0051790946163237095,-0.0118266511708498,0.0157774668186903,0.0218523982912302,0.041379477828741074,-0.02415338158607483,-0.010247348807752132,-0.030953355133533478,0.030479615554213524,-0.009090336970984936,0.013971596956253052,0.002333196112886071,-0.019477462396025658,0.015315402299165726,-0.0055884080938994884,0.03254714235663414,0.011411490850150585,0.07413428276777267,0.02483583614230156,-0.014939031563699245,0.012529991567134857,0.04824085906147957,0.046906210482120514,0.005791554227471352,-0.02457572892308235,0.012236985377967358,-0.0022467519156634808,0.022889789193868637,-0.014625366777181625,0.0029073557816445827,0.04471811279654503,0.048249248415231705,-0.02764909341931343,-0.025650614872574806,0.008763992227613926,-0.055170509964227676,-0.023570725694298744,-0.01725729927420616,-0.00784455519169569,-0.04617047682404518,0.03065147064626217,0.040040962398052216,0.014956160448491573,0.03911234810948372,-0.007629228290170431,-0.052831754088401794,-0.11600096523761749,0.005701842252165079,0.03625881299376488,0.04532434418797493,-0.016877084970474243,-0.004059426952153444,-0.06050313636660576,-0.03236827254295349,0.01753002405166626,-0.009137057699263096,0.008268874138593674,-0.050121113657951355,0.023605896160006523,-0.011838872916996479,-0.0355992391705513,-0.00590133061632514,0.032663699239492416,0.012281120754778385,-0.016466625034809113,0.011675895191729069,0.004874248523265123,0.0010829027742147446,0.020639579743146896,-0.012953436933457851,0.032696228474378586,0.020704980939626694,-0.0032017005141824484,0.017345383763313293,0.03892788290977478,-0.057770658284425735,0.01709633693099022,0.01834866777062416,0.0043425969779491425,-0.03750917688012123,0.03591948002576828,0.015294247306883335,-0.01548033207654953,-0.003718877211213112,-0.0223805271089077,-0.03281227871775627,0.0037810637149959803,-0.05200327932834625,0.038248464465141296,0.015859385952353477,0.020099684596061707,0.028022585436701775,0.041408345103263855,-0.022302158176898956,0.02132478356361389,-0.011531701311469078,-0.030188141390681267,-0.049676086753606796,0.04066162556409836,-0.010215386748313904,-0.021108580753207207,-0.039399951696395874,0.036932580173015594,0.006275685969740152,0.004101458005607128,-0.04088999703526497,0.020904960110783577,-0.034899741411209106,0.02942434698343277,-0.021578935906291008,0.03174503147602081,-0.007132347207516432,0.016479218378663063,-0.03320084139704704,0.03367789462208748,0.0320843867957592,-0.07069628685712814,-0.004751572851091623,0.019148707389831543,-5.538828554563224e-05,0.030804075300693512,-0.004223119933158159,0.010174386203289032,0.041293833404779434,-0.04939354211091995,0.025103339925408363,-0.006004303228110075,0.027000250294804573,0.014576386660337448,-0.0648345872759819,-0.0010559270158410072,0.015831179916858673,-0.012968242168426514,-0.04485781863331795,0.003672289429232478,0.08893086761236191,0.022814732044935226,-0.01976570300757885,-0.030004173517227173,-0.047505442053079605,-0.012434372678399086,-0.01890943944454193,-0.009450266137719154,-0.040375106036663055,0.011051840148866177,-0.022695641964673996,0.0013101277872920036,0.01235258299857378,-0.0015602910425513983,-0.0027890289202332497,-0.002821452682837844,0.01878533326089382,0.034410495311021805,0.0453278087079525,0.04069455340504646,0.02618463523685932,0.02359805814921856,0.019330419600009918,0.0036476163659244776,-0.03415675461292267,-0.03633926808834076,-0.018644271418452263,0.029696613550186157,-0.009580698795616627,-0.032724060118198395,0.036410123109817505,-0.015651440247893333,0.03327445685863495,-0.010477280244231224,0.0191892609000206,-0.04323167726397514,-0.012603175826370716,0.006144012790173292,-0.043665479868650436,0.015252738259732723,-0.031310271471738815,0.00045418902300298214,0.03571596369147301,-0.018974365666508675,-0.006799285300076008,0.041197337210178375,-0.012188021093606949,0.00903455913066864,0.06137619540095329,-0.0008552682702429593,-0.01634840853512287,0.060915663838386536,-0.020745517686009407,0.026213904842734337,-0.04000258445739746,0.03810077905654907,0.014012133702635765,0.045961715281009674,-0.038232479244470596,-0.016480229794979095,-0.016437793150544167,-0.0015306074637919664,0.05293796956539154,-0.02097012847661972,0.008970331400632858,0.029871979728341103,-0.022652888670563698,-0.014480475336313248,0.036573298275470734,-0.029795238748192787,0.01728777401149273,-0.0067528304643929005,0.07238834351301193,-0.03864355385303497,-0.008097532205283642,0.022539356723427773,0.040727026760578156,0.0017479525413364172,0.009295063093304634,0.025673337280750275,-0.005054304376244545,-0.0027857976965606213,-0.03240863233804703,-0.04162603244185448,0.027483941987156868,-0.06058333069086075,0.04316608980298042,0.022662581875920296,-0.0045183883048594,0.0010575688211247325,0.03962293639779091,-0.019809871912002563,-0.047986794263124466,-0.025567585602402687,-0.0451224222779274,0.005978093482553959,0.027143418788909912,-0.012259772047400475,-0.00458192266523838,-0.04139494150876999,0.04795772582292557,0.008320425637066364,0.03175414353609085,-0.06094014272093773,-0.06423633545637131,-0.01209271140396595,0.0037079250905662775,-0.055500298738479614,0.07678420841693878,0.015913130715489388,0.0025152512826025486,0.017188338562846184,0.02176014333963394,0.02085513435304165,0.0033136087004095316,-0.0015902507584542036,0.031012795865535736,0.07239930331707001,0.00959048792719841,0.00618076603859663,-0.007843672297894955,0.009517138823866844,0.2065194845199585,0.05801493674516678,0.03106079436838627,-0.07690565288066864,-0.0054014925844967365,-0.026735931634902954,0.004851509351283312,-0.0017826511757448316,-0.0043481867760419846,-0.004596662241965532,0.004095152951776981,0.08908460289239883,0.06895259022712708,-0.00226982613094151,0.047443658113479614,0.035122934728860855,-0.011289160698652267,-0.018720120191574097,0.03609826788306236,-0.0134859224781394,0.01804584078490734,0.010089395567774773,-0.0438922718167305,-0.04199691489338875,0.030292483046650887,-0.013668827712535858,-0.0075994315557181835,-0.03842821717262268,0.06254447251558304,0.019150560721755028,-0.0036465313751250505,0.021709397435188293,-0.010869183577597141,0.025868183001875877,0.03450006619095802,0.023670898750424385,0.027967743575572968,-0.02173483371734619,-0.030815478414297104,0.03246389701962471,0.017870651558041573,0.004878167528659105,-0.0032070488668978214,0.0064264885149896145,-0.02188391052186489,-0.00025513771106489,-0.0027318322099745274,-0.06463024020195007,0.01212035957723856,0.008410229347646236,-0.06206829845905304,0.0005234284326434135,0.004651383962482214,-0.05062643811106682,-0.06674575060606003,0.03794611245393753,0.030539406463503838,-0.021738825365900993,-0.04631447046995163,-0.039550185203552246,-0.012885958887636662,0.013581566512584686,-0.001506558619439602,0.01716526411473751,0.022619275376200676,0.015539566986262798,-0.025820959359407425,0.03853515535593033,0.009425544179975986,-0.016856692731380463,0.0018561594188213348,0.0010111741721630096,-0.024146076291799545,-0.014837984926998615,-0.008806362748146057,0.047329045832157135,-0.011500156484544277,0.02494511753320694,-0.00891683716326952,-0.051903706043958664,-0.015440840274095535,0.037147633731365204,-0.040100619196891785,-0.009209713898599148,-0.016521630808711052,-0.020303845405578613,-0.007560805883258581,-0.015910569578409195,0.011438197456300259,-0.0032706239726394415,-0.015581107698380947,0.06152081862092018,0.03227530047297478,-0.01502110157161951,0.007943705655634403,0.013500780798494816,-0.053492069244384766,-0.0066084470599889755,-0.036503300070762634,0.08040641993284225,0.009214014746248722,-0.0177292600274086,-0.027554482221603394,0.05795077979564667,-0.031202947720885277,-0.0046807811595499516,0.012553549371659756,-0.024379752576351166,-0.04057123139500618,0.0015257293125614524,-0.00024402287090197206,-0.04154869541525841,-0.02007669396698475,-0.030685249716043472,-0.0011015830095857382,-0.006934795994311571,-0.018053662031888962,-0.03435193747282028,0.03972475603222847,-0.022172190248966217,0.027567293494939804,-0.020209209993481636,0.05634995177388191,-0.024621112272143364,-0.0019682380370795727,0.01675449125468731,-0.02691539004445076,-0.023495173081755638,0.015438282862305641,-0.05050288885831833,-0.01029393170028925,-0.008615142665803432,-0.008015983738005161,0.012411285191774368,0.004308320581912994,-0.02778506465256214,-0.022203106433153152,0.014854619279503822,-0.0384652353823185,-0.02012542635202408,0.0019165987614542246,-0.045038942247629166,-0.03834177181124687,0.04119464382529259,-0.01800520159304142,-0.009992191568017006,0.01765839383006096,-0.004156581591814756,0.023763591423630714,0.06056308001279831,-0.0370863676071167,-0.026912212371826172,0.038286011666059494,0.02070765569806099,-0.010639320127665997,-0.006712645757943392,-0.003095692954957485,0.013171439059078693,-0.0182200875133276,-0.02998272143304348,0.020121900364756584,0.038653165102005005,-0.0009247097768820822,-0.014909743331372738,-0.02722827158868313,-0.0005768517730757594,-0.016169218346476555,0.0015994634013623,0.017712734639644623,0.018799392506480217,-0.018322549760341644,0.00699842581525445,0.03191843256354332,-0.0007416110602207482,-0.04549643024802208,-0.003110187128186226,-0.019189443439245224,-0.02137984149158001,0.043628156185150146,-0.03660880774259567,-0.015558764338493347,0.0371488481760025,-0.04263773933053017,0.013257228769361973,-0.011139096692204475,-0.029282929375767708,-0.0073928264901041985,0.03991779312491417,-0.03268200904130936,0.005062045529484749,0.011437268927693367,0.029341110959649086,0.024773184210062027,0.014135965146124363,-0.017590388655662537,0.002487798919901252,-0.0037465770728886127,0.0141016049310565,-0.005797273013740778,-0.04078932851552963,0.019124886021018028,-0.06345265358686447,-0.0436604805290699,0.006741176825016737,-0.03281934931874275,-0.01891457848250866,-0.003645168151706457,0.026418590918183327,0.013890368863940239,0.03513432666659355,-0.03048000857234001,-0.006378876511007547,-0.02437407337129116,-0.03205781802535057,-0.025287050753831863,0.03606002405285835,-0.011063835583627224,-0.013791882432997227,-0.0007422631606459618,0.007414193358272314,-0.021572256460785866,0.021592816337943077,-0.058942556381225586,-0.0012920881854370236,-0.023615092039108276,-0.0045323059894144535,0.02251558192074299,-0.046428143978118896,-0.029982369393110275,-0.036262545734643936,0.030994413420557976,0.0034757619723677635,-0.021034125238656998,0.01029878668487072,0.03883630037307739,-0.0020803234074264765,-0.029619133099913597,0.018361004069447517,0.0026735097635537386,-0.022992009297013283,-0.015239243395626545,-0.027834966778755188,-0.030956916511058807,0.02525453083217144,-0.00826562661677599,0.034352462738752365,-0.024481188505887985,0.017602136358618736,-0.005719239357858896,3.191000359947793e-05,-0.03905712440609932,0.03797028586268425,0.039942316710948944,-0.01301206462085247,0.013808569870889187,0.031654324382543564,-0.004031870514154434,-0.019254272803664207,0.0026565452571958303,0.02672060951590538,0.057826846837997437,0.06621020287275314,-0.05240190774202347,0.009128178469836712,-0.07098497450351715,-0.005853693000972271,0.020569004118442535,0.008235949091613293,-0.008336547762155533,-0.013170087710022926,-8.325507951667532e-05,0.041155312210321426,0.032999809831380844,-0.007128708064556122,0.0017016823403537273,0.04708532243967056,-0.03634502366185188,0.012750184163451195,-0.01656355895102024,-0.01910574361681938,-0.02098255604505539,0.028897615149617195,-0.0176080372184515,0.045719001442193985,-0.029733020812273026,0.030761176720261574,-0.01653183065354824,-0.025365158915519714,-0.05406836420297623,0.05408177524805069,-0.03214840590953827,-0.0028265947476029396,-0.04963703081011772,-0.074286088347435,0.009803666733205318,-0.06631191819906235,-0.00793749000877142,0.02020537480711937,-0.037782009690999985,5.6465083616785705e-05,0.07061956077814102,0.02806704491376877,0.05483546108007431,0.03436744585633278,0.02008814923465252,-0.027206022292375565,-0.04282005503773689,0.016703927889466286,0.02470957487821579,-0.006720765493810177,-0.0022723469883203506,-0.026972761377692223,0.00571513082832098,-0.01125114131718874,0.05550635978579521,0.031388022005558014,0.01690067909657955,-0.005377071909606457,-0.013640963472425938,-0.008926496841013432,-0.0010394223500043154,-0.050030577927827835,0.015600237064063549,-0.012725899927318096,0.07481461018323898,-0.0324673131108284,0.044606830924749374,-0.07365521788597107,0.0019571883603930473,-0.04416249319911003,-0.014877189882099628,-0.02686932496726513,-0.008926806040108204,0.0014788326807320118,0.01344386301934719,-0.030068090185523033,0.008824259042739868,0.021693697199225426,-0.04621677100658417,0.006466963328421116,-0.01614297553896904,0.005914756562560797,0.023315628990530968,-0.011898482218384743,-0.013861429877579212,0.017755938693881035,0.016453687101602554,0.010349756106734276,-0.02458532340824604,-0.040471870452165604,-0.019622111693024635,0.003335824003443122,0.06331045925617218,-0.03158126026391983,-0.0035534785129129887,-0.030647320672869682,0.028490521013736725,-0.006254690699279308,0.032357580959796906
dnwwdwd/homieMatching,-0.014623833820223808,-0.10044749826192856,0.03456592932343483,-0.024056844413280487,0.017274148762226105,0.014113301411271095,-0.04530973732471466,0.02153184823691845,0.03386853262782097,-0.029444845393300056,0.031378183513879776,0.04789730906486511,0.07944288849830627,0.046463895589113235,0.01772913709282875,-0.004895118996500969,0.02021603100001812,-0.0013534940080717206,-0.04932671785354614,-0.020554307848215103,0.013499544933438301,-0.012037692591547966,0.00046065213973633945,0.008599814958870411,-0.032254431396722794,0.017198171466588974,0.007493118289858103,0.026659617200493813,-0.03258227929472923,0.04685468599200249,0.0003847501066047698,-0.05928141996264458,0.02595740370452404,-0.05550137534737587,0.03462529554963112,-0.007823863066732883,0.010118250735104084,-0.014266488142311573,-0.012785236351191998,-0.006125586107373238,-0.001697060070000589,0.0074612596072256565,-0.008230742067098618,0.060284119099378586,-0.021605979651212692,0.0034875518176704645,-0.025196529924869537,-0.007435586769133806,0.07038546353578568,-0.026008695363998413,0.03740009665489197,-0.014380881562829018,-0.008959892205893993,0.005193766206502914,0.008714479394257069,-0.006206139922142029,0.015343697741627693,0.062194742262363434,-0.01057097315788269,-0.023008406162261963,-0.00583785492926836,-0.028991250321269035,-0.01755337044596672,-0.009071310050785542,-0.023296495899558067,-0.003987336531281471,-0.02501441165804863,-0.041248638182878494,0.05636172741651535,-0.04767990857362747,-0.05634939298033714,0.028047846630215645,0.02644667960703373,0.00783484522253275,0.045345865190029144,-0.040402043610811234,-0.0006466072518378496,0.019196610897779465,0.03540673851966858,0.012593797408044338,-0.0012714025797322392,-0.03636425361037254,-0.008767040446400642,0.01020106766372919,0.035176318138837814,-0.01782064139842987,0.06633204221725464,-0.03907081484794617,-0.010484546422958374,0.03687629476189613,0.015790842473506927,0.012858596630394459,0.04511905089020729,0.013346148654818535,-0.009734880179166794,-0.00012273190077394247,0.04259174317121506,0.025591980665922165,0.001959359971806407,-0.03826209157705307,0.02360742725431919,-0.048422232270240784,0.019732896238565445,0.031398627907037735,0.007382071577012539,-0.003924669232219458,-0.0023938058875501156,-0.047391314059495926,0.012454732321202755,0.006707227788865566,-0.06409135460853577,0.04497890546917915,-0.007540583610534668,0.011546828784048557,-0.0035802663769572973,-0.016638820990920067,-0.02816827781498432,-0.006872027181088924,0.032888952642679214,0.05247103050351143,0.024233583360910416,0.061291806399822235,0.07323096692562103,-0.030408049002289772,-0.05448729172348976,0.04514150694012642,0.007775519043207169,0.031521715223789215,-0.035981059074401855,0.023851312696933746,0.015336373820900917,-0.01758684031665325,-0.011041300371289253,-0.020911475643515587,0.048656344413757324,0.02927195280790329,-0.10070028901100159,-0.03794886916875839,0.02106585167348385,0.015646204352378845,-0.008036497049033642,-0.053823020309209824,-0.017393916845321655,-0.005606304854154587,0.05127356946468353,0.04594196379184723,0.05039311200380325,0.02740170620381832,0.01569601334631443,0.04707074910402298,-0.029796399176120758,-0.01147894561290741,-0.06280550360679626,-0.020771171897649765,0.0028125164099037647,-0.059244394302368164,0.0028954544104635715,-0.01663346216082573,-0.03390377014875412,-0.013912982307374477,0.045314982533454895,-0.03635273873806,-0.026191556826233864,0.00022916078160051256,-0.032962217926979065,-0.04208873584866524,0.09743251651525497,0.009898491203784943,0.03077991120517254,0.010905256494879723,0.02448897436261177,0.060668930411338806,0.026075562462210655,0.018764100968837738,0.016689224168658257,-0.03935311362147331,0.01493898406624794,0.0005417048232629895,0.023837044835090637,0.020950818434357643,-0.009516731835901737,-0.022304117679595947,0.022326763719320297,0.002701192395761609,0.009302282705903053,0.03203396126627922,0.004955591168254614,-0.002768514212220907,0.02281227707862854,-0.028156334534287453,0.005871417000889778,-0.03203931450843811,0.06826630979776382,0.009818646125495434,-0.025191811844706535,-0.012168515473604202,-0.006338232196867466,0.0005148414638824761,-0.030319685116410255,-0.018687395378947258,0.007241908460855484,0.03621983155608177,0.047352224588394165,0.0018053281819447875,0.010078336112201214,0.02700938656926155,-0.004805536009371281,-0.03951971232891083,0.050472844392061234,-0.01160807441920042,-0.02296743169426918,0.033463895320892334,-0.01600787788629532,-0.033696021884679794,-0.0026628803461790085,0.007377232890576124,0.03661875054240227,-0.0029421369545161724,-0.03316698968410492,0.034268151968717575,-0.04615245386958122,0.02867525815963745,0.06250583380460739,0.02746577188372612,0.021690398454666138,0.017737433314323425,-0.018816925585269928,-0.0066103823482990265,0.03074715845286846,-0.03546520695090294,-0.019053077325224876,-0.0023092760238796473,0.013060792349278927,0.013286719098687172,-0.021241864189505577,-0.0005681488546542823,0.07167516648769379,-0.011897754855453968,0.05857536941766739,0.02319556660950184,-0.06501215696334839,0.013371165841817856,0.02568088471889496,0.027453696355223656,-8.178073767339811e-05,0.012824639678001404,0.02770380489528179,0.028106724843382835,0.008973868563771248,0.006693272851407528,0.00016830577806103975,0.02061598002910614,0.015689430758357048,0.006528438534587622,0.027702800929546356,-0.06152014806866646,0.041268400847911835,-0.05889557674527168,-0.018016288056969643,0.027816850692033768,0.014856395311653614,-0.019661957398056984,-0.023719800636172295,-0.013585655950009823,0.03211174160242081,0.047041911631822586,-0.0005046488950029016,-0.04515451192855835,0.06252770125865936,-0.0038734525442123413,0.007960713468492031,0.02407767064869404,-0.014140279963612556,-0.023414311930537224,0.020732063800096512,0.01403646357357502,0.0006701791426166892,0.05043155699968338,0.007634713780134916,-0.045388586819171906,-0.024045569822192192,-0.006402920000255108,0.00857020728290081,0.0046183574013412,-0.035675469785928726,0.0005542237777262926,0.029349125921726227,-0.00592315336689353,0.013671079650521278,0.04095618799328804,-0.0484902523458004,0.01192479394376278,-0.00884846318513155,-0.03184690326452255,0.0104465801268816,0.03937404975295067,0.016839679330587387,-0.00646539032459259,0.010835491120815277,0.04945759475231171,0.019969167187809944,-0.03182028606534004,0.0307944193482399,-0.03532671928405762,-0.03715832903981209,-0.01790590025484562,-0.06329350918531418,0.012863644398748875,0.00553573202341795,0.03144232556223869,0.013970787636935711,-0.0057076578959822655,-0.02798997424542904,-0.06729492545127869,-0.07280569523572922,0.008702414110302925,0.03239826485514641,0.03494009003043175,0.0017512220656499267,0.019374441355466843,0.034933336079120636,0.026835963129997253,-0.014583836309611797,-0.03885212168097496,0.007813907228410244,-0.025214210152626038,-0.03023306280374527,0.009893483482301235,0.011155321262776852,0.012219250202178955,0.02712319977581501,-0.001995171420276165,0.03759623318910599,0.02417338453233242,-0.049716174602508545,-0.03830524906516075,-0.028139255940914154,0.004966528620570898,-0.02589191310107708,0.0037885948549956083,-0.010740949772298336,0.006914928555488586,-0.014469065703451633,-0.025186562910676003,0.032955601811409,0.03585900366306305,-0.035334035754203796,-0.0243461225181818,0.00021242974617052823,0.018207916989922523,0.03701120242476463,0.006867476738989353,-0.018862849101424217,-0.03659158945083618,-0.042431071400642395,0.014714796096086502,0.023475047200918198,-0.023079892620444298,0.024520322680473328,0.014062969945371151,0.046528905630111694,-0.0004598070227075368,-0.05328318476676941,-0.02409549057483673,0.019877420738339424,0.0034814863465726376,-0.020425669848918915,-0.027605177834630013,0.022004155442118645,0.033335424959659576,0.007920901291072369,0.03274087980389595,0.003625274635851383,0.012648498639464378,-0.07064929604530334,0.02333984710276127,0.041884709149599075,0.059739064425230026,0.0001381964684696868,0.0389895997941494,0.0028369466308504343,0.014949076808989048,-0.030291739851236343,0.012745216488838196,-0.07694695144891739,0.02715187706053257,-0.00813053734600544,0.023402566090226173,0.02491086907684803,-0.006517421454191208,-0.012311238795518875,0.0172278955578804,-0.031603772193193436,0.008863097988069057,-0.014769049361348152,-0.03841758891940117,0.04208355396986008,-0.02549264021217823,-0.04934576526284218,-0.014181242324411869,0.02077743597328663,0.06255438178777695,0.02481880411505699,0.004596593324095011,0.014944980852305889,-0.004395159427076578,0.023720920085906982,-0.03191160410642624,-0.007313257083296776,0.014972834847867489,0.06749824434518814,-0.021612392738461494,0.00508992001414299,0.010907711461186409,0.010662623681128025,-0.01114588137716055,0.028696198016405106,-0.00989918876439333,0.007670970167964697,-0.012117893435060978,-0.042840298265218735,-0.009510623291134834,0.0008296060841530561,0.008547198958694935,0.0027517678681761026,0.04982015863060951,0.017565375193953514,0.0026135393418371677,-0.031553253531455994,0.025519898161292076,0.06896816194057465,0.005276683252304792,-0.00688282260671258,-0.051064811646938324,-0.00985909067094326,0.017854463309049606,-0.02544514089822769,0.03991106152534485,0.008406005799770355,0.019825192168354988,-0.03671528771519661,0.01637885719537735,-0.00041038848576135933,-0.015735452994704247,0.02922777831554413,-0.022825129330158234,-0.019685707986354828,-0.03279385343194008,-0.0028649899177253246,-0.012480084784328938,0.02315603382885456,0.04434382542967796,-0.039387721568346024,-0.04659547656774521,-0.09111656993627548,0.01833309419453144,0.01585392653942108,0.034359320998191833,-0.02881014160811901,-0.03039701096713543,-0.051264937967061996,-0.009245704859495163,0.049839794635772705,-0.03026360273361206,0.011255106888711452,-0.012030409649014473,0.03026333451271057,0.015109009109437466,-0.052967749536037445,-0.03739241510629654,0.04594295844435692,-0.00743991881608963,-0.004933997523039579,-0.006927824113518,-0.003890036605298519,0.042525697499513626,0.048856865614652634,0.02631247416138649,0.0034875907003879547,0.022346200421452522,-0.0038098683580756187,0.005772023927420378,0.036916665732860565,-0.027338342741131783,-0.02433892711997032,0.0052660792134702206,-0.01572469063103199,-0.035454824566841125,0.04190093278884888,0.0005020595854148269,-0.035094600170850754,0.013399177230894566,0.005343178752809763,-0.018472805619239807,-0.01066563744097948,-0.06118045374751091,0.04677147790789604,0.004994912073016167,0.015441777184605598,0.003132499987259507,0.032572194933891296,-0.010347684845328331,-0.022776469588279724,-0.014308346435427666,-0.0056925988756120205,0.0002082096179947257,0.029376691207289696,-0.032573483884334564,-0.024157309904694557,-0.056582726538181305,0.03499735891819,0.0014217300340533257,-0.025760706514120102,-0.009897450916469097,0.0019515376770868897,-0.009806325659155846,0.03320137411355972,-0.049413152039051056,-0.011406129226088524,0.030870703980326653,-0.0005970359197817743,-0.01460790541023016,0.02116154134273529,0.036593977361917496,-0.03768722340464592,0.013238616287708282,0.020716547966003418,0.0005231112590990961,0.022754674777388573,-0.01718524470925331,0.0028347796760499477,0.010763595812022686,-0.057009268552064896,0.016435101628303528,0.009378048591315746,0.0460541769862175,-0.006323615554720163,-0.04295116662979126,0.03217778727412224,-0.006379176862537861,-0.03373038396239281,0.0018805812578648329,-0.012460351921617985,0.0526493638753891,0.010947315953671932,-0.008604907430708408,-0.04949451982975006,-0.03573111444711685,-0.04448230192065239,-0.00539434002712369,0.041259489953517914,-0.046870458871126175,0.025679469108581543,-0.016742253676056862,-0.022928260266780853,0.015162310563027859,0.03172816336154938,0.01578310690820217,0.057340849190950394,0.04031230881810188,0.009562217630445957,0.035951416939496994,0.04636191576719284,-0.014260215684771538,0.05340486019849777,0.011590135283768177,-0.0052130273543298244,0.001829233136959374,-0.03791371360421181,-0.0009241863153874874,-0.008666282519698143,0.0016862938646227121,-0.05869847908616066,-0.004048680420964956,-0.0018731894670054317,0.04738226532936096,0.009765210561454296,-0.020557327196002007,-0.011977140791714191,-0.04424629360437393,0.027553251013159752,-0.05155352130532265,0.0009053918765857816,-0.015528772957623005,0.005801813676953316,0.01476812269538641,-0.04434416443109512,0.001154169556684792,0.028036698698997498,0.001772139105014503,0.01055990532040596,0.03914115950465202,0.004135461058467627,0.01169959083199501,0.06830859184265137,0.006864715833216906,0.0276474766433239,-0.05933745577931404,0.011646819300949574,0.01266981940716505,0.01655641384422779,-0.03396395966410637,0.00449431873857975,-0.04246180132031441,0.00304792495444417,0.01726028136909008,-0.010579082183539867,0.018567241728305817,0.01599503867328167,-0.007478769868612289,0.014506070874631405,0.00996895506978035,-0.03019755519926548,-0.013795793987810612,-0.060701970010995865,0.044103775173425674,-0.03732217103242874,-0.0044887433759868145,0.06442687660455704,0.045092567801475525,0.04411374777555466,0.009661806747317314,0.023695703595876694,0.013481122441589832,0.033677276223897934,-0.010577642358839512,-0.04324514791369438,0.059675414115190506,-0.025537757202982903,0.05842844769358635,-0.019893184304237366,-0.03865944966673851,0.01674480363726616,-0.0043036965653300285,0.0008423898834735155,-0.018637340515851974,-0.042542506009340286,-0.05525444447994232,0.040092796087265015,0.02708386816084385,0.013096564449369907,-0.022294869646430016,0.013680587522685528,0.048126865178346634,0.004224372562021017,0.03758884593844414,-0.0324251726269722,-0.10670222342014313,0.014182684011757374,-0.005921114236116409,-0.08458801358938217,0.04000294953584671,0.011790587566792965,-0.0038447731640189886,0.05200711637735367,-0.01453627459704876,0.03185642883181572,-0.012610374949872494,0.006378484424203634,0.023191368207335472,0.0517931766808033,0.03448000177741051,-0.003497985191643238,0.007255523931235075,0.03571167588233948,0.21865665912628174,0.032026953995227814,0.050666891038417816,-0.040872666984796524,0.02297607995569706,-0.04789154231548309,0.011409309692680836,0.007423371076583862,0.0005875841598026454,-0.026676209643483162,0.0019993940368294716,0.03741113469004631,0.05839560180902481,0.006855568382889032,0.025418467819690704,0.0470048151910305,-0.0025344346649944782,-0.05253834277391434,0.03081933967769146,-0.014807334169745445,-0.014176871627569199,-0.013880867511034012,-0.03960232436656952,-0.046559859067201614,0.04765781760215759,-0.01570000872015953,0.014455283060669899,-0.04152645915746689,0.004005616996437311,0.0341465100646019,-0.00800473801791668,0.03604009374976158,-0.003456620965152979,0.03038446418941021,0.028456630185246468,0.016782330349087715,-1.9250230252509937e-05,-0.024045521393418312,-0.0430561900138855,0.011201290413737297,0.029442256316542625,0.00500066950917244,-0.015314474701881409,-0.007363227196037769,-0.0319184884428978,-0.03279249742627144,-0.022385908290743828,-0.002814140170812607,0.011968817561864853,0.005105209071189165,-0.004556054249405861,-0.0036214874126017094,0.003907240927219391,-0.053748831152915955,-0.055286698043346405,-0.001383705995976925,0.022015193477272987,0.023897705599665642,-0.05594392493367195,-0.04614761844277382,0.04775877669453621,-0.011601940728724003,0.014027072116732597,0.02718331478536129,0.002616642974317074,0.02380768209695816,-0.01620020903646946,0.07464560866355896,-0.0021277025807648897,0.003294300986453891,-0.009134404361248016,-0.018447784706950188,-0.015355490148067474,-0.0432329885661602,-0.03615567460656166,0.027351411059498787,-0.009020974859595299,-0.00897199846804142,-0.04443111643195152,-0.036785196512937546,0.01620667055249214,0.005988681688904762,-0.006581674795597792,-0.0009996338048949838,-0.02021176554262638,-0.03208869323134422,-0.018668117001652718,-0.012458371929824352,-0.03174895420670509,-0.04502156004309654,-0.03929198905825615,0.06841263920068741,0.013132150284945965,-0.010291810147464275,-0.005465786904096603,0.008668286725878716,-0.03789713233709335,-0.005870749242603779,-0.03022938221693039,0.053219784051179886,0.021107986569404602,0.0087113156914711,0.023038797080516815,0.015985172241926193,-0.04719671607017517,0.036837924271821976,0.043901409953832626,-0.010245420038700104,-0.009062164463102818,0.00941484235227108,0.031965650618076324,-0.03316110000014305,0.009030785411596298,-0.056802913546562195,0.005245838314294815,-0.05227566510438919,0.008362019434571266,-0.04067818075418472,-0.008897359482944012,-0.023373769596219063,0.04433813318610191,0.004900091327726841,0.029501978307962418,-0.026737360283732414,-0.00949073862284422,0.026832032948732376,0.020805370062589645,-0.0163834597915411,0.023633552715182304,-0.027635566890239716,-0.028503188863396645,0.011430041864514351,-0.052712682634592056,0.01283347699791193,0.009305695071816444,0.00759259145706892,0.02275395765900612,0.02045648917555809,-0.02215905301272869,-0.018256979063153267,-0.018282730132341385,0.016355596482753754,-0.019225377589464188,0.04055529832839966,-0.035113684833049774,0.009357529692351818,0.01901833899319172,-0.026904376223683357,0.03670511767268181,0.035305242985486984,-0.027552345767617226,-0.034672945737838745,0.01947619952261448,0.0074822199530899525,0.011518226936459541,0.03832298517227173,-0.04419659078121185,-0.006071465089917183,-0.03648729994893074,0.017484935000538826,0.017276152968406677,0.033080872148275375,0.019959965720772743,-0.055804599076509476,0.0018874224042519927,-0.010637179017066956,-0.035361047834157944,0.016418687999248505,0.018489522859454155,0.04557947814464569,-0.02342667058110237,-0.012147711589932442,0.009480326436460018,0.005100657697767019,-0.05935956910252571,-0.03300422430038452,-0.0012826884631067514,0.01087498664855957,0.0604485422372818,-0.02524528093636036,0.014648394659161568,-0.0026553962379693985,-0.0547940731048584,0.0034629791043698788,0.0029166480526328087,-0.045107126235961914,-0.02064993791282177,0.03372848778963089,0.006368950940668583,0.002229024888947606,-0.01954558864235878,0.009784323163330555,-0.015811268240213394,0.014228200539946556,-0.012163064442574978,-0.035490766167640686,0.007487947586923838,0.01934625394642353,0.000869005685672164,-0.0370744913816452,0.02706928178668022,-0.0384739451110363,-0.026010828092694283,0.033707473427057266,-0.041879620403051376,-0.012158416211605072,0.013639925979077816,0.034037087112665176,-0.008087572641670704,0.02134254202246666,-0.025550520047545433,-0.002015999285504222,-0.0010418129386380315,0.0022584383841603994,-0.014409092254936695,0.037338390946388245,-0.02302105538547039,-0.046503957360982895,0.028468457981944084,0.0008014885825105011,-0.024551130831241608,0.041340310126543045,-0.04419751465320587,-0.001760328421369195,0.0009618860203772783,-0.01555690448731184,0.03194677084684372,-0.04555230960249901,-0.0022924921941012144,-0.0418245755136013,0.004096070770174265,0.0003804559528362006,0.01203764695674181,0.0030636826995760202,0.01137162558734417,-0.023783734068274498,0.00461936229839921,-0.043235402554273605,-0.005901263561099768,-0.03656332567334175,-0.021142395213246346,0.006321394350379705,-0.016000661998987198,0.04295285791158676,0.009658772498369217,0.007832147181034088,-0.025788739323616028,0.06617564707994461,-0.014997235499322414,0.011558124795556068,-0.009088740684092045,0.015502071008086205,0.06767071038484573,-0.048487965017557144,0.022516101598739624,0.0449378564953804,-0.011064773425459862,-0.017573654651641846,-0.004607601091265678,0.023086130619049072,0.04635755345225334,0.03951297327876091,0.013348907232284546,-0.01861707679927349,-0.047066815197467804,0.04221571236848831,-0.0019502254435792565,-0.003702322253957391,-0.01350017637014389,-0.016893800348043442,-0.006895292550325394,0.02627156302332878,0.037329889833927155,-0.024551058188080788,-0.022283893078565598,0.03713242709636688,-0.025805551558732986,-0.005834003910422325,-0.04946812614798546,-0.039911068975925446,-0.013150917366147041,0.008419289253652096,-0.038848284631967545,0.06191433221101761,0.023923225700855255,0.0029475330375134945,0.02026364766061306,-0.007101895287632942,-0.0606754794716835,0.04227311164140701,0.02060437574982643,-0.017737925052642822,-0.0573100820183754,-0.048822659999132156,0.0043242271058261395,-0.07935115694999695,-0.0052193826995790005,0.03680429980158806,-0.006591704674065113,-0.002588920295238495,0.047543805092573166,0.04805814102292061,0.04385310411453247,0.027093466371297836,0.0007302287849597633,-0.03730293735861778,-0.017817778512835503,0.04979158565402031,0.052805930376052856,0.005523360334336758,0.0028395657427608967,-0.007038229610770941,-0.007743387017399073,-0.025711648166179657,0.05576356127858162,0.015634460374712944,0.047399163246154785,-0.0154264522716403,0.03277602419257164,-0.019778039306402206,-0.029288602992892265,-0.0007114913314580917,0.022106584161520004,-0.0008390429429709911,0.0707002505660057,-0.026891088113188744,0.00928366556763649,8.320649794768542e-05,0.001991650788113475,-0.00448769424110651,0.0007473165169358253,-0.005862568970769644,0.005340054165571928,-0.0017407459672540426,-0.05167810246348381,-0.04193807765841484,-0.02575191669166088,0.022033797577023506,-0.02706601656973362,-0.022351564839482307,-0.017848500981926918,0.008026257157325745,0.003631927538663149,-0.05093527212738991,-0.03321791812777519,-0.010722451843321323,-0.042548201978206635,0.028932737186551094,-0.008406774140894413,-0.039986517280340195,-0.07950694859027863,-0.027615686878561974,0.03606421500444412,-0.046579811722040176,-0.0014691774267703295,-0.034111138433218,-0.020388709381222725,-0.0013634935021400452,0.0024788177106529474
alegian/thaumcraft7,-0.00797335896641016,-0.06347008049488068,0.0424090251326561,0.01906115747988224,0.016291430220007896,-0.006449477281421423,-0.03789777681231499,0.049701474606990814,0.011704671196639538,-0.02397371083498001,0.04891707003116608,0.05893421545624733,0.041113585233688354,0.06856456398963928,0.01939167082309723,0.013094276189804077,0.011020834557712078,-0.009642641060054302,-0.003847977612167597,-0.034057892858982086,0.023329852148890495,-0.021548565477132797,-0.02655060961842537,0.023036377504467964,-0.036606382578611374,0.03254749998450279,-0.030302997678518295,-0.023031827062368393,-0.019131440669298172,0.03513629734516144,-0.030723677948117256,-0.05039791017770767,0.020839307457208633,-0.03166024759411812,0.042612239718437195,-0.004255746491253376,-0.02695992961525917,-0.024149933829903603,0.0030555680859833956,0.011186997406184673,-0.010753455571830273,0.025500278919935226,-0.006254855077713728,0.05089128762483597,0.004973402712494135,0.013059059157967567,-0.005608422216027975,0.010894213803112507,0.05884803459048271,-0.04035988822579384,0.04352930933237076,-0.04019193723797798,0.03219829499721527,-0.007316244300454855,-0.008779111318290234,0.03139595314860344,0.028229907155036926,0.060405924916267395,-0.012036585249006748,-0.01462454441934824,-0.0036185539793223143,-0.01950525864958763,0.03932036831974983,-0.01211909856647253,-0.04266711324453354,0.011541333049535751,-0.03251231834292412,-0.030500374734401703,0.04976293817162514,-0.026054969057440758,0.0060185338370501995,0.03491987660527229,0.02586395852267742,0.0013413316337391734,0.050690170377492905,-0.036922477185726166,-0.004669688176363707,0.017711957916617393,0.032748810946941376,0.042393844574689865,0.0007024628575891256,0.011084512807428837,-0.018568651750683784,0.005146015901118517,0.05583876371383667,-0.017421968281269073,0.04280228167772293,-0.034449946135282516,-0.0067336480133235455,0.015350816771388054,0.03611738607287407,-0.007574120536446571,0.04296914115548134,0.031442515552043915,-0.025706525892019272,0.002710765227675438,0.015402263030409813,0.034255534410476685,0.01039003673940897,-0.023954642936587334,-0.0035305265337228775,0.0037979446351528168,0.022111641243100166,0.043820321559906006,-0.012414387427270412,-0.012608918361365795,-0.004128866828978062,-0.03316587582230568,-0.033738259226083755,0.012667015194892883,-0.052687328308820724,0.024496302008628845,-0.0033905943855643272,0.013218684121966362,-0.02000332437455654,-0.03179168328642845,-0.04034235328435898,0.014716630801558495,0.06115149334073067,0.056256286799907684,0.05921733006834984,0.018653564155101776,0.010559076443314552,-0.031875476241111755,-0.08004318922758102,0.04297523945569992,0.0414549745619297,-0.024140404537320137,-0.010784938931465149,0.02330835536122322,0.010361180640757084,-0.01843075454235077,0.01415618322789669,-0.039536938071250916,0.022409792989492416,0.015577796846628189,-0.08697489649057388,-0.07532152533531189,0.06349088251590729,0.031129417940974236,-0.012845804914832115,-0.04722072556614876,0.032945018261671066,0.009872015565633774,0.06363769620656967,0.027021499350667,0.00914361234754324,0.015678836032748222,-0.0023773498833179474,-0.0005428388831205666,-0.06148054450750351,0.0010391200194135308,-0.03151531144976616,-0.01466201338917017,-0.026416713371872902,-0.044288814067840576,-0.009536494500935078,0.011421438306570053,-0.0053433566354215145,-0.01651475392282009,0.04887793958187103,-0.014447017572820187,-0.0011044073617085814,-0.007257468998432159,-0.05152394622564316,-0.06912874430418015,0.08327065408229828,0.007156514097005129,0.03836645931005478,0.008015619590878487,-0.002752714790403843,0.004734734073281288,0.048980146646499634,0.019647149369120598,0.04981035739183426,-0.012190880253911018,0.024967774748802185,-0.001201625564135611,0.02509140968322754,0.014452768489718437,-0.04401879385113716,-0.023615092039108276,0.03254976496100426,0.018158037215471268,0.046024128794670105,0.0009548332309350371,-0.016363494098186493,-0.005781142506748438,0.021526923403143883,-0.05156679078936577,-0.04919121786952019,-0.025596264749765396,0.010790043510496616,-0.04281318560242653,-0.04293329641222954,-0.004773889202624559,-0.024468757212162018,0.0075617143884301186,-0.007643764838576317,-0.0073712058365345,-0.019014153629541397,0.03074781410396099,0.007477275095880032,-0.027504241093993187,0.009286600165069103,0.004262943752110004,0.052985258400440216,-0.023683104664087296,0.03665968030691147,-0.040864497423172,-0.03318248316645622,0.02914060838520527,-0.019490722566843033,0.03142968937754631,-0.007390464190393686,0.00965999998152256,0.00908582005649805,0.03401835635304451,-0.022202204912900925,0.02086876519024372,-0.021586040034890175,0.04555320367217064,0.06239030137658119,0.0359775610268116,0.04404279962182045,0.050705742090940475,-0.00197100592777133,-0.0032266092021018267,0.009663478471338749,-0.04765792191028595,0.021860115230083466,-0.03791242092847824,0.02846333011984825,0.02461307682096958,-0.010895789600908756,0.009091710671782494,0.03664999082684517,-0.0010827602818608284,0.04214740917086601,0.011523164808750153,-0.05560163035988808,-0.006423783954232931,0.03416570648550987,0.026508543640375137,-0.017479097470641136,0.031127804890275,-0.004598882514983416,0.020388159900903702,0.0272243432700634,-0.0008444985724054277,-0.025662019848823547,0.04841260612010956,0.035508543252944946,0.0083595747128129,0.0020519630052149296,-0.027795812115073204,0.0615849569439888,-0.05405949056148529,-0.0023337441962212324,0.04433437064290047,-0.005159471649676561,-0.0005781165673397481,-0.013364934362471104,-0.02479754388332367,0.014869972132146358,0.026857294142246246,0.000752106832806021,-0.03367842361330986,0.06119653955101967,-0.0030943576712161303,0.023773042485117912,-0.01523683127015829,-0.0445379912853241,-0.01683526113629341,-0.004882835783064365,0.037503987550735474,0.014019694179296494,0.06460049003362656,-0.015682319179177284,-0.020744504407048225,-0.027461517602205276,0.0070373620837926865,0.01065912563353777,0.009417176246643066,-0.04598643630743027,0.026734771206974983,0.024027546867728233,-0.02128610759973526,0.04137967899441719,0.036870576441287994,-0.0421416237950325,0.01810556650161743,0.005360317416489124,-0.02526300773024559,0.0030618624296039343,0.028560161590576172,0.019104525446891785,0.02012154646217823,0.0063714697025716305,0.007194348145276308,0.019279593601822853,-0.037511568516492844,0.011228491552174091,-0.050600674003362656,-0.032486896961927414,0.0028144221287220716,-0.022929077968001366,-0.03119545802474022,-0.043047238141298294,0.05666469782590866,0.006703742779791355,0.0012678861385211349,-0.022587154060602188,-0.051681987941265106,-0.0652865469455719,0.009672853164374828,0.0033011282794177532,0.021751902997493744,-0.004178113304078579,-0.032695602625608444,0.009499010629951954,0.050509773194789886,-0.03996341675519943,-0.0372040681540966,-0.030854754149913788,0.020175939425826073,-0.07773514091968536,-0.001566390274092555,0.04449688643217087,0.009032207541167736,0.017025472596287727,0.012699970975518227,0.03246841952204704,0.02051234245300293,-0.034646399319171906,-0.007299194112420082,-0.018856106325984,0.005052885506302118,-0.0504501648247242,0.0023562076967209578,0.05339282006025314,0.00293559767305851,-0.0016949945129454136,-0.01928843930363655,0.018379924818873405,0.019997306168079376,-0.03454666957259178,-0.00854629185050726,-0.022437069565057755,0.027024589478969574,-0.021069537848234177,-0.02767268940806389,0.01466371864080429,-0.036396756768226624,-0.03458138927817345,0.04364945366978645,0.03424610570073128,-0.03968515619635582,0.02743755467236042,0.022621478885412216,0.03791043534874916,0.0028536487370729446,-0.05282137915492058,-0.03261189162731171,0.03990405052900314,0.020627543330192566,0.01667863130569458,-0.005768937524408102,0.022441906854510307,0.032453931868076324,-0.012785485945641994,0.03929810971021652,-0.013121395371854305,0.005892768502235413,-0.06875331699848175,-0.030073251575231552,0.01586560532450676,0.05792196840047836,0.009821472689509392,0.039010535925626755,0.0038285793270915747,0.02056066319346428,-0.0006075475830584764,0.02025637961924076,-0.08512251824140549,0.013268444687128067,-0.008862612769007683,-0.008479898795485497,0.03191462159156799,0.03406146913766861,0.009955475106835365,0.013602514751255512,-0.0323357880115509,-0.0002073868818115443,-0.04753493145108223,-0.03278074413537979,0.060609180480241776,-0.004300869535654783,-0.03517530858516693,0.032465122640132904,0.04841531813144684,0.04556335508823395,0.00916545744985342,0.0075727058574557304,0.020689452067017555,0.0002220868191216141,0.001950540579855442,-0.03159419447183609,0.0039679924957454205,-0.02182481810450554,0.07791102677583694,0.02430165745317936,0.010981150902807713,-0.0473669208586216,-0.015989137813448906,0.011589338071644306,0.03427628427743912,-0.04429415985941887,0.01068107970058918,-0.031128164380788803,-0.0357784777879715,-0.02663949504494667,0.005334914196282625,0.017351316288113594,-0.009263350628316402,0.047796010971069336,0.017577068880200386,0.007802261039614677,-0.029051871970295906,0.04130575433373451,0.042029526084661484,0.0062280804850161076,0.0033457705285400152,-0.04824863746762276,-0.0051741208881139755,0.025735417380928993,-0.030320262536406517,-0.005479891784489155,0.05167708545923233,-0.0019643218256533146,-0.030936812981963158,0.005587824620306492,-0.00799365434795618,-0.026641162112355232,0.037342946976423264,-0.01918935589492321,0.021593917161226273,-0.00013087554543744773,0.004976601339876652,0.009941990487277508,-0.0016783066093921661,0.004902686923742294,-0.039274007081985474,-0.050529446452856064,-0.1113118901848793,0.02092646062374115,0.03707898035645485,0.021933721378445625,-0.048688869923353195,-0.025955867022275925,-0.069798544049263,-0.04013757035136223,0.0024760463275015354,-0.04547489061951637,-0.000642678583972156,-0.022076740860939026,0.03179245442152023,-0.010858571156859398,-0.025042662397027016,-0.04499400034546852,0.01883404143154621,0.01932036317884922,-0.018483750522136688,-0.012164490297436714,0.005761286709457636,-0.0011596695985645056,0.024448802694678307,-0.008313758298754692,0.014940382912755013,-0.0018182516796514392,-0.047463465481996536,-0.00814165361225605,0.031372006982564926,-0.027308307588100433,-0.011038010008633137,0.02088163048028946,-0.010466331616044044,-0.012544981203973293,0.012965763919055462,-0.02040107734501362,-0.01753109134733677,0.036459919065237045,0.00753732118755579,-0.03629261255264282,-0.015527881681919098,-0.045014433562755585,0.03355855494737625,-0.003334596287459135,0.0420137383043766,0.03538098931312561,0.02944859489798546,-0.017163418233394623,0.0002680211327970028,-0.002845140639692545,-0.006513283587992191,-0.03561331704258919,0.05599277839064598,-0.007130621001124382,0.005370728671550751,-0.05656164512038231,0.06198441609740257,-0.003137196647003293,0.027793575078248978,-0.006238559726625681,0.02641758695244789,-0.020035788416862488,0.0427725650370121,-0.04570908844470978,-0.026107696816325188,0.0298068318516016,0.03249898552894592,0.0013130019651725888,0.016531337052583694,0.01955544576048851,-0.04555407166481018,0.018104901537299156,0.008597617968916893,-0.0003227985289413482,0.047160256654024124,0.0012857170077040792,0.002087299944832921,0.030578572303056717,-0.03846581652760506,0.03028992936015129,-0.0032124114222824574,0.06116736680269241,-0.012218460440635681,-0.03604498505592346,-0.01139575894922018,0.0027954240795224905,-0.023145634680986404,-0.0029948600567877293,-0.024143822491168976,0.05931664630770683,0.038963790982961655,-0.0017911260947585106,-0.01910855621099472,-0.023727331310510635,-0.05117880925536156,0.009437553584575653,0.03680279478430748,-0.0216794665902853,0.01727793738245964,-0.019709967076778412,-0.02850346639752388,0.02808339148759842,0.048097144812345505,6.759291864000261e-05,0.019991986453533173,-0.0020514256320893764,0.038457807153463364,0.05371483787894249,0.0317145437002182,0.011469172313809395,0.03227917104959488,0.008697893470525742,-0.010136774741113186,-0.018278295174241066,-0.05386042222380638,0.008142002858221531,0.0076320418156683445,-0.06357928365468979,-0.003821814898401499,0.03479817137122154,-0.013284038752317429,0.041091419756412506,0.007056329865008593,-0.011960308998823166,-0.04548948258161545,-0.060286179184913635,0.0036654197610914707,-0.001813229057006538,-0.001990061951801181,-0.04734520986676216,-0.008012219332158566,0.0010072847362607718,-0.011657258495688438,-0.0011590783251449466,0.004896725062280893,0.011342485435307026,-0.005873700603842735,0.06678712368011475,0.0029590437188744545,0.025981124490499496,0.05291406810283661,0.006893323268741369,0.010895187966525555,-0.031020063906908035,0.02673790603876114,0.045532096177339554,-0.0037421067245304585,-0.02644786611199379,0.0023366021923720837,-0.05698828026652336,0.024257812649011612,0.0365021638572216,-0.01809915155172348,0.06035321205854416,-0.0020294063724577427,0.007741213776171207,-0.021365532651543617,-0.0015771259786561131,-0.024638384580612183,0.004960065707564354,-0.04829373583197594,0.07654547691345215,-0.04811027646064758,-0.02391430176794529,0.02380167692899704,0.034201961010694504,0.009257249534130096,0.015254310332238674,0.01174490712583065,0.01840047352015972,0.0005802224040962756,-0.03572210669517517,-0.022781047970056534,0.052199218422174454,-0.010562599636614323,0.056398309767246246,-0.00464845634996891,-0.028174258768558502,0.031741250306367874,0.04160221293568611,-0.03983172029256821,-0.04400574788451195,-0.06353775411844254,-0.058368198573589325,-0.005042169243097305,0.034818731248378754,-0.020751668140292168,-0.005316408351063728,-0.02157735452055931,0.013582905754446983,-0.005354832857847214,0.05248640850186348,-0.04046976938843727,-0.05384061485528946,0.01231489609926939,-0.017063800245523453,-0.05647224560379982,0.06330091506242752,-0.03105810470879078,-0.0051033999770879745,0.03858204931020737,-0.02893415093421936,0.037376467138528824,-0.00927942804992199,0.006204917561262846,0.034268274903297424,0.05358066409826279,0.021458376199007034,0.009371592663228512,-0.0022903834469616413,0.014952198602259159,0.20333606004714966,0.07083435356616974,0.04037877544760704,-0.05768103525042534,-0.015537534840404987,0.013942377641797066,0.010769495740532875,-0.018541019409894943,0.014971372671425343,-0.0104214483872056,-0.004903757479041815,0.06614889949560165,0.03318259119987488,0.05145425349473953,0.052063215523958206,0.029075058177113533,0.011774526908993721,-0.04050734266638756,0.00468670018017292,-0.03459727764129639,0.0007445739465765655,0.0030091118533164263,-0.051998917013406754,-0.04823140799999237,0.06737419217824936,0.012453529983758926,0.022466477006673813,-0.04501286894083023,0.02478477545082569,0.027211418375372887,0.012179166078567505,0.012721040286123753,-0.021182803437113762,0.05023731663823128,0.02485852874815464,-0.01422160491347313,0.0023759310133755207,-0.00032601499697193503,-0.016061730682849884,0.02600623294711113,0.03684015944600105,0.0030504504684358835,-0.010730518959462643,0.03072161041200161,-0.036580584943294525,-0.00794325489550829,-0.010033291764557362,-0.05195159465074539,-0.005164734087884426,-0.007113951724022627,-0.019153153523802757,-0.008033004589378834,0.0045356485061347485,-0.03368809074163437,-0.05771435424685478,0.004802096169441938,0.014394924975931644,-0.01997286267578602,-0.039050813764333725,-0.03701968491077423,0.010738351382315159,-0.026385895907878876,0.014006557874381542,0.0020181480795145035,0.006591541692614555,0.042899586260318756,-0.008938209153711796,0.04116879403591156,-0.023072682321071625,-0.04114171490073204,-0.03353531286120415,0.031072353944182396,-0.01601351611316204,0.008984859101474285,-0.01782798394560814,0.0393417589366436,0.017646698281168938,0.006071723066270351,-0.015854835510253906,-0.0672430470585823,-0.016823185607790947,-0.004062103573232889,-0.007866542786359787,-0.012052708305418491,-0.013520155102014542,0.006063103675842285,-0.019613267853856087,0.010291229002177715,-0.03930901363492012,-0.01893582195043564,-0.010595680214464664,0.056024182587862015,-0.00037163958768360317,-0.014368816278874874,-0.024479759857058525,-0.00040840174187906086,-0.049865931272506714,-0.008331632241606712,-0.0247823353856802,0.05574581027030945,0.031909096986055374,-0.005770718213170767,0.008494654670357704,0.01881825365126133,-0.03816993534564972,0.0017959667602553964,0.0355006642639637,-0.049007926136255264,-0.020876698195934296,0.00711463950574398,0.007588484324514866,-0.026102477684617043,-0.009639731608331203,-0.016721434891223907,0.004614274483174086,0.003907573409378529,-0.017433539032936096,-0.03702276945114136,-8.373372111236677e-05,-0.042333707213401794,0.02342340536415577,-0.028558235615491867,0.02892177738249302,-0.05457628518342972,-0.032229430973529816,0.029096150770783424,-0.001896682777442038,0.02001403272151947,0.027630172669887543,-0.03612230345606804,0.02254771813750267,0.004150900524109602,-0.010948246344923973,-0.001038252143189311,-0.009209521114826202,-0.023292267695069313,0.0026242483872920275,-0.009243004955351353,-0.00802149809896946,-0.009865348227322102,0.017727011814713478,0.0033215447328984737,-0.006931881885975599,0.029947102069854736,-0.02761123701930046,0.018507691100239754,0.043354809284210205,0.006921068299561739,0.03873877599835396,0.03348345309495926,-0.00990656204521656,0.006660277023911476,0.008701978251338005,0.029690001159906387,0.023189201951026917,0.006089296657592058,0.014854407869279385,0.014551406726241112,-0.029920922592282295,0.0003365088196005672,0.04685477912425995,0.03136702999472618,-0.016017736867070198,-0.009124699048697948,-0.010022367350757122,-0.04247642681002617,-0.01618024706840515,-0.01890505664050579,0.007698936853557825,0.01948557421565056,-0.002991632791236043,-0.015505695715546608,0.0021775600034743547,0.010949705727398396,-0.04982316121459007,-0.027049267664551735,-0.019924161955714226,-0.01069419365376234,0.029154235497117043,-0.039704687893390656,0.008726025000214577,0.026853863149881363,-0.08579662442207336,0.02239895984530449,0.013445312157273293,-0.057702187448740005,-0.04479165002703667,0.05069277808070183,0.016446275636553764,0.03579200431704521,0.0024818468373268843,-0.0050334264524281025,0.016679294407367706,0.042567744851112366,-0.006656169425696135,-0.0072417412884533405,-0.0318726971745491,-0.0027810612227767706,-0.03325117751955986,-0.041968509554862976,0.05484795942902565,-0.07418192923069,-0.028752179816365242,0.011662207543849945,-0.0008506609592586756,-0.010110733099281788,0.02221720851957798,0.056504663079977036,-0.0072188046760857105,0.009804661385715008,-0.020286278799176216,-0.011328652501106262,-0.021072600036859512,0.001017270958982408,0.011007735505700111,0.04215904697775841,0.008962100371718407,-0.010286244563758373,0.003896336769685149,0.012018255889415741,-0.029138198122382164,0.016450222581624985,-0.043969910591840744,-0.001175723155029118,-0.014012607745826244,-0.009593494236469269,0.027637647464871407,-0.05196533352136612,-0.008070939220488071,-0.06505683809518814,0.006052328739315271,0.02565992809832096,-0.0006718566291965544,0.013990182429552078,0.02261979691684246,-0.01599794626235962,-0.021454766392707825,0.027226852253079414,0.010302891954779625,-0.038894928991794586,-0.019715039059519768,0.03449102118611336,-0.030871834605932236,0.027418335899710655,-0.005219788756221533,0.01109998021274805,-0.051078926771879196,0.04816418141126633,-0.04786086082458496,0.0028180370572954416,-0.0048848413862288,-0.0031059477478265762,0.048370711505413055,-0.04932280257344246,0.03266911208629608,0.012690839357674122,-0.007873510010540485,-0.027950072661042213,-0.023833217099308968,0.01761217974126339,0.05188603699207306,0.04147486761212349,-0.029175758361816406,-0.028707491233944893,-0.06772932410240173,0.02933686412870884,0.015313968062400818,-0.015530083328485489,-0.0026100757531821728,-0.008246662095189095,-0.01688707061111927,0.027848010882735252,0.04191078618168831,-0.017551302909851074,0.012020646594464779,0.015031357295811176,-0.01156745757907629,-0.012599966488778591,-0.008684477768838406,-0.02756182663142681,-0.029675111174583435,0.03387587144970894,-1.836091723816935e-05,0.06996259093284607,-0.019569499418139458,0.0074418396688997746,-0.0001323058968409896,-0.0422072559595108,-0.05297115072607994,0.05423382297158241,0.011005916632711887,0.0031051230616867542,-0.053575851023197174,-0.020024651661515236,0.04132693260908127,-0.060678549110889435,0.002233336213976145,0.02431991510093212,0.007917639799416065,-0.011893722228705883,0.04155030846595764,0.02047298289835453,0.03913608565926552,0.012523139826953411,-0.020192699506878853,-0.03077223151922226,-0.04632517322897911,0.02996189519762993,0.05638430267572403,0.013398515060544014,0.02011842653155327,-0.00661420775577426,-0.007474047597497702,-0.0015165985096246004,0.05940011888742447,0.0031217429786920547,0.01771017163991928,-0.027475887909531593,-0.0008250216487795115,0.006051863543689251,-0.02602573111653328,-0.007254977244883776,0.027853796258568764,-0.03720831125974655,0.057707834988832474,-0.00435780780389905,0.02565571665763855,-0.04678918793797493,0.048024509102106094,-0.059966012835502625,0.007548168301582336,-0.01473946962505579,0.0017631618538871408,-0.007176034152507782,-0.020344462245702744,-0.025321276858448982,-0.02107885479927063,0.01640857756137848,-0.04641655087471008,-0.011879995465278625,-0.011177446693181992,0.042950160801410675,-0.008838526904582977,-0.026399342343211174,-0.030203085392713547,-0.029452340677380562,-0.008463334292173386,0.041982900351285934,0.0038709216751158237,-0.047457411885261536,-0.07509736716747284,-0.014306236989796162,0.04205102473497391,-0.052285537123680115,0.011133142746984959,0.006634489167481661,-0.01215418241918087,0.0084984777495265,0.011256066150963306
d1tto/Rengar,0.0070174988359212875,-0.03997396305203438,0.022686077281832695,0.01061090175062418,0.024977149441838264,0.01778697781264782,-0.008606442250311375,0.0014979953411966562,-0.008781521581113338,-0.006301921792328358,0.021276066079735756,0.02617289498448372,0.047317344695329666,0.02602725848555565,-0.047043170779943466,0.00877286121249199,0.020047839730978012,-0.0006086011999286711,-0.02761644497513771,-0.04062782600522041,0.014428620226681232,0.021202601492404938,0.0076594119891524315,-0.0025866017676889896,-0.0206706915050745,0.0055519165471196175,-0.004453857429325581,-0.021066740155220032,0.0061000376008450985,0.019780248403549194,-0.0017651270609349012,-0.028650028631091118,0.003350681159645319,-0.05371470004320145,0.06045718863606453,-0.004255618900060654,-0.024496696889400482,-0.05739982798695564,-0.00779740372672677,0.02149110846221447,-0.006800421513617039,0.009955235756933689,-0.014616473577916622,0.044338274747133255,-0.014331654645502567,0.008395683020353317,-0.01643800176680088,-0.027944600209593773,0.038847967982292175,-0.04053317382931709,0.03643551468849182,-0.007338324561715126,0.029759643599390984,-0.01433727890253067,-0.05108705535531044,0.012875694781541824,-0.034165531396865845,0.040144797414541245,0.012237525545060635,0.002656892640516162,0.013114753179252148,-0.02961120940744877,0.004145382903516293,-0.0010573036270216107,-0.018260367214679718,-0.0250201728194952,0.011180349625647068,-0.02074316330254078,0.030651411041617393,-0.002735766116529703,-0.04280652478337288,0.0339328870177269,0.005894388537853956,0.04032926261425018,0.04654418304562569,-0.0337417908012867,0.024328688159585,0.05622272938489914,0.06008931249380112,0.02399391122162342,0.023703817278146744,-0.0074536860920488834,-0.004450156353414059,0.05608600750565529,0.05550410971045494,-0.005895497743040323,0.0989515408873558,-0.044666893780231476,-0.002312576398253441,0.0038195305969566107,0.003239544341340661,-0.03127666935324669,0.04570898786187172,0.022253364324569702,-0.028437592089176178,-0.001475321943871677,0.017341142520308495,0.047038812190294266,-0.01895991712808609,0.008635313250124454,0.039679113775491714,-0.0350884310901165,0.027175484225153923,0.018106359988451004,0.02057604305446148,0.0007792029646225274,0.00035918771754950285,-0.04775972291827202,-0.035782065242528915,0.029445700347423553,-0.05369133874773979,0.014876331202685833,-0.009999264031648636,0.012478972785174847,0.04075445234775543,-0.0007099867798388004,-0.023462073877453804,0.03744760900735855,0.026974385604262352,0.047438234090805054,0.026544781401753426,0.031126396730542183,0.022568030282855034,-0.029667368158698082,-0.04665815457701683,0.03097841516137123,0.026971731334924698,-0.028836484998464584,-0.018727924674749374,0.04412972554564476,0.010137290693819523,-0.009299826808273792,-0.021246004849672318,-0.031222930178046227,0.06798391044139862,0.01856086775660515,-0.09229042381048203,-0.08673378825187683,0.03704643249511719,0.01616094447672367,0.011446241289377213,-0.041446130722761154,-0.05350421741604805,0.025749875232577324,0.08300790935754776,0.012783536687493324,0.054608188569545746,0.039308298379182816,0.014238200150430202,0.008550981990993023,-0.04555709660053253,0.00734628876671195,-0.030123401433229446,-0.021865766495466232,-0.043928250670433044,-0.06219951808452606,0.008054273203015327,-0.011937439441680908,-0.0014918857486918569,-0.019507277756929398,0.046968210488557816,-0.03629313409328461,0.006817241664975882,0.0375656932592392,-0.018735406920313835,-0.0006373824435286224,0.06982234120368958,0.0036308197304606438,0.04383782669901848,0.007962686009705067,0.03691807761788368,0.021888475865125656,0.043349817395210266,0.019428541883826256,0.04848431423306465,-0.02821800671517849,0.011859513819217682,0.017757585272192955,-0.015508204698562622,0.01478224154561758,-0.04522925242781639,-0.04006008058786392,0.0039622606709599495,-0.011477835476398468,0.009186464361846447,0.02986222133040428,-0.05114150047302246,0.0019875026773661375,0.02215494215488434,-0.030342917889356613,-0.012159783393144608,-0.028455432504415512,0.02690107189118862,-0.01387381087988615,-0.0295852217823267,-0.0024437468964606524,-0.031973179429769516,0.022521741688251495,-0.0033378282096236944,-0.025025170296430588,-0.0077100833877921104,0.05259896069765091,0.04767865687608719,-0.030887681990861893,-0.011383910663425922,0.04350757226347923,0.017146019265055656,-0.05088109150528908,0.02692861668765545,-0.007264711428433657,-0.025555331259965897,0.049134623259305954,0.007464908063411713,-0.02828042395412922,-0.0026018372736871243,-0.01241561584174633,0.009982578456401825,0.021688319742679596,-0.016895921900868416,0.005194734316319227,-0.013628109358251095,-0.0010040757479146123,0.06763289123773575,0.01618882641196251,0.0092259980738163,0.02759455144405365,-0.01677120290696621,-0.027616355568170547,0.02353375405073166,-0.008701305836439133,-0.0008414334733970463,-0.020710831508040428,0.0275759007781744,0.0048353238962590694,-0.04345681145787239,0.013597769662737846,0.08854129910469055,-0.0022002505138516426,0.030786072835326195,0.03402487933635712,-0.04617135971784592,0.012829121202230453,0.033504046499729156,0.004278607666492462,0.013633699156343937,0.03385705128312111,0.02461213804781437,0.03569429740309715,0.017039906233549118,-0.02413090318441391,-0.024802569299936295,0.024594515562057495,0.011815105564892292,0.034051038324832916,0.03512536361813545,-0.07757263630628586,0.03280225396156311,-0.05517633631825447,0.0045095039531588554,0.018526406958699226,0.024879083037376404,-0.003995371051132679,-0.02130005694925785,-0.021961072459816933,-0.0016216746298596263,-0.026611724868416786,0.00630976865068078,0.00023407855769619346,0.06418823450803757,0.02433832548558712,-0.008487096056342125,0.0017620236612856388,0.0012196055613458157,-0.03987479582428932,0.028479890897870064,0.026070943102240562,0.00048104708548635244,0.009356857277452946,0.02579936385154724,0.006343346554785967,0.016148755326867104,-0.01824852079153061,0.0460253469645977,0.018162427470088005,-0.0715675801038742,0.02761080302298069,0.01831570267677307,0.023063145577907562,0.028086228296160698,0.05681130662560463,-0.02283642068505287,0.054023802280426025,-0.01229782123118639,-0.026690056547522545,-0.03091672994196415,0.020900003612041473,0.00907426793128252,0.007871737703680992,-0.01085560955107212,0.04398570954799652,0.0020364096853882074,-0.07044541090726852,0.02315402589738369,-0.0430261492729187,-0.023851092904806137,0.0448172427713871,-0.02032860741019249,0.010360217653214931,-0.021062694489955902,0.04652408882975578,-0.003931326325982809,0.011637521907687187,0.007414332590997219,-0.060012347996234894,-0.056746795773506165,-0.025905869901180267,0.03922726958990097,0.062383983284235,0.02512594312429428,-0.004919947125017643,0.044425297528505325,0.022051077336072922,-0.037646450102329254,-0.04184368997812271,0.016230130568146706,-0.0016296618850901723,-0.04400503262877464,0.011479441076517105,0.002545007271692157,0.005724633112549782,-0.010050562210381031,-0.012159205041825771,0.03925437852740288,0.03304135054349899,-0.03553948551416397,-0.04278924688696861,0.0020610420033335686,0.00650503346696496,-0.02746088057756424,0.007908024825155735,0.023665061220526695,-0.014638697728514671,-0.020210694521665573,-0.02664446271955967,0.011360782198607922,0.031519465148448944,-0.047745656222105026,0.01758173480629921,-0.013922031968832016,0.031131712719798088,0.023048866540193558,0.0043307114392519,0.015983102843165398,-0.023813290521502495,-0.051333311945199966,0.030785558745265007,0.040843598544597626,-0.04688141122460365,-0.02019789256155491,0.038556307554244995,0.05343691259622574,0.007857155986130238,-0.024020232260227203,-0.01978549174964428,0.004912001546472311,0.03374577686190605,-0.006050554569810629,0.007788178976625204,0.0514485128223896,-0.03339133411645889,0.013751300051808357,0.011272124946117401,-0.026372099295258522,0.00880588311702013,-0.08210694789886475,0.009298305958509445,0.004364507272839546,0.03571413457393646,0.012537086382508278,0.019485924392938614,0.028572695329785347,-0.00015534914564341307,0.007776450831443071,0.02270245924592018,-0.08936913311481476,0.002456821035593748,0.002510849153622985,0.025344396010041237,0.010642141103744507,-0.028059227392077446,-0.007085524033755064,0.004602887202054262,-0.02080059051513672,-0.030002737417817116,-0.018676666542887688,-0.017054405063390732,0.0056500304490327835,-0.014463147148489952,-0.04459717497229576,0.011874194256961346,0.007042317651212215,0.08450758457183838,0.04719192162156105,0.028390873223543167,0.03416993468999863,0.025858387351036072,-0.01987253874540329,-0.03898322582244873,-0.022338109090924263,-0.03393053635954857,0.061600152403116226,0.035673610866069794,0.022883428260684013,-0.007833323441445827,-0.015003563836216927,-0.012956184335052967,0.00087121338583529,-0.007894761860370636,0.017491627484560013,-0.0015650683781132102,-0.004537741653621197,0.012273482978343964,-0.003909736406058073,0.032208848744630814,-0.008160893805325031,0.04023440182209015,0.0033807014115154743,0.01296082604676485,0.0033990819938480854,-0.020069770514965057,0.03857284039258957,0.011363182216882706,-0.04188234359025955,-0.04146337881684303,-0.010101254098117352,0.01314781978726387,-0.03170827776193619,0.009474101476371288,0.030943352729082108,0.002968116430565715,0.005665313918143511,-0.010693185031414032,0.010935826227068901,-0.023459436371922493,-0.009418235160410404,0.0017451216699555516,-0.0067499177530407906,-0.012830582447350025,0.037479203194379807,-0.00809023529291153,-0.015611191280186176,0.03144305944442749,-0.03009372390806675,-0.03458601236343384,-0.08912480622529984,0.006855180487036705,0.019656619057059288,0.048372212797403336,-0.03463027998805046,-0.015247068367898464,-0.048902396112680435,-0.028178870677947998,0.02073845826089382,-0.026381101459264755,0.013922528363764286,-0.031735844910144806,0.018583931028842926,0.01652311533689499,-0.03313112631440163,0.0007225433946587145,0.03245871141552925,-0.037885963916778564,-0.00628056051209569,-0.01933671161532402,-0.016131484881043434,0.030985750257968903,0.004398276563733816,0.031671542674303055,0.022028587758541107,0.0432882085442543,0.013281618244946003,-0.0064639742486178875,0.04862523078918457,-0.030010705813765526,-0.0015947944484651089,0.026392290368676186,-0.01257218886166811,-0.02979649044573307,0.05286680534482002,0.022998495027422905,-0.011141417548060417,-0.019123617559671402,-0.007294482085853815,0.01975400559604168,-0.03145093843340874,-0.060137033462524414,0.03826853260397911,0.01554403267800808,-0.0008864052360877395,-0.0056415763683617115,0.047171302139759064,-0.027903247624635696,-0.019915172830224037,0.011816086247563362,-0.0027689633425325155,-0.009646995924413204,-0.009864666499197483,-0.020522205159068108,-0.020166853442788124,-0.015083198435604572,0.07212387025356293,-0.03032447025179863,0.007669137325137854,-0.03241514042019844,-0.02623319998383522,-0.00956875178962946,0.047734811902046204,-0.039719533175230026,-0.014245295897126198,0.026010775938630104,0.01622244343161583,-0.035371970385313034,-0.010398833081126213,0.03445618599653244,-0.03616836667060852,0.015205509029328823,0.0354505330324173,-0.024362485855817795,0.06646580994129181,0.03741863742470741,0.015450195409357548,0.01460620854049921,-0.03467869013547897,0.04196793958544731,0.0013607155997306108,0.04201151430606842,-0.028651027008891106,-0.0405707061290741,0.0014114109799265862,0.020648904144763947,-0.009073907509446144,0.006870083045214415,-0.024712109938263893,0.040787335485219955,0.034595876932144165,-0.01917676068842411,-0.0741320252418518,-0.03624743968248367,-0.02729569375514984,0.03420540317893028,0.010955682024359703,-0.017229830846190453,0.004427687264978886,0.0034389342181384563,-0.04342592507600784,0.0033691823482513428,0.049948789179325104,-0.000752301246393472,0.04924991354346275,0.012402603402733803,0.0020382297225296497,0.04290229454636574,0.014112579636275768,0.01334794145077467,0.04884621873497963,-0.004941899795085192,0.01782279461622238,-0.036957334727048874,-0.045151881873607635,0.005792845971882343,0.022148290649056435,-0.033286046236753464,-0.013404778204858303,0.0264411773532629,-0.013266772031784058,0.07720310240983963,0.020832642912864685,-0.026206469163298607,-0.017895719036459923,-0.04345535486936569,-0.018109505996108055,-0.031029468402266502,0.026575172320008278,-0.004348431713879108,0.031711652874946594,0.0206068754196167,-0.02406061626970768,0.019308602437376976,0.0013980916701257229,-0.0028011107351630926,0.008786594495177269,0.07727743685245514,0.0012420185375958681,-0.01163413468748331,0.02377590909600258,0.004675853997468948,0.019105814397335052,-0.030428694561123848,0.019251246005296707,0.021160738542675972,0.0029234911780804396,-0.013950088061392307,-0.01496830303221941,-0.03483356907963753,-0.010977224446833134,0.0634259358048439,-0.0553719736635685,0.038459792733192444,-0.0008851111633703113,0.026302652433514595,-0.015232078731060028,-0.001226472551934421,-0.028484534472227097,0.024829547852277756,-0.03850135952234268,0.0740431472659111,-0.042661402374506,0.0005896497168578207,0.028977708891034126,0.04791199415922165,0.0759764164686203,0.040098950266838074,0.023097392171621323,0.00261296727694571,0.027546735480427742,-0.02742047794163227,-0.03780704364180565,0.043064478784799576,-0.003151443786919117,0.05306266248226166,-0.017955204471945763,-0.00028231015312485397,0.017969749867916107,0.0038346489891409874,-0.03435273841023445,-0.051979754120111465,-0.023218341171741486,-0.02682332880795002,0.009237341582775116,0.01374063454568386,-0.0015931823290884495,-0.027332918718457222,-0.017905501648783684,0.014157230965793133,0.011176381260156631,0.029144680127501488,-0.06587546318769455,-0.07156039774417877,0.025410721078515053,-0.004132959060370922,-0.07825666666030884,0.009479669854044914,-0.006521816365420818,0.001246217405423522,0.024386288598179817,-0.032797567546367645,0.05882042646408081,-0.014271773397922516,0.019272690638899803,0.0035576431546360254,0.0503331683576107,0.037306685000658035,0.030221667140722275,-0.013983508571982384,0.010713892057538033,0.20866841077804565,0.02762463688850403,0.03466351330280304,-0.06483638286590576,-0.022238031029701233,-0.003023022087290883,-0.010475012473762035,0.01751776784658432,0.016104435548186302,0.0023990897461771965,0.03160978853702545,0.0465158075094223,0.03950407728552818,0.014958782121539116,0.024923138320446014,0.047129444777965546,-0.01456091832369566,-0.028847364708781242,0.008998523466289043,-0.025134172290563583,-0.02163056656718254,-0.005551033187657595,-0.0135414469987154,-0.02116571180522442,0.015895746648311615,-0.013404583558440208,-0.005967164412140846,-0.025371843948960304,0.01883462630212307,0.021683549508452415,-0.007960174232721329,0.030776076018810272,-0.03284405171871185,0.030011486262083054,0.021962182596325874,0.01264280080795288,-0.0033177246805280447,-0.012883507646620274,-0.013705283403396606,-0.013585404492914677,0.020842505618929863,-0.005227876827120781,-0.024048812687397003,0.018798138946294785,-0.05655979737639427,-0.0246694628149271,-0.001292344881221652,-0.04367939010262489,0.01117012556642294,-0.0025927682872861624,0.004874077625572681,0.002858184278011322,-0.014091724529862404,-0.05929545313119888,-0.07430607080459595,0.04086284339427948,0.0064912340603768826,0.012196586467325687,-0.03653259202837944,-0.01866571605205536,0.036115847527980804,-0.014973285607993603,0.04696400463581085,-0.016438007354736328,-0.041625529527664185,0.016593778505921364,-0.027429157868027687,0.04765917360782623,0.007238038349896669,-0.0112288324162364,-0.003553258953616023,-0.02049851603806019,-0.031080281361937523,-0.0033867373131215572,0.006315916310995817,0.04340558871626854,-0.00814761035144329,0.00049456802662462,-0.08863695710897446,-0.043234534561634064,-0.005939994473010302,0.02922673709690571,-0.04001712054014206,-0.011231829412281513,-0.07483971863985062,0.013941074721515179,0.0029421919025480747,-0.018874339759349823,-0.05448092892765999,-0.0490320585668087,-0.017667444422841072,0.057570114731788635,0.012285195291042328,-0.009582431055605412,-0.02961556985974312,-0.03490350767970085,-0.039738260209560394,0.022713828831911087,-0.061456549912691116,0.06894867867231369,0.024219153448939323,-0.00426524318754673,-0.03425813466310501,0.002661433070898056,-0.016124913468956947,0.01078140176832676,0.03268347308039665,-0.04335923492908478,0.008998981676995754,-0.022104082629084587,0.01916792243719101,-0.053772252053022385,-0.00222601811401546,-0.04042072221636772,-0.013085632584989071,-0.012042171321809292,-0.01447399239987135,-0.033106956630945206,-0.0052186534740030766,0.02478794939815998,0.038126055151224136,0.003310170955955982,0.010951616801321507,-0.021613849326968193,-0.010059054009616375,0.003308734390884638,0.017665617167949677,-0.0006594299920834601,0.014749427326023579,-0.012037131004035473,0.004249222576618195,-0.01672564260661602,-0.02690649963915348,-0.015024617314338684,0.0040749963372945786,-0.007248274981975555,-0.04331880807876587,0.024590129032731056,-0.03249995782971382,-0.011737649329006672,0.02380618080496788,-0.02698715403676033,-0.027421491220593452,0.020636333152651787,-4.265110692358576e-05,0.004187311045825481,-0.004497941583395004,-0.017317159101366997,0.01992790587246418,0.05080800876021385,0.005742799490690231,-0.0242703128606081,-0.01125920657068491,0.0018949226941913366,-0.0014910043682903051,0.01650874689221382,-0.03580549731850624,-0.018848776817321777,-0.012289505451917648,0.007482572924345732,0.016932815313339233,-0.03580476716160774,0.005433867685496807,-0.014941567555069923,0.013184410519897938,-0.016375984996557236,-0.007807202637195587,-0.0059315296821296215,0.013454759493470192,0.03310723230242729,-0.003859717631712556,-0.010125387459993362,-0.011425238102674484,-0.02219448797404766,-0.05703103169798851,-0.013546009548008442,-0.014875134453177452,-0.04076002910733223,0.012597832828760147,-0.046600133180618286,0.029620831832289696,0.050616245716810226,-0.07599220424890518,0.03509756550192833,-0.005153347738087177,-0.0043646786361932755,-0.018594112247228622,0.03595490753650665,-0.009257351979613304,-0.013936496339738369,0.0017549574840813875,0.025347108021378517,-0.025831326842308044,0.03576364740729332,-0.04700553044676781,-0.0030313103925436735,-0.010207588784396648,0.03568428009748459,0.013238824903964996,-0.035907190293073654,0.03319460526108742,-0.048721250146627426,-0.02625875361263752,0.02608047053217888,-0.060427695512771606,-0.015968089923262596,0.018228907138109207,0.04529554024338722,-0.01480180025100708,0.014817274175584316,-0.013140448369085789,-0.012094146572053432,-0.0027241536881774664,-0.03332728147506714,-0.030428584665060043,0.03957928717136383,-0.018218552693724632,-0.01493523083627224,0.02363813854753971,0.0010182451223954558,0.022167300805449486,0.03272955119609833,-0.05832260474562645,0.00025263571296818554,0.011105658486485481,0.018714318051934242,0.019507287070155144,-0.028945596888661385,-0.04360709339380264,-0.015811366960406303,0.04890577867627144,0.008514578454196453,0.012131590396165848,0.03719037026166916,0.052935972809791565,-0.04007521644234657,-0.015652600675821304,-0.019106009975075722,0.00015621659986209124,-0.0028530030976980925,-0.03110196627676487,-0.019302986562252045,-0.016529101878404617,0.025118235498666763,-0.007015404291450977,0.005672059953212738,-0.034879185259342194,0.010760790668427944,-0.022327370941638947,0.005140084307640791,-0.022109350189566612,0.0012054014950990677,0.0781858041882515,-0.06343090534210205,0.017081135883927345,0.06603164225816727,0.04712517559528351,-0.03488798812031746,-0.04149272292852402,-0.021915461868047714,-0.006402506958693266,0.06108776852488518,0.013918525539338589,-2.9991046176292002e-05,-0.05341058596968651,0.0609847791492939,-0.011073051020503044,0.03478661924600601,0.0281177069991827,-0.023009294643998146,0.01155339740216732,-0.016047077253460884,0.009964297525584698,-0.0013198276283219457,-0.01405765675008297,-0.002527560805901885,-0.011916158720850945,0.007180334534496069,-0.012837529182434082,-0.04500260949134827,-0.014660650864243507,0.00979531742632389,-0.007879536598920822,0.07974331080913544,-0.013797067105770111,-0.014025965705513954,0.014890272170305252,-0.011611660942435265,-0.004743631929159164,0.03900417685508728,0.005475036799907684,-0.028108524158596992,-0.03991813212633133,-0.027764050289988518,0.04085710644721985,-0.07768455892801285,0.005414568353444338,0.019274774938821793,-0.0145709915086627,-0.04815123975276947,0.05329030379652977,0.03317883238196373,0.06235693022608757,0.016809405758976936,-0.01632608473300934,-0.020068643614649773,0.0019226351287215948,0.03858717530965805,0.03461434319615364,0.00468730041757226,0.02833678387105465,-0.0255097895860672,0.004017451778054237,-0.048595674335956573,0.08599410206079483,-0.007217903155833483,0.02689342387020588,0.010250771418213844,0.011045748367905617,0.010787403210997581,-0.041264280676841736,-0.02538643777370453,-0.002219653222709894,-0.003203459084033966,0.10723312199115753,-0.0021262187510728836,0.033372730016708374,-0.01275174506008625,-0.0030993111431598663,-0.034188415855169296,0.0217305738478899,-0.015001646243035793,-0.030513811856508255,-0.0030085635371506214,-0.03397638350725174,-0.06418024748563766,-0.0009784501744434237,0.023470420390367508,-0.026605000719428062,0.028828592970967293,-0.03315151110291481,0.0072291879914700985,-0.012352688238024712,-0.021457232534885406,0.011407220736145973,-0.008430711925029755,-0.0345693975687027,0.011588829569518566,-0.0005387237179093063,-0.03510228917002678,-0.03752879053354263,-0.005441742949187756,0.044660087674856186,-0.06084296852350235,-0.050291698426008224,-0.007477594539523125,-0.014866650104522705,0.008653187192976475,0.02167540229856968
